svm_type c_svc
kernel_type rbf
gamma 0.00222222
nr_class 7
total_sv 505
rho 0.906748 0.912397 0.909272 0.953407 0.923682 0.910838 0.906177 0.902675 0.950481 0.918526 0.904283 -0.902993 0.946155 0.91268 -0.901363 0.947798 0.915229 0.901704 -0.938925 -0.947019 -0.913868
label 0 1 2 3 4 5 6
probA 0.36889 22.2659 -26.5556 -122.034 24.9499 5.33372 0.453825 -555.678 -45.2904 28.4787 0.345558 0.290132 -75.133 0.788055 0.324583 -58.2156 1.03056 0.374805 -288.78 -153.264 -27.879
probB 0.275312 20.4291 -24.0338 -115.658 23.3201 4.97287 0.317031 -501.585 -42.3559 26.3686 0.235331 -0.0833908 -70.5358 0.72654 -0.132372 -54.5689 1.12031 -0.0518018 270.982 144.71 25.3289
nr_sv 56 60 64 62 126 74 63
SV
0.1 0.1 0.1 0.1 0.1 0.1 1:0.15229809 2:-4.0402975 3:-0.74016643 4:-0.3227236 5:0.12409554 6:0.15507369 7:-1.0282593 8:-0.95772988 9:0.56819183 10:22.410271 11:3.3038011 12:-0.34924191 13:-0.097993128 14:-3.1342363 15:3.3547494 16:5.108429 17:-0.77948964 18:-5.040544 19:-1.0077078 20:-0.35197148 21:-0.50848591 22:1.0537145 23:-3.6758993 24:-3.8711324 25:0.36115444 26:19.159622 27:2.7899129 28:-0.42024174 29:-1.02083 30:-1.3340518 31:0.25083771 32:1.3804975 33:2.6966197 34:-1.9191749 35:-0.32204625 36:0.71952325 37:-0.42607927 38:3.5884001 39:4.4224138 40:-0.47311923 41:-3.0705233 42:15.39329 43:2.8807225 44:0.29372767 45:-0.41480768 46:-3.3317411 47:4.45504 48:6.6133952 49:-3.7857592 50:-2.947875 51:-0.80155337 52:0.23433985 53:-0.5457902 54:-2.2739868 55:-4.086699 56:-1.9705889 57:4.2161994 58:0.27748513 59:-0.13381068 60:1.2250912 61:1.2186943 62:5.2954526 63:7.2464294 64:1.3832953 65:-1.7498156 66:6.9991703 67:1.4869233 68:-0.32097125 69:0.11328647 70:-4.4090471 71:-0.7017014 72:4.0293999 73:1.2871026 74:-2.6335886 75:-0.61870414 76:-0.39502481 77:0.35483852 78:0.69712251 79:0.28815153 80:-0.41407424 81:-0.34326363 82:-4.4187107 83:-0.92555773 84:0.26683411 85:-0.8891049 86:1.9155654 87:-1.8070614 88:-3.3651969 89:1.8048939 90:6.5770864 91:1.1229802 92:-0.47298864 93:-0.011137237 94:-1.2650386 95:1.842831 96:2.8155501 97:-1.0075445 98:-7.7354112 99:-1.7813003 100:-0.3384636 101:0.23627101 102:0.1518818 103:-3.2240806 104:-2.7630198 105:1.9261328 106:-5.3755732 107:-1.2424426 108:0.072752304 109:-0.38902324 110:3.4955723 111:0.82107496 112:-2.6051238 113:0.23555289 114:-3.0931244 115:-0.6015715 116:-0.50823647 117:-0.49887305 118:0.46518341 119:-2.0142629 120:-2.489764 121:0.034212854 122:-0.010368418 123:-0.027528087 124:-0.65769392 125:-0.41766211 126:-0.2471156 127:-0.082798734 128:0.080049254 129:0.19988362 130:0.27948478 131:0.44167995 132:0.17795554 133:-0.67646688 134:0.095566928 135:0.68513978 136:0.63164169 137:0.12496139 138:0.23697704 139:0.3446219 140:-0.26929504 141:-0.63106984 142:-0.24604589 143:0.46557689 144:0.58002043 145:0.12178462 146:0.11715239 147:0.21561775 148:0.081559867 149:-0.59993541 150:-0.10055114 151:0.29102057 152:0.30606097 153:0.0049438989 154:-0.01923793 155:-0.055428974 156:0.49049032 157:-0.60250247 158:0.18637116 159:-0.02801127 160:-0.18917252 161:-0.13508128 162:0.0045896694 163:-0.0052628224 164:0.036487065 165:-0.63216347 166:-0.064432003 167:-0.088661186 168:-0.01738424 169:-0.12134862 170:-0.025050724 171:-0.032205202 172:0.37885836 173:0.039419081 174:-0.050722782 175:0.02688357 176:0.0585411 177:-0.081358254 178:0.058542233 179:0.066199847 180:-0.15286505 181:-0.17188202 182:-0.42134076 183:0.086807519 184:0.47424921 185:0.44988149 186:-7.624877 187:-0.34687644 188:-0.27461264 189:0.59812433 190:-10.113645 191:3.9886937 192:10.554712 193:0.12929469 194:-0.095425732 195:-0.092469767 196:-0.0035614395 197:-0.46638647 198:-0.094973572 199:0.036174767 200:0.11562742 201:0.25993335 202:0.95534289 203:0.40600228 204:0.053207725 205:0.16357122 206:-0.13426334 207:1.5732281 208:1.3853202 209:0.45558849 210:4.2956219 211:1.3029728 212:0.047438305 213:-0.5642361 214:-1.9049199 215:2.0639541 216:2.966526 217:-0.13586001 218:-0.71301973 219:-0.20365775 220:0.47429153 221:-0.9074989 222:0.77183241 223:-0.14467399 224:-0.70774353 225:-0.66826797 226:1.7580475 227:0.62801474 228:0.57014734 229:0.27696428 230:-0.58258337 231:1.4297267 232:1.5644294 233:0.17934437 234:0.11393084 235:0.10992914 236:0.15135361 237:0.52653199 238:0.1107095 239:0.34026089 240:0.15488276 241:-0.38488498 242:4.3020797 243:1.3086329 244:-0.02946306 245:-0.77712345 246:-1.8003451 247:0.90349448 248:2.0373497 249:-0.5595088 250:2.2258015 251:0.74290109 252:0.22189052 253:-0.83208919 254:0.33663374 255:0.93312329 256:0.44576839 257:-0.20773523 258:1.5860883 259:0.56317592 260:-0.069750063 261:-0.44786212 262:-0.7579537 263:-0.052979317 264:0.56652427 265:-0.20534137 266:2.7093294 267:0.92684311 268:1.7349421 269:1.5018218 270:0.17932455 271:4.4763727 272:3.1737909 273:-0.20615429 274:-1.127394 275:-0.35176659 276:-0.0710489 277:0.7269671 278:0.031436279 279:0.024612229 280:-0.0037427116 281:-0.099380016 282:-0.82091558 283:-0.25490305 284:0.40907317 285:-0.70480663 286:1.2002443 287:0.52401316 288:-0.5609473 289:-0.48441705 290:-0.60117209 291:-0.18030939 292:0.17689948 293:0.29140133 294:-0.58804005 295:0.0075279004 296:0.46340147 297:0.062151786 298:-0.93975323 299:-0.32480869 300:0.13904621 301:0.15561247 302:0.40097946 303:0.39067751 304:-0.030768732 305:-0.10624642 306:-1.6505206 307:-0.67356563 308:-0.10452321 309:0.73023158 310:1.2153374 311:-1.0320239 312:-1.733568 313:-0.0055276672 314:-0.031833503 315:0.035699528 316:-1.0843503 317:1.5989921 318:-0.97290629 319:-0.2920799 320:0.51766324 321:0.032111932 322:-0.006101286 323:-0.026804419 324:-0.43138397 325:-0.29596859 326:0.035322301 327:-0.083717667 328:-0.086136498 329:-0.03320428 330:0.049543072 331:0.16329861 332:-1.2213806 333:0.080483772 334:-0.43329769 335:0.10656126 336:0.40486258 337:-0.045942258 338:0.01964031 339:0.069836043 340:-0.11337669 341:-0.57271063 342:-0.1476382 343:0.045073807 344:0.14509511 345:-0.03660002 346:0.0062101563 347:0.027398298 348:0.63228148 349:0.69985181 350:0.031009292 351:0.13774647 352:0.080763094 353:-0.024439815 354:-0.0023384264 355:-0.003846138 356:0.16093306 357:-0.79662538 358:0.0908418 359:-0.070327304 360:-0.12121104 361:-0.009091083 362:0.011524837 363:0.055604033 364:0.57238597 365:-0.43811497 366:-0.071319215 367:0.098903097 368:0.12926343 369:-0.0041328389 370:-0.00079518609 371:0.0090857139 372:-0.17739159 373:-0.89843369 374:-0.046160009 375:0.02273828 376:0.051812921 377:-0.063131526 378:0.057780206 379:0.12931144 380:0.028350558 381:0.0066902214 382:-0.28446877 383:0.29532278 384:0.4344964 385:0.47271857 386:0.56133085 387:0.46805388 388:-0.46586302 389:-1.5571681 390:-1.3831413 391:2.1779497 392:2.6386399 393:0.01737049 394:-0.0067740618 395:-0.0074102655 396:-0.25529248 397:-0.51248324 398:-0.006599417 399:-0.049991257 400:-0.027261732 401:-0.17927782 402:-19.429213 403:-1.5789205 404:0.39855799 405:0.77006179 406:-7.5939512 407:-0.066762984 408:-0.052425086 409:-0.17394771 410:-0.93002957 411:-2.2655473 412:-0.39184734 413:-0.063410662 414:-0.050554931 415:-0.15439741 416:-0.31278557 417:-1.0073721 418:-0.34987271 419:0.030797839 420:-0.031839248 421:-0.041216437 422:0.13563865 423:-0.080150858 424:-0.069331072 425:0.92790234 426:3.0349553 427:0.8141461 428:-0.30959705 429:1.1705674 430:-1.0363221 431:-0.0035761767 432:-0.016817266 433:-0.08611092 434:0.2136326 435:-2.0340574 436:-0.14630924 437:-0.002925972 438:-0.01639922 439:-0.079597317 440:0.035586134 441:-0.63320225 442:-0.13142955 443:0.013539719 444:-0.011390362 445:-0.01657238 446:0.49301291 447:-0.19091524 448:-0.00047617228 449:0.29542109 450:0.054836385 
0.1 0.1 0.1 0.1 0.1 0.1 1:3.2863355 2:-2.1549075 3:-0.34904012 4:-0.83998162 5:0.66236222 6:0.80217117 7:1.0638175 8:0.19138972 9:3.2648234 10:-17.625355 11:-2.8688104 12:-0.67420369 13:1.6085731 14:3.3922532 15:1.0860589 16:-2.2743096 17:-6.2148833 18:0.52991712 19:0.33819458 20:0.18786375 21:0.0604918 22:-3.8746095 23:-2.64132 24:1.2005603 25:-1.3527639 26:8.4347277 27:1.0711633 28:-0.16094387 29:0.015923161 30:-4.4723616 31:0.76649958 32:4.5555549 33:3.3590138 34:-11.830654 35:-1.3614074 36:0.59415662 37:-0.25279453 38:5.6512222 39:5.1016769 40:-2.1959174 41:-0.4026117 42:6.096313 43:0.93356389 44:-0.062982023 45:-0.042775884 46:-2.1800413 47:1.1111293 48:2.8574586 49:-1.9449306 50:-11.591827 51:-2.3883531 52:-0.20881836 53:0.29956472 54:-0.14878884 55:-3.3468006 56:-3.3041356 57:7.8714771 58:1.1961842 59:0.35345167 60:-0.16577144 61:-0.62944764 62:6.3861399 63:5.2370176 64:-1.7146145 65:-2.8065398 66:3.2279365 67:0.32806525 68:0.58343357 69:-0.013893838 70:-1.6671104 71:-1.3190508 72:0.59087628 73:1.1207933 74:-3.4510827 75:-0.61621952 76:0.087909907 77:0.27670076 78:-0.16384675 79:0.34975472 80:0.44573855 81:0.31160626 82:-3.4367373 83:-0.64763331 84:-0.80375963 85:0.4041729 86:-0.98805624 87:-1.7954412 88:-0.59740704 89:-1.7354615 90:6.3751879 91:1.0900791 92:0.89083838 93:0.077538975 94:-0.4855209 95:2.0305693 96:2.20402 97:-0.26274359 98:-5.2425485 99:-1.2120078 100:0.19229095 101:-0.5174675 102:1.5388199 103:-1.3147407 104:-2.561523 105:0.87210053 106:-12.276872 107:-3.0643067 108:0.4893541 109:-0.27259615 110:4.8239317 111:-2.0782626 112:-6.7110376 113:-1.8009254 114:-5.9375515 115:-1.4676558 116:0.4183307 117:-0.58725929 118:0.63435364 119:-2.8882239 120:-3.5366292 121:0.2475594 122:0.02053847 123:0.042319365 124:-0.39452219 125:-1.0872914 126:0.15864636 127:-0.0039753327 128:-0.10901577 129:0.13038804 130:-0.072777562 131:-0.13318965 132:-1.3480867 133:-2.1070292 134:0.097005866 135:-0.4261573 136:-0.45604157 137:0.19963177 138:-0.041955929 139:-0.088313691 140:-0.30854651 141:-0.2805348 142:0.24807747 143:-0.03838269 144:-0.21354312 145:0.068234056 146:-0.097651735 147:-0.19471237 148:0.017020224 149:-0.6515305 150:0.41475195 151:-0.27762046 152:-0.57104409 153:-0.1313704 154:-0.064487159 155:-0.16149989 156:-0.43134496 157:0.83731174 158:-0.034847617 159:-0.30639735 160:-0.18268073 161:-0.32103574 162:0.034296047 163:0.09069331 164:-0.56472653 165:0.6480751 166:-0.51098228 167:-0.13109806 168:0.3566241 169:-0.30486324 170:-0.078246891 171:-0.1549248 172:0.32531026 173:1.7127324 174:-0.18378431 175:-0.37085193 176:-0.24281432 177:-0.677414 178:-0.19502878 179:-0.27121428 180:0.99642813 181:0.10188036 182:-0.01943502 183:-0.78377038 184:-0.4675543 185:-2.7414632 186:-45.012844 187:-5.6475272 188:1.1138067 189:0.023025459 190:7.0585432 191:-7.5099854 192:-11.895488 193:0.24778149 194:-0.11303598 195:-0.17392328 196:-0.63762575 197:0.53139168 198:-0.094973572 199:-0.0073945089 200:0.086139634 201:-0.24263571 202:1.947718 203:0.76567596 204:-0.077942282 205:0.093777232 206:-1.6340162 207:1.1745869 208:2.0132411 209:-0.15963434 210:-2.6208494 211:-0.78385985 212:-0.18958437 213:-0.24924722 214:0.81019932 215:-0.96532631 216:-1.3285974 217:0.010387664 218:1.3872283 219:0.52124673 220:-0.44874832 221:0.17089772 222:-0.93370289 223:0.34899035 224:0.9847132 225:-0.23279873 226:2.8170516 227:0.94800538 228:-0.094918214 229:-0.2171617 230:-0.4525767 231:1.7544469 232:1.7185633 233:0.21187051 234:-1.9403418 235:-0.66496927 236:0.11578102 237:-0.6081624 238:1.1045293 239:-1.4711297 240:-1.9272127 241:0.10605069 242:1.1298676 243:0.4308809 244:-0.6968286 245:-0.38078415 246:-1.487788 247:-0.61151206 248:0.66229677 249:0.16318825 250:-1.7057371 251:-0.56468308 252:-0.048205636 253:-0.91347188 254:1.3071914 255:-1.2320323 256:-2.0085819 257:0.27086475 258:0.28357154 259:0.14467888 260:0.74775726 261:-0.6789611 262:1.0431451 263:0.2740891 264:-0.63293618 265:0.046540804 266:0.7812075 267:0.33860537 268:-0.33366039 269:-0.41004413 270:-0.49168313 271:-0.017976949 272:0.38462651 273:0.087348871 274:2.2959096 275:0.79441148 276:0.20764188 277:0.38336653 278:-0.96789199 279:1.1504899 280:1.6388762 281:-0.16436444 282:-1.3779743 283:-0.48084477 284:-0.59215969 285:-0.51030695 286:0.062391303 287:-1.4461433 288:-1.1296526 289:0.015735915 290:2.45139 291:0.88905543 292:0.56150407 293:-1.0984702 294:0.30293027 295:0.86220014 296:0.42018151 297:-0.069286443 298:-0.041904889 299:0.029973917 300:-0.73071659 301:1.0314022 302:-1.3447037 303:0.38232464 304:1.3439633 305:0.19035144 306:-1.8155916 307:-0.7408427 308:-0.33364084 309:-0.39898294 310:0.78188676 311:-1.1281097 312:-1.4603727 313:0.096021041 314:-0.44347763 315:-0.14018944 316:1.1712419 317:0.67625242 318:1.3479147 319:1.5646443 320:0.17538165 321:-0.00029385573 322:0.0066011474 323:0.039791211 324:-0.34153473 325:-1.4740684 326:-0.027420847 327:-0.031724654 328:-0.0017319241 329:0.0093654888 330:-0.021515828 331:-0.073339388 332:-0.37381288 333:-2.2897022 334:0.13014808 335:-0.23794545 336:-0.26538503 337:-0.0064129494 338:0.021445666 339:0.074925043 340:0.24865431 341:-1.0216786 342:-0.016229827 343:0.082880087 344:0.075476825 345:-0.017582648 346:-0.010292626 347:-0.030973967 348:0.3509129 349:-0.86169291 350:0.080656208 351:-0.036540333 352:-0.090394638 353:-0.016597586 354:-0.015069638 355:-0.060339984 356:0.11825766 357:-1.0899341 358:0.13675229 359:-0.14430027 360:-0.21085803 361:-0.025789224 362:0.010031293 363:0.051131815 364:-0.50975096 365:-0.95702583 366:-0.081839502 367:-0.048553806 368:0.029396504 369:-0.044630226 370:-0.014065764 371:-0.046947245 372:-2.030407 373:1.5646619 374:-0.057910461 375:-0.20032765 376:-0.097440325 377:-0.028351489 378:-0.053873584 379:-0.12379266 380:-0.10132414 381:-0.85320556 382:0.22630732 383:-0.20930816 384:-0.32620424 385:-0.30230895 386:-6.0544662 387:-1.6469162 388:2.6129723 389:7.692719 390:3.4901819 391:-1.0666404 392:-3.2439032 393:-0.019910295 394:-0.020259777 395:-0.044394448 396:-0.67837614 397:0.23581299 398:-0.10418808 399:-0.10185111 400:0.019524202 401:-2.4233313 402:-49.780071 403:-5.7292089 404:-1.1342435 405:-0.060996592 406:-8.5331278 407:-0.11206566 408:-0.051193118 409:-0.16649732 410:0.17287064 411:0.66723317 412:-0.29715949 413:-0.12074576 414:-0.053247616 415:-0.17073412 416:0.44717655 417:1.0597472 418:-0.3163408 419:-0.023822704 420:-0.061463587 421:-0.098672949 422:-0.48768669 423:-1.3309733 424:-0.27167332 425:-0.853742 426:-18.83868 427:-2.9764481 428:0.24080968 429:-0.25433192 430:-3.7287164 431:-0.0078953095 432:-0.017783919 433:-0.09489429 434:-1.2007849 435:0.50424165 436:-0.20517182 437:-0.0073529314 438:-0.017967032 439:-0.095084734 440:-1.0256017 441:0.37176856 442:-0.15732296 443:-0.03593738 444:-0.031259011 445:-0.077601328 446:-0.39028761 447:-0.54087883 448:-0.14655803 449:-2.337302 450:-0.31847093 
0.1 0.1 0.1 0.1 0.1 0.1 1:5.2148814 2:-7.3559895 3:-0.1934718 4:-0.62247866 5:1.2408818 6:0.96747965 7:3.6708786 8:2.1558058 9:3.0397854 10:-6.6778321 11:-1.0744543 12:0.27843958 13:0.21938765 14:2.4844081 15:2.6535008 16:-0.38358587 17:-4.245151 18:1.3995254 19:0.58656776 20:0.33557874 21:-0.60416657 22:-1.7036868 23:-2.8772883 24:-0.85624272 25:-0.96237665 26:5.6777568 27:1.1008416 28:0.013881426 29:-1.0616751 30:0.44018897 31:-0.70131975 32:-1.0581363 33:0.73347908 34:-15.440535 35:-2.4320703 36:1.3071591 37:-0.24680853 38:4.6101007 39:-0.2273109 40:-5.2094007 41:-5.7201085 42:-3.0006371 43:0.14387955 44:-0.7121706 45:-0.054097723 46:-5.7877417 47:-7.4013662 48:-0.8481977 49:-1.7614841 50:-5.8225312 51:-1.2958528 52:0.44065803 53:-0.81378502 54:1.4856763 55:-3.6970677 56:-5.2776618 57:3.1678429 58:-9.1944227 59:-0.48444012 60:-0.12033075 61:-0.58081919 62:3.1211126 63:1.2306783 64:-2.1216106 65:-4.2774253 66:-4.7817655 67:0.236352 68:0.17619701 69:-1.0038538 70:-1.1492145 71:-4.4433475 72:-2.7207706 73:-1.2243544 74:-8.0089283 75:-1.7028335 76:-0.28592345 77:-0.62590027 78:1.2586913 79:-4.0651436 80:-4.5744019 81:0.095816039 82:-12.988064 83:-2.9863889 84:-0.11019278 85:-0.6559732 86:4.05159 87:-3.8108857 88:-7.1080995 89:-3.0355515 90:10.563757 91:1.8628014 92:-1.1027516 93:-0.48546121 94:-4.7453108 95:-3.9921663 96:1.3037595 97:0.43596807 98:-4.5918841 99:-1.0612065 100:-0.24896766 101:-0.88709718 102:2.09604 103:-2.8188567 104:-4.3230414 105:-1.4155717 106:-0.69469696 107:-0.25865424 108:0.70194906 109:-0.076696493 110:0.67909718 111:-0.54258651 112:-1.1873398 113:-2.6512883 114:-4.5084262 115:-1.0588464 116:-0.34964836 117:0.10010166 118:-1.1647314 119:-3.7068028 120:-2.5150099 121:0.20348586 122:-0.01602843 123:0.044472028 124:0.04326278 125:-0.78523988 126:0.10088407 127:0.055721682 128:-0.010573727 129:-0.07748089 130:-0.083418332 131:-0.15100843 132:-0.22440131 133:-0.53993928 134:0.24936526 135:-0.21832797 136:-0.31424671 137:-0.041364186 138:0.039346822 139:0.040879205 140:-0.47313535 141:-0.3254877 142:-0.1924798 143:-0.127156 144:0.030510427 145:0.12124107 146:0.04225767 147:0.039283719 148:0.064485639 149:-1.0545039 150:0.29858199 151:-0.16990252 152:-0.38865069 153:0.027207727 154:-0.058685284 155:-0.13320823 156:0.40237439 157:-0.45259422 158:0.34288618 159:-0.0041402159 160:-0.31487909 161:-0.11312402 162:-0.038514629 163:-0.10850937 164:0.69031221 165:-1.0797246 166:0.25611097 167:-0.17909706 168:-0.39036778 169:-0.1008029 170:-0.089788996 171:-0.19287567 172:0.6036706 173:0.03050971 174:0.31196371 175:-0.35944775 176:-0.54860616 177:-0.42315286 178:-0.0018770089 179:0.037128814 180:1.0995517 181:-0.29489377 182:0.14739372 183:-0.25701192 184:-0.30671215 185:2.9197164 186:-38.323204 187:-4.4488382 188:-1.2412059 189:0.71068239 190:3.8133852 191:-6.3101993 192:-8.5855274 193:0.50668073 194:-0.30068895 195:-0.50716442 196:-1.7338828 197:3.1911302 198:0.71454972 199:0.049086947 200:-0.65251672 201:1.3754127 202:-1.9845729 203:-0.53115809 204:-0.13000666 205:-0.90797335 206:0.53594428 207:-1.4307095 208:-1.5239656 209:-0.30507305 210:-2.6069233 211:-0.80387491 212:0.46485931 213:-0.69449317 214:1.9392104 215:-1.3123289 216:-2.4169836 217:-0.022416053 218:0.85404855 219:0.52287757 220:-0.71342665 221:-0.62185007 222:-1.3465071 223:-1.6201876 224:-0.14875568 225:0.10322948 226:5.2898579 227:1.6494795 228:-0.3224442 229:-0.32351667 230:-2.7219853 231:2.3295741 232:3.9085937 233:-0.570135 234:-1.4516313 235:-0.46661663 236:0.13967979 237:-1.4366113 238:1.73162 239:-1.8551641 240:-2.6994004 241:-1.45161 242:2.4802663 243:0.82691306 244:0.33849639 245:0.2851429 246:-1.5363238 247:1.7991756 248:2.5117776 249:-1.0064678 250:0.67408246 251:0.25947827 252:0.96030813 253:-0.60634077 254:0.74841714 255:0.66150582 256:-0.097249158 257:0.48261687 258:-1.9742087 259:-0.66061372 260:-0.51920944 261:-1.150511 262:1.3675932 263:-2.4616723 264:-2.8875494 265:-1.0871528 266:4.5999279 267:1.4799676 268:-0.53538209 269:-0.14566568 270:-3.0179667 271:0.21049879 272:2.598752 273:-0.52971303 274:1.4178685 275:0.52228004 276:-0.2374936 277:-1.7685579 278:0.97514886 279:-1.2673562 280:-1.7375411 281:-0.0445401 282:-2.4454048 283:-0.94012672 284:-0.12797831 285:-1.2408562 286:1.7769731 287:-2.1316588 288:-3.002121 289:-0.20188504 290:0.16193947 291:0.11287645 292:-0.60863942 293:-1.0506885 294:0.0039164657 295:-1.7335047 296:-1.3218663 297:-0.19777109 298:-0.60629296 299:-0.18568426 300:0.50944787 301:-1.273838 302:1.5694159 303:-0.75630665 304:-1.7958744 305:0.21793517 306:0.90103185 307:0.39466044 308:-0.85941291 309:0.49200562 310:-1.9477611 311:-0.28089589 312:1.3398076 313:-0.32990232 314:0.87063801 315:0.40314594 316:-0.12844852 317:-0.06833005 318:-1.5095961 319:-0.066307895 320:1.1009284 321:0.040538594 322:-0.0076290662 323:-0.031262487 324:-0.2969768 325:-1.6807212 326:0.084418133 327:-0.095785126 328:-0.13188453 329:-0.0055822069 330:-0.014505512 331:-0.042700578 332:0.66133267 333:0.3380399 334:0.049535677 335:0.032591693 336:-0.015025421 337:-0.030106762 338:0.029838389 339:0.10134006 340:-0.51041341 341:-1.3588996 342:-0.073658563 343:0.044256605 344:0.089018807 345:0.083178952 346:0.012462797 347:0.049853709 348:-0.53764653 349:-0.68417591 350:-0.066205598 351:0.013066153 352:0.061317064 353:0.005435185 354:-0.0024898029 355:-0.003350178 356:-1.4381161 357:0.38834336 358:-0.12803067 359:-0.14012533 360:-0.0058937855 361:-0.0025619552 362:0.0010893601 363:0.011448183 364:1.0455124 365:-0.48870644 366:0.067696244 367:0.091876358 368:0.013637815 369:-0.038111117 370:-0.023894146 371:-0.099715322 372:-0.31414595 373:-0.86254984 374:0.11915256 375:-0.23631802 376:-0.25982299 377:-0.1283749 378:-0.062588744 379:-0.1439787 380:-0.49709779 381:-0.73423034 382:0.16040619 383:-0.390654 384:-0.41511947 385:1.5277039 386:-4.7545714 387:-1.0098653 388:-0.73606509 389:-2.8858848 390:1.7897903 391:-2.2122924 392:-2.9472678 393:0.071114972 394:-0.0670202 395:-0.20536022 396:0.081914939 397:2.7668774 398:0.18685924 399:-0.2833519 400:-0.34004036 401:3.6600506 402:-33.472286 403:-2.7118306 404:-1.6861972 405:-0.47454482 406:-6.3606987 407:-0.15918308 408:-0.058939621 409:-0.21590939 410:-0.25871187 411:-0.9325434 412:-0.47617504 413:-0.1604697 414:-0.05897595 415:-0.22004865 416:-0.20279926 417:-0.86417699 418:-0.47068474 419:-0.09788613 420:-0.12035348 421:-0.11562322 422:1.2844311 423:3.757998 424:-0.08777234 425:1.4410626 426:-19.951612 427:-3.2328436 428:0.40287372 429:0.83909428 430:-2.1357102 431:0.0085403211 432:-0.021001238 433:-0.13054733 434:0.85689735 435:-0.25005803 436:-0.21420269 437:0.0010839355 438:-0.020614224 439:-0.1289416 440:0.13130887 441:-0.53530312 442:-0.20673947 443:-0.07532008 444:-0.052015923 445:-0.15096302 446:-0.13427505 447:0.56957728 448:-0.22049999 449:-3.2148764 450:-1.5245411 
0.1 0.1 0.1 0.1 0.1 0.1 1:-1.2911875 2:20.87248 3:4.6850004 4:-0.14568844 5:-0.7244963 6:-4.0882397 7:3.3192203 8:6.071208 9:0.56344938 10:-8.905159 11:-1.4549736 12:0.21109608 13:0.11781293 14:1.1971798 15:-0.64578301 16:-1.5126899 17:-0.47405261 18:-0.45071578 19:1.0674269 20:-0.45440838 21:-0.29501039 22:-2.7946582 23:0.83591425 24:3.077013 25:-3.1323915 26:3.7690454 27:0.65000224 28:-1.6252475 29:0.80553603 30:-9.2803898 31:-4.7802377 32:3.2462726 33:2.6554308 34:-10.622036 35:-2.0043099 36:-0.43040818 37:-0.27735272 38:4.2210989 39:-0.027085716 40:-4.62884 41:1.427102 42:13.877649 43:2.4092274 44:-0.16882557 45:-0.35660896 46:-3.1992006 47:2.1514692 48:4.6177316 49:-2.5194538 50:-0.65114456 51:1.5682884 52:0.4876008 53:-0.88572717 54:-1.9384352 55:-2.4966516 56:-0.66209656 57:4.4499221 58:-5.7753005 59:-0.89622951 60:-1.9584885 61:6.6101832 62:-2.2552335 63:3.9610102 64:6.2183166 65:0.71891421 66:-0.44418663 67:0.26342493 68:0.025216503 69:-1.0418488 70:1.3984437 71:-0.84535968 72:-2.22328 73:2.28615 74:-8.6065617 75:-1.7372588 76:-0.31273559 77:2.3318925 78:0.79992646 79:3.2214825 80:1.9374157 81:0.98552477 82:-6.6202841 83:-1.4504181 84:-1.3372958 85:0.86893433 86:-0.3862851 87:-2.6510942 88:-1.9009117 89:1.8247236 90:-4.7833762 91:-0.53131115 92:-0.46915287 93:-0.60397518 94:1.9920199 95:-0.73550457 96:-2.5944324 97:-0.4069846 98:-5.3877196 99:-0.68011218 100:-0.28735432 101:-0.84124815 102:1.0044539 103:-2.8141267 104:-3.2587287 105:2.9770045 106:-9.0243092 107:-1.345086 108:0.03442597 109:0.53403002 110:2.7204649 111:2.2500117 112:-0.46433073 113:0.13162684 114:0.17151383 115:0.71237236 116:0.20455202 117:-0.93890578 118:0.17148507 119:0.011791269 120:-0.16360329 121:-0.18899971 122:0.035033666 123:0.19122587 124:-1.1542985 125:-0.9530254 126:-0.37280124 127:-0.15010358 128:0.095354646 129:0.017101943 130:-0.081325658 131:-0.14796078 132:0.44634148 133:1.6080275 134:0.17905444 135:-0.046299994 136:-0.11757863 137:0.076847889 138:-0.057954103 139:-0.096297137 140:-0.88554591 141:-0.25614277 142:-0.0730315 143:-0.37405974 144:-0.26905707 145:0.11496723 146:-0.098682657 147:-0.20210953 148:-0.99455547 149:0.47349212 150:0.08713752 151:-0.51552528 152:-0.46250439 153:0.087355316 154:-0.001307711 155:0.093839325 156:0.70222872 157:-0.90515351 158:0.11093432 159:0.098331816 160:-0.032130446 161:0.16483413 162:0.28063619 163:0.73746592 164:1.5669525 165:-0.34468299 166:-0.34879318 167:0.97555041 168:1.1641228 169:0.34680164 170:0.22699001 171:0.77871382 172:-0.23048985 173:-2.1080558 174:-0.086283006 175:0.79813981 176:0.83055615 177:0.19705079 178:0.35692248 179:0.67434788 180:-0.5901382 181:0.1670803 182:-0.90778381 183:0.40155736 184:1.1550587 185:-4.7381601 186:49.545155 187:6.0358934 188:-0.60131347 189:-1.8316257 190:-10.113645 191:2.2358282 192:8.874939 193:-0.27447516 194:0.20795552 195:0.35328382 196:0.83006102 197:-1.3073845 198:-0.094973572 199:0.06998536 200:0.13851053 201:0.13702412 202:2.3892806 203:0.86862481 204:-0.30212656 205:-0.36147359 206:-0.79830784 207:0.87432033 208:1.2317942 209:0.43434519 210:-0.30749792 211:-0.0071386495 212:-0.70084351 213:0.225063 214:-0.74521106 215:-0.70395714 216:0.0052099051 217:-0.35241991 218:2.4201045 219:0.8405357 220:-0.019115705 221:0.013442877 222:-1.9757683 223:0.83426136 224:2.1544671 225:-0.12774546 226:-0.87579888 227:-0.26192009 228:-0.010463211 229:0.97656018 230:-0.20001507 231:0.48863012 232:0.53536499 233:0.15887423 234:-3.697314 235:-1.4674551 236:0.11830552 237:-0.60775012 238:2.2245212 239:-2.1057773 240:-3.2697823 241:-0.26735842 242:2.1806884 243:0.73190761 244:0.23857243 245:-0.097293474 246:-0.75179046 247:0.73210293 248:1.1175908 249:-0.15244822 250:-2.3422945 251:-0.79377306 252:-0.45425618 253:0.59969246 254:0.19872175 255:-0.97814786 256:-0.9144305 257:0.12519841 258:1.0287541 259:0.38691399 260:1.1965423 261:2.5810177 262:-0.14581057 263:2.7767131 264:2.1418598 265:-0.53803915 266:-1.8838741 267:-0.66755933 268:-0.14255674 269:-0.3186267 270:0.55770725 271:-1.1112572 272:-1.2753263 273:-0.068202622 274:0.31525743 275:0.15574627 276:-0.44242966 277:-0.061788026 278:-0.55707598 279:0.23951676 280:0.60589427 281:-0.15049733 282:-0.59978545 283:-0.17298782 284:-0.24226305 285:-0.29732776 286:-0.42312583 287:-0.91149169 288:-0.3450757 289:-0.039823834 290:-1.1075718 291:-0.38270408 292:0.012589187 293:0.048341826 294:0.41210759 295:0.17159146 296:-0.19019468 297:-0.10920734 298:-0.20977002 299:-0.031638797 300:-0.61663479 301:0.74292463 302:-1.7000643 303:-0.50749457 304:0.97272784 305:0.0051984997 306:-2.2097218 307:-0.94390404 308:-1.0528151 309:1.558391 310:0.36901921 311:-1.7269776 312:-1.5773407 313:-0.25688916 314:-0.96015066 315:-0.37989756 316:-0.40414181 317:-0.30647534 318:0.4497146 319:-0.87307835 320:-1.0149802 321:0.02494267 322:-0.0052371337 323:-0.021900445 324:1.0628488 325:0.0013052188 326:0.12095511 327:0.0015574391 328:-0.090515256 329:-0.0066800718 330:-0.015753374 331:-0.04883844 332:1.527478 333:0.31931484 334:0.20594454 335:0.023331828 336:-0.14077958 337:-0.014753863 338:0.0079986341 339:0.033661503 340:0.3364993 341:-0.61114496 342:0.021975962 343:0.05097013 344:0.022463543 345:-0.022150874 346:-0.026006082 347:-0.096614137 348:-0.55384588 349:-0.19283524 350:0.18125407 351:-0.21205941 352:-0.30202681 353:-0.020880524 354:-0.0011129646 355:0.0013365758 356:-0.6179294 357:-0.1650797 358:-0.034680851 359:-0.046223871 360:-0.0077030007 361:-0.038450416 362:0.015043063 363:0.070076562 364:-1.4270244 365:2.9030595 366:-0.27994132 367:0.071524024 368:0.27494943 369:-0.033647053 370:0.026661566 371:0.10575593 372:-0.59558272 373:0.53745919 374:-0.28149554 375:0.21099597 376:0.3673099 377:-0.064438812 378:0.067662947 379:0.14848748 380:-0.0095021594 381:0.26342425 382:-0.36701974 383:0.24162449 384:0.45477855 385:0.075733133 386:0.41996434 387:0.45567411 388:1.0889394 389:2.3557434 390:0.64157379 391:1.6187404 392:0.80271631 393:0.047459606 394:-0.015041516 395:-0.030640554 396:0.19228122 397:-0.10996743 398:0.073634088 399:0.031256866 400:-0.04045511 401:0.83624727 402:-12.932438 403:0.74494439 404:0.69342661 405:0.36428106 406:5.9833965 407:0.0035334744 408:0.013657228 409:0.071143918 410:0.84825474 411:1.9485282 412:0.34380692 413:-0.046672769 414:-0.036795538 415:-0.084647633 416:-0.91493505 417:-2.9283731 418:-0.30839124 419:-0.078816794 420:-0.047454417 421:-0.066706844 422:-0.011271073 423:-0.25716498 424:-0.10343396 425:0.62182128 426:-4.4357624 427:-0.25741655 428:0.33874121 429:-1.3269105 430:-0.8591426 431:-0.0033386361 432:0.01172655 433:0.071422562 434:-0.30057481 435:1.6398271 436:0.1827542 437:-0.0033847224 438:-0.011688146 439:-0.042029269 440:-0.60437417 441:-2.1897776 442:-0.1217868 443:0.030354662 444:-0.020072814 445:-0.042220864 446:0.24567728 447:-0.48137179 448:-0.077350944 449:-1.4597276 450:-0.34718686 
0.1 0.1 0.1 0.1 0.1 0.1 1:2.6043646 2:1.3729132 3:0.48744598 4:-0.091459677 5:-0.20352253 6:0.63442397 7:2.6818895 8:1.6351322 9:0.54651833 10:17.442467 11:2.3777738 12:-0.50582516 13:0.34280711 14:-4.650125 15:0.98738104 16:4.8261523 17:-3.4322984 18:4.6906033 19:0.75609291 20:0.83223361 21:-0.15956652 22:-0.93339837 23:0.097409606 24:0.88106841 25:-1.3834878 26:7.8712888 27:0.99706644 28:-0.45126757 29:-0.49280164 30:-4.2690711 31:-1.7887125 32:1.8930024 33:3.1501284 34:-4.970149 35:-0.85439253 36:0.42375535 37:-0.29922211 38:4.123198 39:4.034893 40:-1.3586891 41:-3.777365 42:12.80836 43:1.6914991 44:-0.077313423 45:-0.72447079 46:-3.8586869 47:-2.4369247 48:1.469565 49:-5.0611634 50:-12.990266 51:-2.5803449 52:0.24135259 53:0.19173338 54:-1.987011 55:-6.6244626 56:-4.8703871 57:4.759841 58:-8.8753185 59:-1.1279621 60:0.080117457 61:-0.32379815 62:5.6957569 63:3.1689565 64:-2.9800756 65:-4.381299 66:12.299938 67:1.7532444 68:-0.17953053 69:-0.98951244 70:-3.6745477 71:-3.8937054 72:0.42935818 73:3.5639632 74:-1.5554199 75:0.0042156344 76:-0.55479121 77:0.23777129 78:1.1390408 79:3.0063083 80:1.4394319 81:-0.16178459 82:-3.4405046 83:-0.80643046 84:-0.70479423 85:0.42886531 86:-0.95049322 87:-1.4140458 88:-0.30683094 89:0.11359373 90:-0.94087988 91:-0.23725529 92:0.46057141 93:0.73395431 94:0.33180043 95:2.8276527 96:2.0724094 97:-0.16762252 98:-1.5549412 99:-0.39473906 100:-0.22271797 101:-0.58022797 102:0.51137882 103:-1.7745528 104:-1.9363745 105:3.7669072 106:-2.4141028 107:-0.034509029 108:-0.18223287 109:-0.46899018 110:2.1166713 111:1.6948514 112:-0.41539752 113:-2.5241845 114:-2.0652122 115:-0.56862855 116:0.27661869 117:-0.88314503 118:-0.42138079 119:-3.1237361 120:-2.6923151 121:0.19788337 122:-0.0045951656 123:-0.014976242 124:0.6192497 125:0.63224024 126:0.14868098 127:0.18895242 128:0.092166729 129:0.12289863 130:0.071409419 131:0.13938637 132:0.6199379 133:0.33890095 134:0.19007392 135:0.25871637 136:0.17634839 137:0.35485882 138:0.025710434 139:0.022335198 140:-0.7973153 141:-0.57917875 142:0.047093462 143:0.020014744 144:-0.017022477 145:0.17985989 146:-0.036736473 147:-0.086037979 148:0.55043393 149:0.055769011 150:0.3630178 151:0.25706768 152:-0.12516557 153:-0.027226815 154:0.0018228365 155:-0.011162809 156:-0.075549334 157:-0.0085734064 158:-0.03943814 159:-0.039985396 160:0.0079077836 161:-0.15646343 162:-0.032806896 163:-0.094334185 164:0.29547438 165:-0.70556951 166:0.10628442 167:-0.16507496 168:-0.24045011 169:-0.23052828 170:-0.10357026 171:-0.25539511 172:-0.85785943 173:-1.7085409 174:0.0058831177 175:-0.65719754 176:-0.64223415 177:-0.49520698 178:-0.13622567 179:-0.19915202 180:0.28872526 181:-0.088383935 182:-0.26493415 183:-0.68940634 184:-0.16402502 185:-2.1354625 186:20.911734 187:2.1665738 188:-0.79381615 189:-0.94038016 190:-10.113645 191:-0.41084278 192:6.3386302 193:0.10594796 194:0.08290489 195:0.1259845 196:-0.085012637 197:-0.41728067 198:-0.094973572 199:0.14796868 200:0.19128981 201:-0.2048752 202:1.0877737 203:0.4630675 204:-0.6518203 205:-0.86629879 206:-1.3280728 207:-0.73024625 208:0.24440815 209:-0.77343887 210:-2.332963 211:-0.62628359 212:0.22373517 213:0.93170804 214:0.043100998 215:-0.038105305 216:-0.060552228 217:-0.35664076 218:-1.3646667 219:-0.41504875 220:-0.26223803 221:-0.63492554 222:0.46219897 223:-0.88724422 224:-1.0153096 225:-0.44931462 226:1.4328179 227:0.54999506 228:-0.22915202 229:0.21086429 230:-1.6431633 231:0.027970135 232:1.2820358 233:-0.18933168 234:-1.1518741 235:-0.34564373 236:0.90853888 237:-0.95343697 238:2.0813172 239:-0.37469453 240:-1.9206871 241:0.47960258 242:2.5434923 243:0.8754251 244:0.68341035 245:-0.97472078 246:0.26031661 247:1.215433 248:0.71768135 249:0.43082207 250:-0.39681956 251:-0.098263152 252:-0.56291384 253:-0.68645883 254:0.24287412 255:-1.8187088 256:-1.5975984 257:0.032386214 258:-0.15124649 259:-0.0055286554 260:1.0552735 261:0.22753128 262:0.61494696 263:1.0662518 264:0.28677967 265:0.06958393 266:1.4609753 267:0.54247367 268:-0.39243281 269:0.030790102 270:-0.99869275 271:0.30948883 272:1.0377849 273:0.22853148 274:0.84014529 275:0.33206594 276:-0.33771932 277:-0.46936151 278:-1.1517221 279:-0.54423898 280:0.4229362 281:-0.18870118 282:-0.46080378 283:-0.11436467 284:0.19283481 285:0.83455479 286:0.23279977 287:1.2812171 288:0.77224529 289:-0.17239161 290:-0.62343889 291:-0.18648399 292:0.91333187 293:0.29047853 294:1.289596 295:0.96023071 296:-0.27315709 297:0.0015269478 298:2.6385188 299:0.96805596 300:1.0499464 301:0.24324267 302:-0.59446919 303:1.7415966 304:1.7470061 305:0.15517898 306:-1.3175168 307:-0.49438143 308:0.26398042 309:-1.031312 310:0.91858083 311:-1.2258247 312:-1.6417038 313:0.39789006 314:1.5229654 315:0.65194315 316:-0.36577258 317:-0.88723522 318:-0.61123645 319:0.3046709 320:0.70086247 321:0.051613495 322:0.0056761904 323:0.035393924 324:-0.17621548 325:2.0968492 326:-0.17076556 327:0.16630024 328:0.2473059 329:0.10322218 330:-0.0011194177 331:0.010891724 332:0.45831826 333:2.9093759 334:-0.020787111 335:0.082008012 336:0.073108554 337:0.04600095 338:0.015517596 339:0.056750283 340:-0.10801326 341:-1.2643657 342:0.030559668 343:-0.021977684 344:-0.039694674 345:0.025066026 346:-0.0099676019 347:-0.02579733 348:-0.28723261 349:-0.1067412 350:0.00090707233 351:-0.090934426 352:-0.069905497 353:0.020976249 354:0.0031296685 355:0.02066051 356:1.5382073 357:0.90701073 358:0.10060173 359:0.23504281 360:0.096921854 361:0.020160481 362:-0.0096765449 363:-0.04380931 364:0.47087887 365:-0.52503049 366:0.11631476 367:-0.003982076 368:-0.095352598 369:0.024169486 370:-0.027291257 371:-0.12349683 372:0.11902276 373:-1.5963985 374:0.23157504 375:-0.21848002 376:-0.33404285 377:0.026244398 378:-0.046931747 379:-0.10496208 380:0.67604977 381:-0.47087201 382:0.31592688 383:-0.10166157 384:-0.3107655 385:0.14880739 386:0.052516527 387:0.40103808 388:1.6111748 389:2.7191215 390:2.3411193 391:4.189775 392:1.6054792 393:-0.039519347 394:-0.025665618 395:-0.058434207 396:-0.43075937 397:0.49062753 398:-0.082314119 399:0.032908294 400:0.089632936 401:0.99651182 402:-32.373341 403:-1.0230803 404:0.54218209 405:0.4473727 406:3.9935243 407:-0.12497313 408:-0.045404103 409:-0.12442139 410:-0.21755467 411:-1.1315764 412:-0.28428581 413:-0.1391661 414:-0.046710126 415:-0.11714742 416:1.2650177 417:3.0381289 418:-0.17199658 419:-0.19871135 420:-0.089667231 421:-0.15087125 422:-0.33127111 423:-1.0910743 424:-0.46015373 425:-0.29644668 426:-12.08604 427:-1.4956751 428:1.3613458 429:0.45981973 430:0.99357456 431:-0.0074993353 432:-0.015690193 433:-0.076445714 434:-0.85313749 435:-0.91883063 436:-0.15614384 437:-0.0073529328 438:-0.016798904 439:-0.083311781 440:-2.8740082 441:3.3562315 442:-0.16419876 443:-0.00029283296 444:-0.051632382 445:-0.15028176 446:0.3676095 447:-0.83427906 448:-0.28849283 449:-2.7760892 450:-0.54819858 
0.1 0.1 0.1 0.1 0.1 0.1 1:0.96397787 2:5.4968123 3:0.8352173 4:-1.1486037 5:1.0075021 6:-3.6463082 7:-0.57606149 8:2.5639532 9:-0.16910212 10:4.413528 11:0.50961083 12:0.076455772 13:-0.46892509 14:-0.386866 15:0.48236781 16:0.67765456 17:-1.8178328 18:10.435236 19:1.5904638 20:-0.32692051 21:-0.49479896 22:-2.8915114 23:-0.80328488 24:1.838008 25:-2.3447173 26:12.474292 27:1.7758647 28:-0.48147282 29:-0.65537483 30:-3.6409612 31:-0.053616647 32:3.048511 33:0.95317698 34:-7.2987714 35:-1.2647146 36:0.75800163 37:-1.0323449 38:3.0737681 39:-0.6714223 40:-3.8781934 41:-0.52103454 42:2.6753962 43:0.27799752 44:-0.42807436 45:0.02225762 46:-1.6393198 47:0.043332044 48:1.5032219 49:-3.6723444 50:-7.806994 51:-1.434961 52:-0.63519943 53:0.081951737 54:-3.0634284 55:-5.4365525 56:-2.5836637 57:4.8163781 58:15.807631 59:2.5511951 60:0.45096251 61:0.1660243 62:0.85951835 63:7.9845924 64:6.8013573 65:-2.5243616 66:3.4266543 67:0.72000027 68:-0.55925655 69:-0.37025192 70:-3.932694 71:-3.4228637 72:1.1183933 73:1.8253148 74:-14.569644 75:-3.2674365 76:0.28921601 77:-0.14495504 78:5.0521126 79:-1.8065561 80:-6.2512994 81:-0.032382321 82:-3.2676046 83:-0.4645682 84:-0.57332391 85:0.4097797 86:-1.0759009 87:-1.5477684 88:-0.30210829 89:0.68833703 90:2.0117302 91:0.36030173 92:-0.49925119 93:0.062150922 94:-0.62639135 95:0.092479557 96:0.69798875 97:-1.3927227 98:-3.0964355 99:0.41947404 100:-0.38664198 101:-0.23485023 102:-0.98854589 103:-0.94507945 104:0.19369322 105:1.4129533 106:-6.1411824 107:-1.3002807 108:0.13586813 109:-0.40482271 110:2.8022919 111:0.26435658 112:-2.4706149 113:-0.40596294 114:1.118751 115:0.13385758 116:-0.17757925 117:0.2749725 118:-1.5034578 119:-0.91185862 120:0.62598866 121:0.089590371 122:0.035270873 123:0.07967142 124:-0.57520616 125:-0.77323633 126:-0.18824312 127:-0.032141827 128:0.092175104 129:0.17381081 130:0.028239265 131:0.06374716 132:-0.33956182 133:-0.86486989 134:0.10675332 135:0.083826132 136:0.038903538 137:0.070885435 138:0.066168875 139:0.094133914 140:-0.20639643 141:-0.40590698 142:0.010223917 143:0.10095267 144:0.079515316 145:0.06865605 146:0.086197197 147:0.1090913 148:-0.17684881 149:-0.42903751 150:-0.2001422 151:0.2045266 152:0.32843682 153:-0.0017701696 154:-0.022572938 155:-0.046460018 156:0.27515674 157:-0.87912846 158:0.18653081 159:-0.12523149 160:-0.25734395 161:-0.16962661 162:0.05663972 163:0.11001059 164:-0.0083772708 165:-0.88661647 166:-0.21313387 167:-0.09284348 168:0.1157619 169:-0.035650872 170:0.041185092 171:0.1077473 172:0.10069668 173:-0.69459474 174:-0.14273432 175:0.22635551 176:0.3111425 177:0.069929048 178:0.1439435 179:0.14382829 180:0.15281698 181:-0.60670573 182:0.060485616 183:0.22235154 184:0.07780464 185:2.8621361 186:-16.816957 187:-1.5265249 188:-0.20278803 189:0.36273402 190:-4.875361 191:-0.97566104 192:2.3103983 193:-0.037263293 194:0.077488258 195:0.093273081 196:0.29711947 197:-0.76681089 198:-0.094973572 199:0.033075776 200:0.11353002 201:-0.11628318 202:3.2966511 203:1.1345034 204:0.287126 205:0.18201326 206:-0.96871126 207:2.7266459 208:2.8707414 209:-0.59486371 210:1.2355363 211:0.48236644 212:-0.42141441 213:-0.61370045 214:-1.5976005 215:-0.21562977 216:0.99994731 217:0.40443647 218:1.3722932 219:0.51520747 220:0.26166019 221:-1.1847801 222:0.42624736 223:0.51504165 224:0.048690114 225:0.16714086 226:-0.51312947 227:-0.12720163 228:0.41489673 229:0.33173648 230:0.32543162 231:0.94478887 232:0.48897603 233:0.039427061 234:-1.9221981 235:-0.64965516 236:-0.26751062 237:0.3733137 238:-0.20489636 239:-0.91938859 240:-0.49332836 241:0.17578706 242:4.9789896 243:1.4932427 244:-0.65630668 245:-0.31567639 246:-2.4610887 247:1.5538034 248:3.0247564 249:-0.14111941 250:0.89611679 251:0.33197573 252:-0.86246365 253:1.9879879 254:-1.0045633 255:0.090488046 256:0.8840825 257:0.62096202 258:2.5810463 259:0.87929434 260:-0.42840704 261:1.7990626 262:-2.0740111 263:1.7622641 264:2.9414003 265:-0.11209627 266:1.1698753 267:0.46056756 268:0.11845242 269:-0.59932125 270:0.13745375 271:0.26140228 272:0.082555935 273:0.33401987 274:-1.8336024 275:-0.63564527 276:0.25413612 277:0.15617377 278:1.2766619 279:0.17177765 280:-0.81322938 281:-0.19730927 282:-0.49335265 283:-0.12176798 284:0.027532121 285:0.86606741 286:0.34060878 287:0.68185544 288:0.23903012 289:-0.23259573 290:0.53800559 291:0.24469256 292:-0.31954083 293:-0.3233853 294:-1.1974778 295:0.052263118 296:0.97175878 297:0.047887869 298:1.1520177 299:0.46604219 300:-0.031055892 301:0.044758752 302:-1.1531918 303:0.6337235 304:1.3767766 305:0.15507422 306:-0.98391193 307:-0.3666316 308:0.30833402 309:-0.053739145 310:0.8623625 311:-0.57565814 312:-1.1136317 313:-0.37240383 314:1.3300642 315:0.58695132 316:-0.1192902 317:0.44532958 318:-1.1606097 319:0.54282463 320:1.3033339 321:-0.012996073 322:0.0042859796 323:0.028632632 324:0.8590796 325:-0.78662753 326:0.061463092 327:0.04977081 328:-0.011254252 329:0.024933111 330:0.013863347 331:0.062524766 332:0.61342645 333:-1.0736679 334:-0.055938937 335:0.20222151 336:0.18384644 337:0.028419964 338:0.024970181 339:0.084676795 340:-0.075707741 341:-0.79349548 342:-0.055810153 343:0.078072712 344:0.10147219 345:0.044597872 346:0.00048598289 347:0.0072046621 348:-0.02717608 349:-0.24175738 350:-0.0098625105 351:0.039342407 352:0.037592683 353:0.046859108 354:-0.0090740956 355:-0.033260778 356:0.81221664 357:0.37137344 358:0.1197458 359:0.077940263 360:-0.03372455 361:0.022197833 362:-0.0046874848 363:-0.018246869 364:-0.3715241 365:-0.21264853 366:-0.04875043 367:-0.031001387 368:0.015985031 369:0.015084358 370:0.033145674 371:0.12553959 372:-0.0067919251 373:-1.3475511 374:-0.17640047 375:0.15846403 376:0.24880354 377:0.050462019 378:0.044271283 379:0.10260113 380:0.089595966 381:-0.96857542 382:-0.0042987801 383:0.16299248 384:0.12689212 385:0.40505964 386:-1.7419647 387:-0.12209276 388:-0.36552179 389:-2.0225294 390:0.39022592 391:-1.0255945 392:-1.0613761 393:-0.014351458 394:0.045258459 395:0.12145874 396:-0.27193087 397:-1.0795734 398:-0.12142613 399:0.11581089 400:0.17625032 401:1.3094473 402:-19.665226 403:-1.6614501 404:-0.69752812 405:-1.2427745 406:-1.1677954 407:-0.048900671 408:-0.029274894 409:-0.059502345 410:1.3029788 411:4.0236545 412:-0.063056611 413:-0.11125146 414:-0.055428706 415:-0.19007319 416:-0.77131647 417:-2.3008685 418:-0.42303637 419:-0.013582482 420:-0.042511895 421:-0.06334614 422:0.78481346 423:2.3892474 424:0.12899269 425:-0.29644662 426:6.2735252 427:1.2864696 428:-0.049613751 429:-1.0804859 430:2.4381404 431:-0.0074993353 432:-0.0068403282 433:-0.016488653 434:0.33388969 435:1.7757646 436:-0.017569179 437:-0.0073529305 438:-0.018520143 439:-0.10116246 440:-0.025914744 441:-2.0061307 442:-0.20793854 443:-0.00029282714 444:-0.013139156 445:-0.021439249 446:0.084074058 447:0.98322225 448:0.054376733 449:-0.1433661 450:0.083552316 
0.1 0.1 0.1 0.1 0.1 0.1 1:0.42551571 2:36.561821 3:7.4527593 4:-0.24489948 5:-0.89951384 6:-5.3862495 7:3.9436982 8:7.6526647 9:0.27967501 10:-14.870716 11:-2.1375542 12:0.18481539 13:0.77653414 14:0.43131399 15:-0.68200022 16:-0.85502851 17:-2.394522 18:8.0619745 19:1.6235698 20:-0.30028582 21:-0.93596351 22:-2.9906769 23:-0.54706752 24:2.1299441 25:-1.7643297 26:10.694045 27:1.4526312 28:0.30854431 29:-0.35685328 30:-1.1670274 31:0.078654118 32:1.0705051 33:-0.065737493 34:-14.023795 35:-2.6797431 36:0.33163849 37:-0.0098805092 38:2.4840164 39:-2.2834527 40:-4.4897952 41:-0.53799844 42:10.50592 43:1.9794406 44:-0.032698341 45:-1.2123924 46:0.43867788 47:0.58407927 48:0.083125331 49:2.040046 50:17.8482 51:3.4091208 52:-0.34158659 53:-0.64080691 54:-3.1322303 55:3.0788443 56:6.2644839 57:4.0156302 58:-2.1032627 59:-0.35856763 60:0.13727947 61:0.96551102 62:2.2437038 63:5.4747663 64:2.9087524 65:-2.1941977 66:14.931681 67:4.2346344 68:0.92317939 69:-0.99933666 70:-1.6558391 71:1.8947539 72:3.4236031 73:3.5526578 74:9.6539307 75:1.5853065 76:-0.48359042 77:-1.0165435 78:1.9439632 79:2.2986362 80:0.093066216 81:0.23876654 82:5.3595595 83:0.77140182 84:0.64120948 85:0.61548382 86:-0.60863566 87:4.6875553 88:4.5879169 89:-3.7266476 90:21.706583 91:3.4428401 92:-0.36890462 93:-1.3721284 94:-4.2203336 95:-0.9580906 96:3.3603668 97:4.108366 98:-4.9223666 99:0.20563018 100:0.33542368 101:-0.95014817 102:4.3312864 103:3.239388 104:-1.5799717 105:-0.59319854 106:8.5225916 107:1.9944925 108:-1.0488639 109:0.053122081 110:-3.3794158 111:-1.5032743 112:1.830166 113:0.83135587 114:-0.66498721 115:-0.26532158 116:-0.99649709 117:-0.11456172 118:0.22585107 119:-1.624216 120:-1.8549868 121:-0.10031503 122:0.20700052 123:0.46659082 124:-0.64957362 125:-1.1714286 126:-0.3716903 127:0.061716069 128:0.30826032 129:0.023729317 130:-0.10546629 131:-0.21424402 132:-0.080360256 133:1.5078447 134:0.096161626 135:-0.1971277 136:-0.23165752 137:0.18643849 138:-0.081625089 139:-0.15725525 140:1.0241866 141:2.3579884 142:0.28010058 143:0.37835288 144:0.12210646 145:0.25899231 146:0.043218598 147:0.13862203 148:0.43580726 149:-0.78428406 150:0.077972285 151:0.6572113 152:0.42414212 153:0.34318215 154:0.10205991 155:0.31994745 156:0.13917083 157:-0.67052305 158:-0.016061513 159:0.50752825 160:0.36973992 161:0.25298244 162:0.13305812 163:0.46756449 164:0.73643845 165:-0.54509693 166:-0.1849011 167:0.8314448 168:0.88881576 169:0.48814395 170:0.21204229 171:0.70479518 172:-0.24541509 173:-2.1791258 174:0.1849751 175:0.77325648 176:0.63299954 177:0.22926211 178:0.24990924 179:0.46640542 180:0.34165636 181:-0.89804167 182:0.29388845 183:0.38228041 184:-0.055670146 185:1.829578 186:-18.409122 187:-0.95230508 188:-2.3050487 189:2.0665102 190:-10.113645 191:-3.9760787 192:2.9220598 193:-0.13136834 194:0.15062283 195:0.47677001 196:0.55182153 197:-1.2106131 198:-0.094973572 199:0.041967176 200:0.11954774 201:-0.15955414 202:-4.1115789 203:-1.7424605 204:-0.76635611 205:-0.78364414 206:1.729373 207:-3.3287394 208:-3.8536248 209:0.044104546 210:-5.9669843 211:-2.4390869 212:1.6838988 213:4.2245121 214:3.8524377 215:-2.8331778 216:-4.9744163 217:-0.13229796 218:-2.1122086 219:-0.75237089 220:0.37094682 221:-0.18622005 222:1.0792156 223:-0.94191325 224:-1.5360388 225:-0.30490538 226:-3.1776946 227:-1.175336 228:-0.69327056 229:0.5191415 230:0.67334145 231:-2.0897348 232:-2.1499653 233:0.36196378 234:-3.361475 235:-1.304916 236:0.87170422 237:-0.23807269 238:2.2948308 239:-1.0889107 240:-2.5999742 241:-0.085952245 242:-1.0078815 243:-0.25070512 244:0.44074732 245:1.4216044 246:-0.86675739 247:0.75508255 248:1.2215854 249:0.0079463273 250:-1.0572156 251:-0.2944054 252:0.93851936 253:0.78437424 254:1.4518553 255:2.385896 256:0.66055685 257:0.3411743 258:-1.9390963 259:-0.65740961 260:0.056818772 261:0.40983263 262:0.039600503 263:-0.18296394 264:-0.16507602 265:0.17667951 266:-2.1322801 267:-0.77015877 268:0.38431334 269:-0.18990718 270:1.4898827 271:-0.32032481 272:-1.443387 273:-0.48094663 274:0.6883353 275:0.29105455 276:0.6459769 277:0.52883357 278:0.39351386 279:1.1905147 280:0.65738237 281:0.11532144 282:-2.3439236 283:-0.89111662 284:0.1986582 285:0.26095784 286:1.2360711 287:-0.84466261 288:-1.6116606 289:0.17098217 290:-0.87249076 291:-0.28780299 292:-0.38384014 293:0.5584687 294:-0.067326084 295:-0.19019133 296:-0.092291281 297:0.07017868 298:-1.4602782 299:-0.51078469 300:-0.14694898 301:-0.62504983 302:0.62689918 303:-1.1571563 304:-1.3441974 305:0.39438698 306:0.12291226 307:0.096160643 308:-0.68837506 309:0.61733425 310:-1.288367 311:-0.29021785 312:0.80860132 313:0.11606351 314:-1.2826278 315:-0.53326613 316:0.074724607 317:0.24481595 318:1.1268561 319:-0.56754112 320:-1.2965934 321:0.00088013982 322:-0.012219 323:-0.062759787 324:0.5086962 325:-0.78124619 326:0.1190059 327:-0.092648983 328:-0.15585922 329:0.010890813 330:-0.025033833 331:-0.092166975 332:-3.2511723 333:8.6798353 334:0.05177756 335:-0.23663698 336:-0.2047002 337:-0.0025295792 338:-0.014358531 339:-0.04135697 340:-0.82000566 341:6.2070575 342:-0.15696837 343:0.12022047 344:0.2094925 345:-0.016039345 346:-0.04373809 347:-0.17645009 348:-0.85430402 349:2.6261806 350:0.073403642 351:-0.2273232 352:-0.22995348 353:-0.0079005826 354:-0.027635518 355:-0.12652574 356:0.56657022 357:-0.60077298 358:0.25281134 359:-0.11789927 360:-0.27984354 361:-0.0059488006 362:-0.0071236966 363:-0.030269921 364:0.50421172 365:-0.71101147 366:0.055350069 367:-0.02048203 368:-0.059017416 369:0.03540165 370:-0.0085975379 371:-0.023841428 372:0.15904361 373:2.1253476 374:0.015724534 375:0.14906162 376:0.093653165 377:0.031081621 378:-0.09451659 379:-0.24481548 380:-0.1639539 381:0.5909633 382:0.24018596 383:-0.31678134 384:-0.41804004 385:0.54842687 386:-3.9837468 387:-0.77707517 388:1.2027717 389:2.7385895 390:2.2370508 391:-1.1197248 392:-2.4153478 393:-0.031596389 394:-0.079225481 395:-0.26614878 396:0.16851231 397:1.1377949 398:0.3988905 399:-0.44487363 400:-0.62116253 401:4.1536655 402:-43.850601 403:-4.7611761 404:-0.45599839 405:-0.69858867 406:-3.9221072 407:-0.15322649 408:-0.046168894 409:-0.13033026 410:2.6252553 411:7.6843762 412:-0.077404052 413:-0.17884445 414:-0.061995365 415:-0.26291263 416:-1.552837 417:-3.3591082 418:-0.60240173 419:-0.33008197 420:-0.20793046 421:-0.49703905 422:-0.62930763 423:-0.33552152 424:-1.0617723 425:-0.29644668 426:-25.616386 427:-4.6270089 428:0.13342923 429:3.0718489 430:-5.0385547 431:-0.0074993377 432:-0.013971693 433:-0.062988251 434:-0.60698909 435:5.4862022 436:-0.02866997 437:-0.0073529328 438:-0.022146359 439:-0.16113956 440:0.36688447 441:-2.5647404 442:-0.29560953 443:-0.00029284102 444:-0.080509268 445:-0.29396522 446:-1.2005332 447:-0.34616244 448:-0.58055341 449:-3.6536636 450:-0.43333489 
0.1 0.1 0.1 0.1 0.1 0.1 1:2.9970729 2:1.6546681 3:0.19833849 4:0.43376967 5:-0.09790726 6:1.7745954 7:4.1165075 8:1.8447235 9:-1.1798832 10:14.405802 11:2.1549835 12:-0.13315527 13:0.18955642 14:-4.7039762 15:3.2476478 16:6.4337125 17:-0.75390047 18:-4.0208879 19:-0.66433543 20:-0.53784353 21:0.1780768 22:-1.0695248 23:-1.1421239 24:-0.0017781219 25:-3.8275273 26:4.3098168 27:0.60072541 28:0.37113431 29:-0.19268997 30:-3.0689282 31:-0.92104477 32:1.7162545 33:-1.4540499 34:-7.0901237 35:-1.1343416 36:-0.23909895 37:-0.47594675 38:0.7899065 39:-3.6823037 40:-3.729866 41:-2.7775571 42:12.575243 43:1.7158176 44:-0.14283878 45:-0.038952533 46:-6.2068901 47:0.28127864 48:5.787055 49:-3.7341013 50:-12.349962 51:-2.5410099 52:0.35184836 53:0.53223252 54:-1.9650592 55:-5.428977 56:-3.6593704 57:2.5019724 58:-2.9267354 59:-0.66370523 60:0.19581643 61:0.1861127 62:3.5508778 63:2.6699331 64:-1.1871426 65:-1.9531327 66:-7.4715691 67:-1.5968257 68:-0.46070239 69:-0.43100491 70:-0.49071404 71:-5.1794972 72:-4.0669169 73:-1.3041563 74:-12.874098 75:-2.2546761 76:-0.073780648 77:-0.63275456 78:1.7541299 79:-4.8175435 80:-5.6675067 81:-1.5061961 82:-12.186043 83:-2.7675798 84:0.76754344 85:0.19702759 86:2.6749594 87:-3.356143 88:-5.4115839 89:-1.6771101 90:-5.5838017 91:-0.41796157 92:-1.4827695 93:1.1728466 94:-3.1497972 95:-5.0832891 96:-1.2004489 97:-0.15590219 98:-6.228291 99:-0.9138059 100:0.3952812 101:-0.61546874 102:1.1862375 103:-1.3268545 104:-2.2288156 105:3.1075668 106:-4.6806602 107:-1.0155824 108:-0.39482719 109:-0.35594463 110:2.6983347 111:0.63120335 112:-2.0135012 113:-0.7988283 114:0.053225823 115:-0.084457144 116:-0.92278266 117:0.37342864 118:-1.4914753 119:-2.0159826 120:-0.490237 121:0.20147127 122:-0.0093756597 123:-0.02582589 124:0.37472191 125:-0.018175419 126:0.21774583 127:0.13963227 128:-0.0032901904 129:0.15126228 130:0.067217074 131:0.13908203 132:0.10924656 133:-0.56555331 134:0.19995549 135:0.13553947 136:0.051863931 137:-0.064983465 138:0.14188328 139:0.20703386 140:-0.032855559 141:-0.81713927 142:-0.092530906 143:-0.028319353 144:0.042926278 145:-0.069069855 146:0.14895146 147:0.22813448 148:0.022299802 149:-0.11637127 150:-0.3023462 151:0.25393656 152:0.45492023 153:0.021830969 154:-0.022620052 155:-0.044790663 156:0.38007596 157:-0.85327268 158:0.2479897 159:-0.03684359 160:-0.25141791 161:-0.092334494 162:-0.059868794 163:-0.14942916 164:-0.21904799 165:-0.053183258 166:0.14259574 167:-0.16271107 168:-0.27180225 169:0.0094963107 170:-0.008012007 171:0.0032178706 172:0.53532648 173:-0.27610096 174:0.17066066 175:0.11447766 176:0.0021365425 177:0.0091217337 178:0.073391646 179:0.065526016 180:0.14274248 181:-0.68743533 182:0.2725544 183:0.042484455 184:-0.24549703 185:9.0318003 186:75.47599 187:7.0220623 188:1.8261648 189:0.74718612 190:12.839244 191:21.993673 192:12.529876 193:0.22060256 194:-0.045542516 195:-0.060578607 196:-0.3760916 197:0.1550504 198:-0.094973572 199:0.11404606 200:0.16833091 201:0.21937568 202:1.5256528 203:0.62186134 204:-0.42857543 205:-1.1773728 206:-1.3406891 207:-0.4009119 208:0.52451992 209:-0.81954932 210:0.92768288 211:0.41142082 212:-0.14060618 213:-0.33376938 214:-0.6430316 215:0.45442045 216:0.81617892 217:0.18677518 218:2.6171527 219:0.89834785 220:-0.16264793 221:-0.24890497 222:-1.7390189 223:0.81933159 224:1.9591302 225:-0.021431519 226:0.21275812 227:0.12541783 228:0.11183263 229:0.87553686 230:-0.73413336 231:1.5933442 232:1.8085574 233:-0.057543557 234:-2.7219439 235:-1.0005372 236:0.73077703 237:-0.47840312 238:2.3466702 239:-0.62602484 240:-2.3108265 241:0.28350532 242:1.0200428 243:0.42164588 244:-0.46244621 245:-0.77117735 246:-0.64733207 247:-0.94089597 248:-0.21931688 249:0.10013369 250:-1.9140203 251:-0.64341623 252:-1.4674635 253:3.2514467 254:-1.856409 255:-1.3015084 256:0.50258672 257:0.18174848 258:-1.1058527 259:-0.33731642 260:0.84748256 261:2.7003913 262:0.48164374 263:1.0346388 264:0.37015268 265:0.062092066 266:0.47198468 267:0.21609592 268:0.2475273 269:-0.12597278 270:-0.46525449 271:0.8359071 272:0.99633431 273:0.40086496 274:-2.4186947 275:-0.87624937 276:0.44317183 277:-0.19391796 278:1.7417593 279:-0.47948158 280:-1.6793067 281:-0.30711445 282:-2.4983766 283:-0.96598858 284:-0.62547404 285:0.2743167 286:0.71694583 287:-1.5158521 288:-1.70108 289:-0.153806 290:0.55705893 291:0.25241494 292:0.49376529 293:0.58058947 294:0.16435272 295:0.94528657 296:0.5912469 297:-0.32289732 298:-0.053215232 299:0.026630973 300:0.03227799 301:-0.62536782 302:0.59071553 303:-0.21049795 304:-0.62157661 305:0.20181741 306:-0.28889805 307:-0.072505519 308:-0.62220329 309:-0.079560757 310:0.16036996 311:-0.88100111 312:-0.78249633 313:-0.034611527 314:0.42691389 315:0.23345308 316:0.31615955 317:0.16041806 318:0.34748459 319:0.62245995 320:0.21380779 321:0.043280635 322:-0.0018052766 323:-0.0023744076 324:-0.1198802 325:0.27550784 326:0.023684053 327:0.0089000976 328:-0.011627297 329:0.054175474 330:0.02158305 331:0.088048831 332:0.11587675 333:-0.66183084 334:-0.10303435 335:0.17536372 336:0.20101386 337:0.029968238 338:0.025530729 339:0.086970329 340:-0.39505893 341:-0.27655882 342:-0.20560455 343:0.074203208 344:0.21079595 345:0.032506429 346:0.0031340928 347:0.019527998 348:0.11436568 349:-0.072344266 350:-7.6025848e-005 351:0.12429037 352:0.094644338 353:0.032486267 354:-0.011434449 355:-0.043865949 356:-0.56269813 357:-0.9138211 358:0.0796666 359:-0.12269212 360:-0.15137208 361:0.016928693 362:-0.0030254761 363:-0.0098630805 364:0.37783509 365:-0.96296799 366:0.065872654 367:0.022867044 368:-0.035562851 369:0.013576655 370:0.016610069 371:0.073017575 372:0.0020128749 373:-1.2618676 374:-0.092597671 375:0.096136302 376:0.13979897 377:0.026807664 378:0.0098573742 379:0.030774277 380:0.35108927 381:-0.2679131 382:-0.033698753 383:0.25234497 384:0.21645094 385:2.202116 386:7.1531019 387:1.9051145 388:-0.87178272 389:-3.6202152 390:-1.0653894 391:3.8528225 392:3.709311 393:-0.031584546 394:-0.015581423 395:-0.029989218 396:0.30586493 397:-0.085676119 398:0.053623006 399:0.061711572 400:-0.0039675152 401:7.9611731 402:76.367912 403:6.5057797 404:1.0418836 405:0.24815828 406:21.21204 407:0.17378379 408:0.092985958 409:0.26087672 410:0.19686446 411:-0.28699246 412:0.585114 413:0.18502988 414:0.0938721 415:0.28354049 416:0.63516325 417:1.6119757 418:0.68896806 419:0.044427402 420:0.036201093 421:0.079107791 422:-0.47580415 423:-1.1995674 424:0.023083914 425:-0.76301652 426:25.720068 427:3.589386 428:0.55235308 429:0.34088102 430:7.9564786 431:-0.0074993353 432:0.010203552 433:0.065334201 434:-0.49091056 435:-0.26260653 436:0.16375829 437:-0.00735293 438:0.018075816 439:0.10043397 440:-0.97114873 441:0.13880068 442:0.16222133 443:-0.010199315 444:0.0031666206 445:0.023731731 446:-0.23779495 447:-1.0053978 448:-0.0047232839 449:-1.0209404 450:-0.34718686 
0.1 0.1 0.1 0.1 0.1 0.1 1:-0.11871289 2:10.643191 3:1.6866443 4:-0.019278275 5:-0.15469308 6:-3.7740593 7:1.5627573 8:4.3942838 9:2.7222126 10:-7.4325089 11:-1.0019513 12:-1.0208517 13:1.6278402 14:0.61824524 15:1.4806957 16:0.47059032 17:-0.71014988 18:4.2700329 19:0.7647869 20:-0.18728994 21:-0.78157824 22:-0.43804041 23:-1.0600638 24:-0.47850281 25:-0.89403546 26:-6.9850545 27:0.1171549 28:-0.40171909 29:-0.0059017218 30:-1.7219411 31:0.61765975 32:2.0682135 33:4.0536141 34:-7.3481593 35:-0.27832821 36:0.22637095 37:0.030258523 38:3.1513212 39:4.4697275 40:0.040840577 41:-0.58238173 42:6.4047084 43:0.85301071 44:-0.53119129 45:0.018102581 46:-3.0949419 47:-1.2769295 48:1.7308638 49:-3.7736576 50:-4.2918153 51:0.043153483 52:-0.072109602 53:-0.75446236 54:-2.7900617 55:-4.4478827 56:-1.8339113 57:5.1210871 58:-1.5783898 59:0.23385951 60:0.32924339 61:-0.85439783 62:5.8580532 63:4.7066092 64:-1.6668643 65:-1.0724279 66:3.7432635 67:0.53252524 68:-0.58942467 69:0.12455209 70:-1.8949794 71:-1.3986541 72:0.7607646 73:3.9153337 74:-1.0598732 75:1.2703365 76:1.276177 77:1.4974636 78:3.974179 79:10.002439 80:4.6160283 81:0.25746065 82:-7.3535428 83:-1.407378 84:0.13340503 85:-0.82327563 86:2.041002 87:-1.8767122 88:-3.5439169 89:-1.777766 90:0.039596017 91:0.4393253 92:-1.0259809 93:2.4187267 94:-7.056839 95:-1.2040353 96:5.956758 97:-0.86005378 98:-4.5925665 99:-0.98280138 100:0.016599188 101:-0.84981245 102:1.2499027 103:-2.4183645 104:-3.1761289 105:2.5387509 106:-3.3587663 107:-0.56309992 108:-0.35494784 109:-0.4933219 110:2.7596953 111:0.68637633 112:-2.0196817 113:-0.85011649 114:-2.9819386 115:-0.63592523 116:0.99862564 117:-0.020895952 118:1.2742751 119:-0.35908306 120:-1.6623466 121:0.050447296 122:0.0028774375 123:0.016078636 124:0.1949939 125:-0.55821055 126:0.10284503 127:0.032206725 128:-0.035588779 129:-0.1161434 130:-0.059713662 131:-0.10195246 132:0.04977341 133:-0.079441614 134:-0.02965031 135:-0.24514955 136:-0.22784179 137:-0.026194213 138:-0.041957479 139:-0.03360625 140:-0.53909421 141:-0.73464173 142:-0.17120762 143:-0.33105883 144:-0.16059333 145:-0.067410544 146:-0.13331878 147:-0.22700687 148:-1.0348734 149:1.5820906 150:-0.088973694 151:-0.45377412 152:-0.2620796 153:-0.2118157 154:-0.01825596 155:-0.051630989 156:0.40584394 157:-0.55491859 158:-0.019579168 159:-0.28196448 160:-0.17947717 161:-0.17455383 162:-0.036193892 163:-0.1034798 164:-0.44516811 165:-0.23670764 166:-0.055334657 167:-0.30109116 168:-0.20939046 169:-0.22035845 170:-0.053654596 171:-0.081293091 172:0.4427501 173:1.1863967 174:-0.21941924 175:-0.042288069 176:0.099166974 177:-0.26666737 178:-0.030081891 179:-0.047109295 180:0.35055816 181:-0.39998448 182:0.053918548 183:-0.061860085 184:-0.092219792 185:-2.7050014 186:-46.903072 187:-5.7970266 188:-0.59952074 189:-1.227361 190:4.3144054 191:-10.507945 192:-12.941748 193:0.031124011 194:0.0041566244 195:0.032935422 196:0.11775653 197:-0.5724172 198:-0.094973572 199:0.01775091 200:0.10315812 201:0.1694911 202:5.9910955 203:1.8744495 204:0.59429383 205:-0.052012365 206:-1.2395692 207:4.0207219 208:4.1126404 209:-0.067410097 210:-1.9187901 211:-0.55938596 212:-0.27610421 213:-0.20041405 214:0.56289417 215:-0.79515487 216:-1.0182128 217:-0.079614453 218:1.7376121 219:0.63137972 220:0.13116544 221:-1.0128318 222:-0.080119148 223:0.50882363 224:0.43829581 225:0.13164251 226:0.9782337 227:0.38409755 228:0.47452855 229:0.40707928 230:0.011354273 231:2.0599599 232:1.6015891 233:0.1881364 234:-0.69706857 235:-0.17878425 236:-0.13339072 237:0.17037024 238:-0.15567641 239:0.1435844 240:0.22613522 241:-0.19573823 242:2.9696162 243:0.95469964 244:-0.049291037 245:-0.25434464 246:-2.158304 247:0.90464485 248:2.3082056 249:-0.30497229 250:1.047451 251:0.37907162 252:-0.94359154 253:1.0014316 254:-3.2867968 255:-0.60260183 256:2.2004528 257:-0.041363806 258:-0.32550478 259:-0.054382093 260:1.1122384 261:-0.39268899 262:1.6275765 263:1.0375252 264:-0.54268026 265:-0.30453885 266:0.74440467 267:0.29985145 268:-0.54747021 269:-0.22633916 270:-0.92171603 271:-0.37283194 272:0.46958521 273:0.58353847 274:-0.35670891 275:-0.074418366 276:0.95911217 277:-0.35287198 278:1.7476332 279:0.82507688 280:-0.64234084 281:0.022568371 282:-1.0594106 283:-0.35244697 284:0.563703 285:-0.62843508 286:1.8623904 287:-0.51448208 288:-1.8620003 289:-0.2228238 290:0.10285921 291:0.088599429 292:-0.57129848 293:-0.38118595 294:-0.64017028 295:-1.1195494 296:-0.35348797 297:-0.096922584 298:1.7032382 299:0.65572351 300:-0.33426708 301:-0.87361836 302:-0.64432842 303:-0.59548336 304:0.073122963 305:0.37553507 306:-0.37575221 307:-0.11164982 308:-0.26377359 309:-0.98004222 310:0.37259614 311:-0.56740546 312:-0.71808928 313:0.0014783115 314:-1.1606987 315:-0.47527441 316:-0.18240546 317:-0.26571652 318:0.3787187 319:-1.0323809 320:-1.0833832 321:0.0033281113 322:0.0031876913 323:0.023415055 324:0.3983224 325:-1.0466814 326:0.038885392 327:0.013148393 328:-0.020128518 329:-0.00099839515 330:-0.02027918 331:-0.069443822 332:0.33597633 333:-0.21932696 334:0.16512989 335:-0.13740163 336:-0.22186905 337:0.019821856 338:0.015197698 339:0.055832464 340:-0.29979932 341:-0.58436424 342:-0.13379173 343:0.016625127 344:0.11298466 345:-0.0070878072 346:-0.019528029 347:-0.068794489 348:0.6657415 349:1.280196 350:0.11271023 351:0.0067379246 352:-0.082332768 353:0.0006685236 354:0.00055962196 355:0.0082357582 356:-0.02332763 357:-0.36218879 358:-0.016272262 359:-0.0081618521 360:0.0063777789 361:-0.00080651243 362:-0.0025825077 363:-0.0075622308 364:-1.1425024 365:1.0542469 366:-0.044582982 367:-0.070190445 368:-0.016089614 369:-0.025563691 370:-0.0024420151 371:0.0032840914 372:-0.36187589 373:-0.038211364 374:-0.085242696 375:-0.072321273 376:0.014542396 377:-0.060993198 378:-0.042516049 379:-0.094663098 380:0.04326066 381:-0.45477694 382:0.154598 383:-0.14965625 384:-0.22790423 385:-0.46338823 386:-7.3817692 387:-2.2873309 388:1.8241328 389:5.7787204 390:3.5076241 391:-4.8795953 392:-6.1953702 393:-0.010385514 394:0.018739952 395:0.059118818 396:-0.44638032 397:-0.8254692 398:-0.1148422 399:-0.0786772 400:0.04350568 401:-3.5190392 402:-42.966396 403:-3.543366 404:-1.0157809 405:-1.7170124 406:-10.596703 407:-0.073274337 408:-0.037469946 409:-0.098507576 410:0.074711397 411:0.037264396 412:-0.26190424 413:-0.081438705 414:-0.049372468 415:-0.14864212 416:-0.33646187 417:-0.73098898 418:-0.38790855 419:0.082070366 420:0.02501481 421:0.05419283 422:-0.10810021 423:-0.26959574 424:0.16845638 425:-0.23479047 426:-14.338607 427:-2.0256338 428:-0.25386906 429:-1.4502022 430:-4.4480014 431:0.0015559761 432:-0.01191278 433:-0.048324049 434:0.096385099 435:-0.1201157 436:-0.082574114 437:0.0075225518 438:-0.016740495 439:-0.082813852 440:0.26111585 441:-1.1434978 442:-0.1583311 443:-0.027338425 444:0.0074545247 445:0.03492184 446:-0.31970081 447:-0.81995493 448:-0.0524913 449:1.6117827 450:0.19841626 
0.1 0.1 0.1 0.1 0.1 0.1 1:2.2551529 2:2.7019191 3:0.37386137 4:-0.39145309 5:0.46586895 6:-0.76031965 7:3.1703575 8:3.1872838 9:2.1077523 10:-0.13949093 11:-0.048686497 12:-0.96088195 13:1.6296895 14:-2.1389849 15:1.2557596 16:2.7730343 17:-2.0556576 18:-3.6328874 19:-0.66687804 20:0.55612618 21:0.3803671 22:-1.3657501 23:-1.363246 24:0.074531108 25:-2.399648 26:10.924986 27:1.4257773 28:0.10882267 29:-0.091563575 30:-2.0362098 31:1.8299732 32:3.5169539 33:0.73378623 34:3.4629374 35:0.55469054 36:0.32109651 37:-0.75874609 38:1.4451163 39:1.9879972 40:-0.029323036 41:-3.2686207 42:2.9657738 43:1.1433994 44:-0.16954984 45:0.080247946 46:-5.9099469 47:-1.4796246 48:4.0863528 49:-4.0133505 50:-7.4155025 51:-1.4591099 52:-0.22062649 53:-0.14162317 54:-2.7730012 55:-5.0028429 56:-2.4229636 57:5.0601139 58:-1.0160916 59:0.19006759 60:0.14961834 61:-0.42012897 62:4.6147709 63:4.7898126 64:-0.26779369 65:-3.1629283 66:12.761032 67:1.8278124 68:-0.38794434 69:0.74132252 70:-5.118176 71:-1.6420444 72:3.9450417 73:2.2961233 74:-4.4779315 75:-0.73305422 76:0.4867312 77:0.17534181 78:2.2625196 79:2.5722768 80:0.022328369 81:0.26029968 82:-3.391722 83:-0.78303957 84:0.43866083 85:0.17019412 86:1.1606525 87:1.7586578 88:0.40201166 89:0.014840366 90:1.7331784 91:0.24026741 92:-0.31740987 93:0.10439067 94:-0.11398792 95:0.55526614 96:0.58412611 97:-1.6051186 98:-0.083464429 99:-0.13023634 100:-0.8272866 101:0.33281386 102:-2.3630304 103:-3.2404983 104:-0.33310035 105:2.9581394 106:-8.731307 107:-1.9246302 108:0.50685292 109:0.055522643 110:5.095397 111:1.3177563 112:-3.6801105 113:-1.1225302 114:4.3002982 115:0.76631427 116:-0.85615665 117:0.97085327 118:-3.1706378 119:-1.5710254 120:1.6720854 121:0.21084449 122:0.052157361 123:0.11144156 124:1.2640958 125:2.2885971 126:0.10869014 127:0.54277617 128:0.47550201 129:0.033847522 130:0.043828189 131:0.093161121 132:0.78509903 133:1.2324586 134:-0.023087827 135:0.40534434 136:0.40584052 137:-0.074544087 138:0.14703862 139:0.1995431 140:-0.10286065 141:-0.56305635 142:-0.19373801 143:0.09349934 144:0.22148308 145:-0.13969767 146:0.080180742 147:0.11892972 148:0.044370525 149:0.1251197 150:-0.32308334 151:0.19240515 152:0.42697284 153:-0.020008026 154:-0.049100637 155:-0.086788923 156:-0.089807421 157:-0.75119865 158:0.15980081 159:-0.26605463 160:-0.33155861 161:-0.17997509 162:-0.015090658 163:-0.050616261 164:-0.48662406 165:0.30318359 166:-0.17188343 167:-0.21013013 168:-0.023567077 169:-0.15264626 170:0.015794983 171:0.055625331 172:1.1650671 173:1.971876 174:-0.20694746 175:0.45915321 176:0.57835221 177:-0.16269742 178:0.12570591 179:0.12278085 180:-0.023572663 181:0.051306084 182:-0.2986339 183:0.09082818 184:0.35433847 185:1.6632144 186:-3.4338222 187:-0.042734161 188:1.0665067 189:1.5129628 190:-0.52358639 191:7.4956083 192:7.5315843 193:0.3828806 194:-0.24845563 195:-0.42220244 196:-1.1096714 197:2.1169569 198:0.57561129 199:0.078929909 200:-0.49898237 201:-0.24927597 202:2.2383661 203:0.81910002 204:0.16451837 205:0.3682119 206:-1.573018 207:2.1631954 208:2.7909863 209:0.077532291 210:1.3717176 211:0.52467602 212:-0.56051356 213:1.0211443 214:-2.013639 215:1.3164076 216:2.474364 217:0.59091884 218:0.47828284 219:0.21905541 220:-0.24352331 221:-0.22716638 222:-0.79707295 223:-0.037254505 224:0.59299016 225:0.14926936 226:1.2454382 227:0.47521365 228:-1.0674547 229:0.60082573 230:-1.9659795 231:-0.16894376 232:1.3756789 233:0.16736908 234:-1.2911692 235:-0.40529597 236:0.5238049 237:-0.70178151 238:1.3146142 239:0.012689269 240:-1.0352073 241:0.21948411 242:0.37747729 243:0.19094849 244:0.38696 245:-0.13133906 246:0.34412119 247:0.23149569 248:-0.085462891 249:-0.21349029 250:-0.93828058 251:-0.28735107 252:-0.023908768 253:-0.40211794 254:0.3595379 255:-0.073567078 256:-0.34812158 257:0.17818224 258:-0.054056492 259:0.028475232 260:0.64511502 261:-0.73391235 262:1.5111923 263:0.58528435 264:-0.77963805 265:0.24321902 266:1.8427253 267:0.65862942 268:-0.19403556 269:-0.36447135 270:-1.3646325 271:0.50796384 272:1.4811249 273:0.16288194 274:-0.95892888 275:-0.29775363 276:-0.026483269 277:-0.28760177 278:0.73793292 279:-0.25741929 280:-0.7547918 281:-0.29456913 282:-1.3475993 283:-0.46853459 284:-0.32506776 285:-0.40232572 286:0.12346339 287:-1.5853044 288:-1.2820523 289:0.087403022 290:-1.5201167 291:-0.54688835 292:0.66137898 293:-0.26217934 294:1.6208874 295:-0.31231672 296:-1.4991344 297:-0.024241367 298:-1.5654199 299:-0.58441669 300:-0.012910291 301:-0.78884327 302:0.80163115 303:-1.430079 304:-1.6824931 305:-0.029022552 306:-1.201704 307:-0.46713307 308:0.40459886 309:-0.378746 310:1.369882 311:-0.67281443 312:-1.5893867 313:-0.12412401 314:0.49714136 315:0.25498617 316:0.52637327 317:1.6040019 318:-0.96239012 319:1.2665212 320:1.7089415 321:-0.04418572 322:0.023445489 323:0.11154202 324:-1.0954669 325:3.1824067 326:-0.19804931 327:0.17524172 328:0.27431467 329:-0.043781612 330:0.014640777 331:0.063852295 332:0.093382984 333:1.6840284 334:-0.21172865 335:0.15621713 336:0.27054492 337:-0.014858829 338:0.01293513 339:0.049825031 340:0.9580828 341:0.40672481 342:0.073480271 343:0.23193122 344:0.12209282 345:-0.011731605 346:0.0031711373 347:0.017455364 348:-0.19032809 349:-0.86306506 350:-0.0032357008 351:-0.045682613 352:-0.032254018 353:-0.0065123942 354:-0.0080157071 355:-0.028524214 356:0.31817934 357:-0.20915204 358:0.047589786 359:-0.043362923 360:-0.068315744 361:-0.0029427267 362:-0.0021420936 363:-0.0055337138 364:0.53885394 365:0.021716556 366:0.027533391 367:0.10567427 368:0.055680193 369:0.0077343411 370:0.0054234993 371:0.033177696 372:0.46801731 373:0.52195829 374:-0.11079072 375:0.13388345 376:0.18065202 377:0.045979172 378:0.042566057 379:0.099076204 380:0.15289336 381:0.96584946 382:-0.19940613 383:0.36435679 384:0.42399707 385:-0.2195913 386:1.9848971 387:0.83206201 388:-1.4426941 389:-3.4131372 390:-2.1847379 391:0.25917533 392:1.715661 393:-0.023091124 394:-0.05659765 395:-0.16813174 396:-0.73035306 397:1.3872581 398:0.10135777 399:-0.29949206 400:-0.27987412 401:1.4513052 402:-8.4684162 403:-0.33677441 404:0.23064117 405:0.13498269 406:5.4909887 407:0.0011222694 408:-0.0017200859 409:0.027874945 410:0.38399512 411:0.83466882 412:0.082979977 413:-0.020413624 414:-0.021067806 415:-0.02382319 416:0.41642725 417:0.96280128 418:-0.048014022 419:-0.019344546 420:-0.052831501 421:-0.070829183 422:-0.67242575 423:-1.4577285 424:-0.23371565 425:-0.058379985 426:-6.1292543 427:-0.54508203 428:1.4901034 429:1.2987067 430:3.0623572 431:-0.0074934606 432:0.0032072458 433:0.034853518 434:-0.16604458 435:1.1232187 436:0.13047542 437:-0.0072284774 438:-0.0050571891 439:-0.0011626756 440:0.27312949 441:0.77762055 442:0.010148275 443:-7.7083787e-005 444:-0.027839167 445:-0.066358998 446:-0.51091462 447:-1.2499275 448:-0.20602615 449:2.9281442 450:0.83016717 
0.1 0.1 0.1 0.1 0.1 0.1 1:0.6723634 2:-0.5972591 3:0.058350522 4:-0.60280454 5:0.4460125 6:-2.6594384 7:-1.3331264 8:1.1340176 9:3.0650249 10:-19.62726 11:-2.7858822 12:0.17840812 13:0.19000717 14:6.3794489 15:2.4610338 16:-3.9882162 17:-0.91397011 18:5.2621117 19:1.4378381 20:-0.13342914 21:-0.17689653 22:-1.4688776 23:0.29405126 24:1.5000708 25:1.4426894 26:-5.5010304 27:-0.41524157 28:0.28483775 29:1.1569474 30:1.3720802 31:3.6168115 32:2.3551965 33:5.028142 34:-15.639181 35:-3.0392017 36:1.2347564 37:0.87891954 38:6.7505593 39:5.3704305 40:-3.1866605 41:-4.1394997 42:22.243025 43:2.8640535 44:0.66370344 45:-0.8454414 46:-4.1408124 47:-0.87507564 48:2.9948061 49:-5.288599 50:-17.229601 51:-0.56788731 52:-0.66013318 53:-0.64995235 54:-5.3682809 55:-7.5600724 56:-2.4995522 57:3.7680163 58:-11.238651 59:-2.24997 60:-0.62515581 61:-0.27744052 62:4.8709412 63:-0.17728189 64:-5.3376493 65:-1.3646332 66:-10.228832 67:-2.1193209 68:0.50534058 69:-0.19266853 70:1.9849662 71:-1.715788 72:-3.61236 73:1.9774073 74:3.1140921 75:1.4801763 76:0.0048910999 77:-0.5269568 78:0.27303946 79:2.1930537 80:1.5738548 81:1.6169169 82:-6.4581141 83:-1.4274122 84:-0.43823686 85:0.12270325 86:2.5514627 87:-1.3977542 88:-3.6190388 89:-1.8812948 90:-1.0006924 91:-0.23807248 92:0.020714331 93:0.65123367 94:-1.6329356 95:-0.79069626 96:0.94364583 97:-0.31685218 98:-4.6272283 99:-0.29990187 100:-0.68945795 101:0.25485575 102:-0.78753167 103:-1.5525011 104:-0.49434808 105:5.3932753 106:-1.4552668 107:-0.41613978 108:-0.26038751 109:0.021269435 110:4.741992 111:4.5738831 112:-0.1768121 113:-2.6812322 114:-1.3442314 115:-0.39288774 116:-0.087867275 117:-0.57348043 118:-1.3274004 119:-2.8764122 120:-1.5183594 121:-0.082504556 122:-0.019066336 123:-0.052377421 124:-0.62993211 125:-0.55805391 126:-0.22519702 127:-0.19846457 128:-0.051118683 129:-0.32212809 130:-0.12598033 131:-0.25934559 132:0.95871764 133:2.0018754 134:0.132497 135:-0.43628809 136:-0.48028016 137:0.24046536 138:-0.011280627 139:0.0012548632 140:-1.2952232 141:-0.14063607 142:-0.13620156 143:-0.15241969 144:-0.032193732 145:0.16566978 146:-0.17639233 147:-0.3192839 148:-0.34418246 149:1.0115697 150:0.30404034 151:-0.21333645 152:-0.42596972 153:-0.044509687 154:-0.067078725 155:-0.16909674 156:0.25644979 157:-0.22702537 158:0.15398699 159:-0.11412953 160:-0.21996489 161:-0.085220255 162:-0.041558754 163:-0.11130307 164:0.64811665 165:-0.11068591 166:0.16987988 167:0.039214361 168:-0.12233706 169:-0.1825299 170:-0.012190396 171:-0.0055513387 172:2.1973186 173:4.9079113 174:0.063950345 175:0.39039856 176:0.33840427 177:-0.18090342 178:0.068516396 179:0.063417234 180:0.5214507 181:-0.30223233 182:0.11403281 183:0.25305104 184:0.0434606 185:-2.4544382 186:-34.694073 187:-3.4699688 188:-0.6057846 189:-1.027826 190:2.2934771 191:-8.6041031 192:-9.7720232 193:0.22017778 194:-0.091162384 195:-0.13884974 196:-0.42174774 197:0.15545557 198:-0.094973572 199:-0.023847222 200:0.075004391 201:-0.094079018 202:2.4801874 203:0.92233652 204:0.99114329 205:0.96190846 206:-0.54432249 207:1.8571352 208:1.8815773 209:0.64610934 210:-2.209465 211:-0.65092015 212:0.58312273 213:1.1750908 214:0.64855456 215:-0.042094946 216:-0.50502533 217:-0.13884929 218:-0.2107508 219:-0.01000627 220:0.52067959 221:-0.87955242 222:1.096503 223:0.28912136 224:-0.64000595 225:0.078823753 226:-0.97007179 227:-0.29315725 228:-0.50195032 229:1.5407168 230:-1.5747129 231:-0.077059753 232:1.1474369 233:0.48741457 234:-3.6144755 235:-1.4239758 236:0.4292298 237:-0.042121232 238:2.2428956 239:-1.0937277 240:-2.5621564 241:-0.09768346 242:2.1377909 243:0.73465991 244:0.017811485 245:-1.3310968 246:0.14144906 247:-0.16608642 248:-0.23158577 249:-0.11738846 250:-1.682337 251:-0.55856979 252:-1.0363011 253:0.32494906 254:-0.47891942 255:-2.0472586 256:-1.1884741 257:0.051163428 258:0.49108741 259:0.21511438 260:0.66559923 261:-0.18889539 262:0.74907357 263:1.0340933 264:0.15623243 265:-0.11819641 266:-0.61724693 267:-0.15572962 268:-1.2560272 269:0.16960716 270:-0.63813055 271:-2.2252331 272:-1.133378 273:-0.13561632 274:1.4898452 275:0.54356009 276:0.63671005 277:-0.23927157 278:-0.050587911 279:0.63781667 280:0.54679573 281:-0.4611561 282:-1.7429996 283:-0.62872863 284:0.12342338 285:0.28080696 286:0.10887969 287:-1.1805723 288:-0.96817976 289:-0.28992677 290:1.1915588 291:0.47580358 292:0.34862256 293:-0.23538883 294:-0.12375066 295:1.5981373 296:1.3121561 297:0.16845511 298:-1.5059911 299:-0.55885255 300:0.24913475 301:-1.038716 302:1.7949383 303:-1.1829844 304:-2.2870643 305:-0.14609574 306:-0.76519597 307:-0.27555838 308:-0.12612045 309:-0.46739379 310:0.5025627 311:-0.39165336 312:-0.69075912 313:-0.11582577 314:-0.1782212 315:-0.017348425 316:-0.99112684 317:0.66822201 318:-0.38639158 319:-0.78186613 320:-0.30677488 321:0.015944606 322:-0.0071350182 323:-0.031329516 324:0.62580842 325:-0.73402417 326:0.10836831 327:-0.031673096 328:-0.10455152 329:-0.052352417 330:-0.024647789 331:-0.090235047 332:-0.042689379 333:0.96007007 334:0.11301001 335:-0.11260099 336:-0.16480364 337:-0.014137465 338:-0.011972887 339:-0.033330821 340:-0.039933953 341:-1.3246036 342:0.087425582 343:-0.118044 344:-0.1557032 345:-0.020848405 346:-0.029038483 347:-0.10952178 348:0.49573326 349:-0.3948999 350:0.17711689 351:-0.15170974 352:-0.25289005 353:-0.041919857 354:-0.012247733 355:-0.048146673 356:-0.26872799 357:-0.71635413 358:0.052895918 359:-0.1047636 360:-0.1177175 361:-1.1403285e-005 362:-0.0059272312 363:-0.024058111 364:-0.21481429 365:-0.14825699 366:-0.0094479173 367:-0.037341706 368:-0.019900082 369:0.0052310852 370:0.00077102095 371:0.015312097 372:-0.8520844 373:2.5923731 374:-0.21237744 375:0.11354769 376:0.244725 377:0.002485747 378:-0.011085066 379:-0.015778938 380:-0.08521267 381:-0.54633021 382:0.048290651 383:-0.08927083 384:-0.10346492 385:0.030212982 386:-3.8313625 387:-0.67101783 388:1.7462525 389:3.4506691 390:3.805115 391:0.12608501 392:-2.5429585 393:0.032685198 394:-0.0038386129 395:0.0042769606 396:0.071966216 397:-0.21379828 398:0.052174117 399:0.07415586 400:0.0053762817 401:-2.1944966 402:-39.570408 403:-3.1816039 404:-0.63980305 405:-1.9117687 406:-8.6779861 407:-0.14172128 408:-0.055878114 409:-0.1984563 410:-0.314385 411:-0.96040446 412:-0.40068117 413:-0.15602978 414:-0.059064306 415:-0.22189203 416:-0.10754054 417:-0.78019917 418:-0.47230715 419:-0.16656795 420:-0.15512839 421:-0.31123832 422:-0.19046216 423:-0.082904592 424:-0.50510156 425:0.16754036 426:-17.889038 427:-2.7408631 428:0.76787174 429:-0.51516795 430:-3.1543288 431:-0.0056243553 432:-0.020359766 433:-0.12231142 434:0.33887178 435:-1.2674161 436:-0.20698145 437:-0.0044717812 438:-0.020649116 439:-0.1295342 440:0.082538694 441:-1.1395847 442:-0.21928644 443:-0.00085278635 444:-0.053884953 445:-0.15945941 446:0.19261105 447:-0.24238162 448:-0.25069553 449:-1.8985149 450:-0.77792627 
0.1 0.1 0.1 0.1 0.1 0.1 1:1.840595 2:-10.062552 3:-1.7425069 4:0.27252519 5:0.1247738 6:3.0159762 7:0.73682523 8:-1.9108366 9:1.8503485 10:14.945905 11:1.9535455 12:-0.46392903 13:0.16883355 14:-1.9600981 15:2.8090923 16:3.6853669 17:-2.3399069 18:1.8101555 19:0.75698024 20:0.63422936 21:0.23900592 22:-1.7692171 23:1.4381192 24:2.6811619 25:-1.6693928 26:-7.6248403 27:-1.4663919 28:-0.90731776 29:0.12215561 30:-2.3871753 31:-3.6396141 32:-1.5129217 33:1.0220104 34:-11.847787 35:-2.2846079 36:0.74917775 37:-0.0048324484 38:3.8386331 39:0.75205815 40:-3.6045785 41:-2.1774828 42:12.814785 43:1.7250829 44:-0.27917868 45:-0.43930721 46:-3.8446224 47:-0.8932789 48:2.7147572 49:-4.649775 50:-13.386517 51:-2.7753356 52:-0.32131174 53:0.0070303609 54:-2.7832162 55:-7.1472025 56:-4.6239486 57:4.5364184 58:-6.2350445 59:-1.2007097 60:0.99171799 61:0.19442435 62:5.8188052 63:4.4685278 64:-1.8552192 65:-2.6570091 66:13.801145 67:2.129534 68:-0.4364838 69:0.50734776 70:-4.7928061 71:1.5905687 72:6.4631171 73:1.7551789 74:-1.9115676 75:0.41967741 76:0.26984611 77:-0.40967035 78:1.7493522 79:1.7028185 80:-0.2214445 81:2.1192899 82:-9.5646935 83:-2.0459509 84:-0.10801431 85:-0.61328435 86:3.9355605 87:-1.430892 88:-4.9619956 89:-1.0475916 90:-3.8036966 91:0.063104257 92:-0.11295647 93:-0.52236664 94:-0.69443589 95:-1.2454556 96:-0.37056208 97:-1.6782764 98:-6.5885611 99:-1.1032629 100:-1.0186778 101:1.1795118 102:-2.1365619 103:-4.3602352 104:-1.461475 105:4.1033306 106:1.7814956 107:0.43395171 108:0.99251372 109:-0.027988849 110:4.6983938 111:5.8081141 112:1.0631739 113:-3.0883598 114:0.67557847 115:0.35954553 116:-0.97460496 117:0.8886199 118:-5.191206 119:-3.9661317 120:1.3439286 121:0.16136672 122:0.0035085138 123:0.010838501 124:0.44767705 125:0.42844954 126:0.16605736 127:0.28445175 128:0.17698613 129:0.069699608 130:0.081879452 131:0.17177968 132:0.76108688 133:0.67207706 134:0.11501841 135:0.36422703 136:0.30986297 137:0.017222278 138:0.08381512 139:0.13399632 140:-0.52186286 141:-0.66285348 142:-0.20180224 143:0.0493287 144:0.18930447 145:-0.052130528 146:-0.052538462 147:-0.06267342 148:0.27352688 149:0.94666141 150:-0.2119974 151:0.31479126 152:0.42142552 153:-0.010722635 154:-0.039177068 155:-0.096774265 156:0.59135282 157:-0.93526387 158:0.30888617 159:-0.10809004 160:-0.35667825 161:-0.15890184 162:-0.030143127 163:-0.088108316 164:-0.18762618 165:-0.90841943 166:0.077267416 167:-0.3565771 168:-0.37931097 169:-0.19204552 170:-0.072665498 171:-0.14773196 172:0.25083798 173:-0.087176464 174:-0.0010503727 175:-0.27585623 176:-0.26732418 177:-0.30488104 178:-0.069884479 179:-0.11006386 180:0.10305222 181:-0.094605416 182:-0.14507638 183:-0.33076039 184:-0.060771283 185:3.9363039 186:17.676718 187:2.8339126 188:1.134955 189:-0.41915703 190:4.8268151 191:10.420618 192:6.7730279 193:0.22807622 194:-0.11091561 195:-0.16602746 196:-0.64511669 197:0.70634627 198:-0.094973572 199:0.06415806 200:0.13456659 201:-0.22748721 202:0.19011891 203:0.14265333 204:-0.26772255 205:-0.59304541 206:-0.5785383 207:-0.020087881 208:0.35266405 209:-0.78750205 210:3.536561 211:1.1157141 212:0.70220029 213:-0.027069828 214:-0.44874659 215:2.7071848 216:2.3965483 217:0.64441407 218:3.240591 219:1.0874643 220:0.31398001 221:-1.248175 222:0.17596836 223:1.3143386 224:0.83405 225:0.039898977 226:-0.03439521 227:0.047125716 228:-0.68168682 229:-0.6640926 230:-0.10098971 231:-1.0081705 232:-0.71064651 233:-0.0033467298 234:-2.3021371 235:-0.81765389 236:0.010756821 237:-0.92548609 238:1.7156453 239:-2.140439 240:-2.89029 241:0.36299056 242:3.5998225 243:1.1473758 244:0.04385053 245:-1.3277957 246:0.18505917 247:0.39574945 248:0.1580306 249:0.36252639 250:-0.57235724 251:-0.15288027 252:0.34511665 253:-0.63253367 254:1.2016498 255:0.59503394 256:-0.51587117 257:0.050810874 258:0.73330951 259:0.29088479 260:0.16977684 261:-0.64165878 262:-0.16457959 263:0.60650867 264:0.57381618 265:0.078627005 266:0.96211284 267:0.37406632 268:-0.30164865 269:0.53521383 270:-0.66316134 271:0.66916496 272:1.0328879 273:0.37884912 274:-0.61894286 275:-0.17202647 276:-0.36456639 277:-0.69453597 278:0.15847521 279:-0.79965299 280:-0.75626582 281:-0.14970249 282:-0.74562305 283:-0.22013021 284:0.36704037 285:-0.54618752 286:1.0160406 287:0.28241611 288:-0.59524262 289:0.18875246 290:0.048098989 291:0.068171427 292:-0.016754013 293:-0.4577302 294:0.44321585 295:0.3388702 296:-0.087142609 297:0.57520097 298:-0.12697908 299:-0.0025667879 300:1.1984529 301:1.1872008 302:0.83891404 303:2.1181147 304:0.889211 305:0.41212302 306:1.2810071 307:0.54017627 308:-0.076224841 309:-0.0038749373 310:-1.1253719 311:0.85422593 312:1.5298548 313:0.087052807 314:0.34801325 315:0.20315164 316:-0.54666686 317:-0.028644392 318:-0.20141631 319:0.035594665 320:0.18108843 321:-0.016023239 322:0.0055700885 323:0.035011534 324:-0.62676078 325:-0.56124318 326:-0.077572308 327:-0.050822258 328:0.022710387 329:0.026716603 330:0.031819861 331:0.11517093 332:-0.5210073 333:-0.73279542 334:-0.21023311 335:0.06764622 336:0.20756766 337:0.027004514 338:0.028645663 339:0.095342785 340:-0.024433658 341:-0.97923559 342:-0.097432837 343:0.083531171 344:0.13684048 345:0.039702911 346:-0.00057465263 347:0.0039848262 348:-0.44842666 349:-0.51482242 350:-0.0095496094 351:-0.057212599 352:-0.036129002 353:0.047024604 354:0.0076265405 355:0.036789119 356:0.043271013 357:-1.0419277 358:-0.042348325 359:0.0097340308 360:0.03947857 361:0.037608132 362:-0.0024397965 363:-0.0071658567 364:-0.28957093 365:-0.70121688 366:0.0058415267 367:-0.0044770045 368:-0.0079285847 369:0.031097585 370:-0.012385239 371:-0.041355014 372:-0.26610473 373:-0.96016181 374:0.051708125 375:-0.059335027 376:-0.082077123 377:0.07436417 378:0.0047206925 379:0.019095177 380:-0.51193327 381:0.11924652 382:-0.14784312 383:-0.042211596 384:0.077279113 385:-0.40880284 386:12.691388 387:2.9082365 388:-1.3337626 389:-3.7920201 390:-4.6946702 391:3.2449908 392:5.7588925 393:-0.054839801 394:-0.015872501 395:-0.029528279 396:-0.67626041 397:0.19756484 398:-0.13001333 399:-0.15827605 400:0.0039561852 401:2.3145897 402:45.435841 403:4.596992 404:1.3077625 405:1.4996314 406:15.344573 407:0.12746017 408:0.037260976 409:0.1410311 410:-0.52000505 411:-1.6432471 412:0.22732672 413:0.087283671 414:0.044235632 415:0.16673782 416:0.41111308 417:0.38186175 418:0.36463752 419:-0.038758274 420:-0.14248142 421:-0.26970428 422:-1.0106168 423:-1.7260447 424:-0.65843993 425:-0.74518889 426:32.172886 427:4.2495894 428:-0.20808649 429:1.4028953 430:8.0320911 431:-0.0074993339 432:0.019550128 433:0.10129943 434:0.027983289 435:-1.6276083 436:0.12015855 437:-0.0073529328 438:0.019609446 439:0.10589515 440:0.28922826 441:0.08356753 442:0.25275907 443:-0.00029283867 444:-0.045924343 445:-0.12840259 446:-0.40988782 447:-1.3990722 448:-0.34904024 449:-0.58215326 450:-0.40461895 
0.1 0.1 0.1 0.1 0.1 0.1 1:-0.80817282 2:6.339149 3:2.0041628 4:-0.51830161 5:0.0029796518 6:-2.6658235 7:0.74540412 8:2.8149498 9:0.93369788 10:11.900408 11:1.5322276 12:0.10496081 13:-0.47517699 14:-0.74702919 15:2.2891247 16:2.2453308 17:-1.1050992 18:-5.6380754 19:-1.1150638 20:-0.7398181 21:-0.1129656 22:-0.79005659 23:-4.2851505 24:-2.7774043 25:-1.943629 26:-0.12099867 27:-0.21120566 28:0.087272674 29:-0.088203363 30:-1.5581163 31:-1.480093 32:-0.11504862 33:2.5647948 34:1.0808296 35:0.24741247 36:0.33998165 37:-0.50441086 38:1.2755969 39:3.5174348 40:1.3467803 41:1.4134113 42:30.872469 43:4.3150492 44:-0.17871822 45:-0.52945834 46:-4.3931489 47:2.8723595 48:6.2742224 49:-1.558304 50:9.3374157 51:2.6183507 52:0.065079398 53:-0.27230427 54:-4.339911 55:-0.206983 56:4.0677962 57:6.0650458 58:6.8258324 59:1.687699 60:0.69103944 61:-0.17247592 62:4.9170966 63:8.8127718 64:3.2976677 65:-2.7342448 66:21.926828 67:3.8430867 68:-0.53788674 69:-0.50260806 70:-6.4140592 71:-0.20976856 72:6.5796332 73:1.2079353 74:-11.852343 75:-1.4887893 76:0.13974464 77:-0.6985395 78:4.0832467 79:-1.1846871 80:-4.8226085 81:0.89937997 82:-0.51928902 83:0.57507122 84:-2.7259414 85:6.6209812 86:-8.075161 87:-1.7397821 88:6.1815081 89:1.8357079 90:-2.8699181 91:-0.602826 92:-0.77639109 93:-0.48261613 94:2.1557286 95:-1.7062536 96:-3.5804529 97:-2.0870836 98:-0.013886721 99:-0.026164388 100:0.52043587 101:-0.5372411 102:-0.2312534 103:-1.6137983 104:-1.0844985 105:4.8221245 106:-4.9800835 107:-1.1749943 108:-0.15044478 109:0.02011803 110:3.9858088 111:3.0355515 112:-0.93353462 113:-1.0238287 114:-1.5258394 115:0.1744215 116:-0.71243423 117:-0.17048541 118:-1.9834931 119:-2.4798658 120:-0.45082527 121:-0.12424488 122:0.030556412 123:0.1086439 124:-1.1256579 125:-0.52139962 126:-0.37280124 127:-0.11978969 128:0.12592919 129:0.17626823 130:0.040359762 131:0.094272427 132:0.20038217 133:0.16353436 134:0.10947252 135:0.31142443 136:0.26044881 137:-0.070238121 138:0.042284511 139:0.045645472 140:-0.12149341 141:-0.69266498 142:-0.017466111 143:-0.10728996 144:-0.07970529 145:-0.019224584 146:-0.038248885 147:-0.070123993 148:0.23653398 149:-0.77971506 150:0.092202149 151:-0.075149409 152:-0.13700464 153:0.13105431 154:0.002592044 155:0.080117919 156:0.28932908 157:-0.83342928 158:0.039343666 159:0.098289564 160:0.032978691 161:-0.052076519 162:0.089058869 163:0.23528452 164:1.6988347 165:0.43530381 166:-0.16018845 167:0.44399318 168:0.53114712 169:0.12217753 170:0.23949216 171:0.52209955 172:0.3769418 173:-1.0874224 174:-0.04995583 175:0.72442001 176:0.73571694 177:0.14853728 178:0.19463065 179:0.31672382 180:0.036959775 181:-0.563146 182:0.05951041 183:0.32716948 184:0.14389898 185:1.2078971 186:30.780787 187:3.6725669 188:1.8145515 189:1.6357014 190:3.9834149 191:17.296339 192:13.923466 193:-0.08086203 194:0.14720236 195:0.26183572 196:0.27627075 197:-0.88208824 198:-0.094973572 199:0.034488991 200:0.11448649 201:-0.28396979 202:-0.073953427 203:0.057527676 204:-0.16895574 205:-0.36418027 206:-0.4476631 207:-0.17563887 208:0.14063218 209:-0.34290224 210:-0.20779283 211:0.023552246 212:0.20047191 213:0.63087523 214:-0.82246208 215:0.89250338 216:1.2818698 217:-0.11926951 218:-0.64409596 219:-0.17410587 220:-0.097742282 221:1.5913683 222:0.04853173 223:0.75613558 224:0.52085686 225:-0.016853739 226:-1.0859649 227:-0.34003732 228:-0.18827756 229:-0.56770897 230:0.50220144 231:-0.70643216 232:-0.93737149 233:0.14674993 234:-1.0886246 235:-0.32741159 236:0.34311357 237:-0.12074427 238:0.5063597 239:0.38543475 240:-0.12716627 241:0.29761103 242:2.7942054 243:0.90676671 244:-0.33714274 245:-0.0021817356 246:-2.2571216 247:1.0401348 248:2.4846284 249:0.1557429 250:-0.30759543 251:-0.059316218 252:-0.3294138 253:0.12937884 254:-0.91798997 255:-0.65835881 256:0.23716001 257:0.10881441 258:0.68572122 259:0.28250647 260:0.55145454 261:0.38522914 262:-0.56244856 263:1.6504595 264:1.6529808 265:0.23962803 266:5.4312863 267:1.6926072 268:0.23881726 269:0.039014306 270:-2.2335339 271:3.635916 272:4.5035696 273:0.029111687 274:-0.85275829 275:-0.2586554 276:0.40722102 277:0.21735775 278:0.55124867 279:0.94250077 280:0.34199122 281:-0.020175565 282:-1.5148352 283:-0.53655422 284:0.18905662 285:1.0982957 286:-0.071870811 287:0.59268886 288:0.49971521 289:0.032221422 290:-1.5629648 291:-0.57287884 292:0.0094393361 293:0.021120045 294:0.41983733 295:-1.0310762 296:-1.1111809 297:0.036198765 298:-1.464897 299:-0.54377836 300:-0.40013656 301:0.75543433 302:-0.08299692 303:-0.37356618 304:-0.20820846 305:0.042362273 306:-1.0768058 307:-0.41064522 308:0.41631365 309:-0.15626211 310:0.88910002 311:0.33195415 312:-0.4601168 313:0.082925595 314:-0.27379245 315:-0.067934871 316:-0.37005785 317:-0.37621826 318:-0.37731361 319:-0.44742161 320:-0.056355804 321:-0.01404407 322:-0.0043085353 323:-0.01657238 324:0.13351157 325:-0.50050002 326:0.013915327 327:-0.010631728 328:-0.018081667 329:0.023660675 330:-0.0033990077 331:0.0010962265 332:-0.8735413 333:1.1674318 334:-0.11763145 335:-0.06633734 336:0.043400481 337:0.033484388 338:-0.015292472 339:-0.045663387 340:-0.39723855 341:0.9206506 342:0.025559552 343:-0.056645632 344:-0.062429316 345:0.02776614 346:-0.014929413 347:-0.050191026 348:0.1490951 349:-1.1725702 350:0.14786255 351:-0.086965382 352:-0.18091871 353:0.014514984 354:-0.014736959 355:-0.059666298 356:-0.33760774 357:0.42297855 358:0.089503907 359:-0.088917747 360:-0.13392358 361:0.016792551 362:-0.0069133653 363:-0.028209619 364:-0.73920679 365:0.51565301 366:-0.051854704 367:-0.08497975 368:-0.021165855 369:0.028235151 370:-0.0045855572 371:-0.0031805283 372:0.076252267 373:-0.77672452 374:-0.00049879221 375:0.019815834 376:0.014450984 377:0.01814501 378:-0.021034567 379:-0.039812703 380:-0.26846454 381:-0.3112562 382:0.11926586 383:-0.058917701 384:-0.13290699 385:-0.53536993 386:0.12055808 387:0.35541654 388:-1.4323149 389:0.55917466 390:-4.5628362 391:-0.23435941 392:2.9852285 393:-0.052518237 394:-0.0047521903 395:-0.0011689496 396:0.12852398 397:0.15634009 398:-0.10411602 399:0.19395985 400:0.21308142 401:0.6961531 402:1.4155829 403:0.90326887 404:1.6535611 405:4.1538091 406:6.868444 407:-0.08878649 408:-0.050411914 409:-0.16333723 410:-0.3693729 411:-0.6099928 412:-0.37476155 413:-0.11759631 414:-0.057143997 415:-0.20358939 416:-0.70694798 417:-1.7138003 418:-0.43544456 419:-0.042888731 420:-0.066820219 421:-0.10333615 422:-0.16965488 423:-0.30153611 424:-0.14420691 425:-0.56351799 426:13.165852 427:2.133903 428:-0.17303726 429:3.7406547 430:7.9450383 431:-0.0075323456 432:-0.016316775 433:-0.08177264 434:-0.098939903 435:-0.58014768 436:-0.15533084 437:-0.0073529324 438:-0.019840034 439:-0.11755719 440:-0.14437987 441:-1.5316919 442:-0.21989384 443:-0.0047415728 444:-0.017791433 445:-0.035365172 446:0.067677006 447:-0.33499137 448:-0.070746429 449:1.6117827 450:1.3757706 
0.1 0.1 0.1 0.1 0.1 0.1 1:-0.30336052 2:18.627174 3:2.6653969 4:-0.30398741 5:-0.12360401 6:-5.1892843 7:2.9745185 8:6.7077675 9:-0.31840613 10:14.590618 11:1.8625854 12:0.12975472 13:-0.51204318 14:-3.3290045 15:1.6278123 16:4.0904655 17:-2.8154757 18:-0.34835503 19:-0.14146519 20:0.54063052 21:0.29556438 22:-2.0860324 23:-1.2036932 24:0.82250237 25:-0.060478795 26:7.2186255 27:0.8968333 28:-0.80524552 29:0.31387091 30:-3.6564882 31:1.3409984 32:4.4204435 33:3.3403473 34:-5.4368987 35:-0.71560878 36:0.85255212 37:-0.27462009 38:3.9665356 39:5.4368439 40:-0.095902421 41:-1.4188203 42:27.081657 43:3.4358046 44:-0.34854627 45:-0.71916312 46:-4.2165027 47:0.078068942 48:3.8392193 49:-3.8570313 50:-5.12784 51:-1.0792775 52:0.039059363 53:0.11495876 54:-2.7478461 55:-2.9406483 56:-0.32143843 57:4.6953464 58:-0.56188035 59:-0.25161311 60:1.035724 61:0.49445522 62:5.5486722 63:7.8988667 64:1.7449613 65:-1.7762519 66:16.166052 67:2.2822623 68:-0.031187451 69:0.58928287 70:-6.2139888 71:1.8695624 72:8.2090721 73:2.1834295 74:-2.0704284 75:-0.21786141 76:1.10317 77:-0.14149444 78:3.9622691 79:3.9249673 80:-0.44475007 81:-1.743733 82:-5.1081996 83:-1.1239034 84:0.23491946 85:-0.19329245 86:0.55179214 87:-2.0032728 88:-2.2377334 89:1.7397819 90:0.51688242 91:0.044484586 92:0.47680977 93:0.41442665 94:1.7906598 95:3.3091383 96:1.0384146 97:-0.46341446 98:-3.773525 99:-0.89462435 100:0.4224087 101:2.061831 102:-0.43099442 103:2.2818947 104:2.2698419 105:1.345466 106:-0.22146714 107:-0.10287906 108:-0.061627734 109:-0.16326313 110:0.94080377 111:0.42701155 112:-0.50123769 113:-1.941269 114:-3.6262548 115:-0.620929 116:-0.45314452 117:0.05468601 118:-2.3090177 119:-2.8534229 120:-0.4913877 121:0.16000699 122:0.11499348 123:0.23153672 124:1.5180296 125:2.438987 126:0.035322219 127:0.7884292 128:0.77182817 129:0.25590843 130:0.17809831 131:0.28492624 132:-0.15310434 133:-1.0384518 134:-0.069896959 135:0.41132894 136:0.4305923 137:0.30404517 138:0.058398884 139:0.069379605 140:-0.65704179 141:-0.85686594 142:0.13846713 143:0.067731343 144:-0.042399392 145:0.20929086 146:-0.052122742 147:-0.11576648 148:-0.74610919 149:1.3548712 150:0.024026848 151:0.16374694 152:0.10165621 153:-0.062265281 154:-0.04450259 155:-0.11335177 156:0.15577781 157:0.64324141 158:-0.06945695 159:-0.010141624 160:0.056103271 161:-0.1615818 162:-0.0089240018 163:-0.036102217 164:-0.45421091 165:0.53989881 166:-0.15549967 167:-0.20166263 168:-0.031315383 169:-0.2389394 170:-0.097627781 171:-0.2315069 172:-0.47198129 173:-0.71359324 174:0.013984214 175:-0.5064044 176:-0.50091463 177:-0.2845397 178:-0.10394545 179:-0.152116 180:0.25203621 181:-0.31008509 182:0.14134896 183:-0.27438578 184:-0.31147614 185:1.6796315 186:11.986329 187:1.4405491 188:1.3301862 189:0.44044363 190:4.9054193 191:8.9334698 192:5.2955675 193:0.035411209 194:0.075728647 195:0.089139715 196:0.051562879 197:-0.55419749 198:-0.094973572 199:0.064980373 200:0.13512313 201:0.046803541 202:2.8804531 203:1.0155718 204:0.32269391 205:0.44284692 206:-1.085524 207:2.2439952 208:2.5465858 209:-0.47426566 210:0.47691479 211:0.24449973 212:-0.45541561 213:0.86068755 214:-2.2813365 215:1.3122376 216:2.6663489 217:-0.15528861 218:0.90137148 219:0.35975012 220:0.40020424 221:-0.71690309 222:0.12167781 223:0.61933273 224:0.36284339 225:0.1384795 226:2.2962396 227:0.79821253 228:-0.49763754 229:-0.24213399 230:-2.2420585 231:0.036742575 232:1.7481959 233:-0.062679701 234:-1.6487488 235:-0.54740041 236:-0.27963659 237:0.89537698 238:0.088611096 239:0.10128024 240:0.0018950695 241:0.1965228 242:3.6365602 243:1.1332386 244:-0.37270284 245:-0.29892191 246:-1.5824127 247:1.1906343 248:2.0889082 249:0.025200829 250:0.32480296 251:0.14562015 252:0.046015184 253:-0.71442962 254:0.44723853 255:-0.30999562 256:-0.60130942 257:0.0048383968 258:1.6488794 259:0.58179331 260:0.63555419 261:0.59046656 262:-0.23161012 263:1.8255141 264:1.5165231 265:-0.023484467 266:0.60680872 267:0.25415808 268:0.5118556 269:-0.70746338 270:0.38022664 271:0.0028430487 272:-0.30564407 273:0.16883054 274:0.11106645 275:0.085985132 276:0.33036193 277:-0.2828171 278:0.24939033 279:0.79448014 280:0.44854164 281:-0.096923046 282:-0.019205272 283:0.04398546 284:0.38591531 285:-0.50121015 286:0.65444106 287:0.61174506 288:-0.062347852 289:0.025034269 290:-0.33958739 291:-0.079472847 292:-0.40651548 293:-0.50059199 294:0.36964458 295:-1.2285448 296:-1.2223467 297:0.013949084 298:-1.7270974 299:-0.6633485 300:-0.019710446 301:0.67846757 302:0.49149793 303:0.12066033 304:-0.30032086 305:0.11967853 306:-0.48509458 307:-0.15718803 308:-0.048473597 309:-0.47191048 310:0.62622529 311:-0.25364664 312:-0.68647933 313:0.11746077 314:-0.66288555 315:-0.24112301 316:-0.065538503 317:-0.19881415 318:0.54653448 319:-0.4356111 320:-0.75224227 321:0.040425293 322:0.027868778 323:0.128704 324:0.27636865 325:2.6141384 326:-0.22528054 327:0.37748703 328:0.43839371 329:0.054995459 330:0.015677037 331:0.06727951 332:0.61781913 333:-0.051815398 334:-0.029309222 335:0.16775081 336:0.1394704 337:0.026891168 338:0.028710227 339:0.095175035 340:0.096929625 341:-0.65385276 342:-0.10607426 343:0.098367706 344:0.15465131 345:0.018653998 346:-0.0065123127 347:-0.017430359 348:-0.12154637 349:-0.27729785 350:0.01677232 351:-0.029455353 352:-0.0354307 353:0.0161853 354:-0.009844644 355:-0.036630515 356:0.18213877 357:-0.29181939 358:0.08293353 359:-0.021937592 360:-0.079436369 361:0.0052642846 362:9.2444308e-005 363:0.0052416599 364:-1.5273817 365:2.1920075 366:-0.12173972 367:-0.099957339 368:0.023375189 369:0.0060021365 370:-0.02367411 371:-0.10075095 372:-0.27559131 373:-1.1233039 374:0.15477657 375:-0.21116349 376:-0.26949874 377:0.010278462 378:0.0017124828 379:0.012775647 380:-0.099009365 381:-0.47586018 382:0.059654385 383:0.0011339667 384:-0.043249007 385:0.27043211 386:3.7097123 387:1.1766869 388:-0.69569772 389:-2.0048413 390:-2.9622359 391:3.1703129 392:4.4992862 393:-0.030429285 394:-0.018057644 395:-0.039517652 396:-0.5825085 397:0.19217184 398:-0.13094939 399:-0.067284495 400:0.064287111 401:1.8104252 402:27.334763 403:2.8052933 404:1.485799 405:2.0303028 406:17.142332 407:-0.030453373 408:-0.030698903 409:-0.068648294 410:0.33800808 411:0.99876004 412:-0.16142277 413:-0.072157621 414:-0.036166053 415:-0.079294607 416:2.8914511 417:11.596435 418:-0.2767753 419:-0.0036228686 420:-0.046784591 421:-0.069726951 422:0.22289215 423:0.7032209 424:-0.11574955 425:0.39300665 426:13.998141 427:2.2263494 428:0.62269473 429:1.9841528 430:9.1809559 431:0.0045033884 432:-0.010696001 433:-0.040185317 434:0.31948656 435:1.190358 436:-0.11038881 437:0.0033349013 438:-0.011427895 439:-0.040308878 440:1.2395869 441:7.9333878 442:-0.1567858 443:0.0056959414 444:-0.010334563 445:-0.013662019 446:0.1841169 447:0.3722918 448:-0.0088416217 449:2.9281442 450:1.8352259 
