solver_type L2R_LR
nr_class 2
label 0 1
nr_feature 6374
bias 0.1
w
0.09514682568504107 
0.0354342022672937 
-0.2022610631997916 
-0.6003684959705546 
-0.4687096646694844 
-0.3056544639489442 
-0.03371390268545847 
0.1699048312107387 
0.1088084153336242 
0.4108834041786859 
0.1367833038488769 
-0.09845268242455993 
0.06727845211603313 
0.7702111276691929 
-0.1307566944707354 
0.2117811193545013 
-0.5356900775546382 
0.3388225158884342 
-0.139370838117115 
0.3289531970844863 
0.279047494971748 
0.01575082885879288 
0.1034996699632747 
0.06041919781323109 
-0.3767866872622455 
-0.04832229277410645 
0.2592061141411754 
0.2895533808041389 
0.1308624372589831 
-0.876333586924493 
-0.1832526876420924 
-0.09154021425844902 
0.05708465615276859 
0.1074226638507343 
0.5991202663542867 
0.2514114067689043 
-0.1395310544530167 
0.06524599400468736 
-0.2853927669445405 
-0.2115330168234325 
-0.2921750789887478 
-0.1015718941402228 
-0.1010989954731949 
-0.07899213737170734 
-0.3361407096420578 
-0.22842131599705 
0.205501259395074 
0.6782741580936792 
0.04585533903651132 
0.3013567038852135 
-0.1057919607723959 
-0.5321709079635316 
0.6932283654756551 
0.303466699849082 
0.1253149104037427 
0.340948138439978 
-0.03101967016474002 
0.5077969965851348 
-0.231400573735621 
-0.04065305259146569 
-0.09609303250191631 
0.2023591166922987 
-1.073360602461125 
-0.313267226654738 
0.2902796795856554 
-0.21771807637863 
-0.5621287173931997 
-0.4086175400195826 
-0.4445033902267592 
0.1227835077975803 
-0.2860868917973379 
0.296949165295969 
-0.9405767787467283 
-1.102432633602519 
-0.5355195875046732 
0.709585316659883 
-0.5855075598892774 
0.5716029478222383 
-0.02432426573627744 
0.5076254478661326 
0.1217930507471918 
-0.21211191637017 
0.1714554097320182 
-0.4422039936333725 
-0.4367531002324423 
0.4855947550734965 
-0.8895905477721959 
-0.104629441665116 
0.3984673085011836 
-0.1048551969860813 
0.08792168702975635 
-0.3013486003870078 
-0.444239363753583 
0.839710751418867 
-0.03010306858331518 
-0.1088280891866577 
-0.4705098722609481 
-0.03768869961908948 
-0.31971981636298 
0.5773261564008985 
-0.3433718793986255 
0.1410041219980104 
-0.03340227834583404 
0.5663438055716001 
0.5915756658260056 
1.163801539835246 
0.4188058821826207 
0.0385526541233926 
-0.1050946762139158 
0.2884738485292528 
-0.1271175146720699 
0.4291510592977248 
0.2885975516418441 
0.3246736585006401 
-0.4051856524610616 
-0.3844708392636726 
-0.7278615932653962 
0.2817112326548314 
0.4366992252691952 
0.6606338014440959 
0.2519294566747007 
-0.1605402927789971 
-1.180257000654537 
-0.5390016885160483 
0.2114746519861558 
-0.1389617704790878 
-0.4023390345152333 
0.01208299495404246 
0.1843875350357804 
0.189447493739576 
0.2198992446665969 
0.00829408130988267 
0.1581721284444477 
-0.05084928901216373 
0.3175389046320555 
0.2115870745130181 
0.0620119918531868 
-0.4780924380935055 
0.9356113415523656 
0.112778591436301 
0.3991405808418055 
-0.4897652961688926 
0.4773505775780889 
-0.6393356794872491 
0.1682130653075632 
0.1655319180608827 
0.6509053585255106 
0.3705141468695491 
0.692970140825417 
-0.0931485571716083 
0.166540605587725 
-0.3886117864454678 
0.4900177361703679 
-0.008106280184606893 
-0.4493462910630578 
-0.03317348907596769 
0.1149489996798769 
0.008174510658118944 
-0.02797966088170978 
0.1673680506218439 
0.08178888508166245 
0.1231343935969735 
-0.03809375956292738 
0.03086267796057474 
-0.007580759803205092 
-0.03386556498387229 
-0.04123831190899302 
-0.02944454912509813 
-0.2243725024848007 
0.0623284970199799 
-0.5523514442890739 
0.1677425790106988 
-0.285179586053269 
-0.08831156297308417 
0.09536904079750672 
-0.119247505485124 
0.286503175628406 
0.07496381566074387 
-0.02730934824078664 
0.3086163470182049 
-0.09513317882842116 
-0.4885740317204174 
-0.1367770542315969 
0.2083736703449563 
-0.08040636028559942 
-0.2864173208646357 
-0.595057474822821 
-0.01940497905820318 
-0.1920207300713533 
0.7994354885209722 
0.4740263855957955 
-0.008330760670126065 
-0.6191275075936898 
-0.7697941473381459 
-0.8793421413283138 
0.2301636432197391 
-0.5193978711261957 
-0.5108068872113295 
-0.8883899203711452 
-0.4963516420616091 
1.065270876622443 
-0.04484459814566565 
0.1249721061247659 
-0.3194608369069895 
0.1035725055206752 
0.6865305883321154 
0.06459322669659345 
0.0165213278872624 
-0.00839329044686165 
0.168725188395925 
0.1054856699812783 
-0.3267192642590249 
-0.3639741988246122 
0.5511727317716971 
-0.2455023321149297 
-0.4037479254181303 
0.3491943439514473 
-0.2966686540834746 
0.1664353282756065 
0.05788341585615801 
-0.0478045639881846 
0.1691895544864104 
-0.1368131490787555 
0.2976666573890671 
-0.4668246287942724 
-0.1054349833976752 
0.1214050456431366 
-0.176094135809105 
-0.2121013269492344 
-0.03857301742499829 
0.4861049281258812 
-0.9528635664272518 
-0.2704655995880358 
0.1328751968466697 
-0.1322262437998593 
0.07688982292387672 
0.5199933869454999 
0.4323710868089455 
0.2880569223152926 
-0.05801060149142709 
-0.5938771676636319 
-0.4338908715585931 
0.1095085555772542 
0.004224532630836803 
-0.135769245605985 
0.08806219841488881 
-0.02489282047096868 
0.09831962758575383 
-0.3227637188517533 
-0.3584198278177726 
0.1867107193553685 
1.233038975916345 
-0.4002461556195125 
-0.5686446014694072 
-1.413391556768113 
-0.5522935755495036 
-0.84885218593626 
1.548413878699241 
-0.2974671307183915 
-0.3083218576246303 
-0.3682017960120512 
0.5199889785859128 
0.5877473397350108 
0.1804040350745131 
-0.4998139482943024 
0.6651273957894993 
-0.2916096082147857 
-0.010251605979243 
0.4082509923509211 
-0.2091495129385529 
-1.198639768071459 
0.5373251293638637 
0.2566905381488858 
-0.04881850294773311 
1.959779908723499 
-0.9884526396967903 
-0.7675423229547156 
0.698499473814141 
0.0782765301914249 
0.09436329538010298 
0.2050274595646505 
-0.1025446047531254 
-0.4591433008020066 
0.7286242329874928 
0.3823367147492913 
1.149068990962213 
0.2440640539571453 
0.4637226107371302 
-0.9000016215280656 
0.1174022859235018 
0.1197645932980561 
0.2447479060294725 
0.03885410528627527 
-0.5436282368443596 
0.2234854194971068 
0.07768694821756673 
0.220019626246221 
0.008894978674389667 
-0.6094527954021208 
0.4112447327158252 
0.5365254041550763 
0.002971126243115602 
-0.3073016953060311 
0.4726446339484879 
0.01636703436438872 
0.03290312591743659 
-1.066558977582357 
1.22149424151604 
-0.3435042932189893 
-0.04059297968469787 
0.2647997856828637 
0.2352051639274844 
-0.2015453800604131 
-0.3382607910435895 
0.5018336025117192 
0.1168809362160841 
0.6544934985748565 
0.003222756449916916 
0.1468519699477415 
0.1049059331165302 
0.2461888776385374 
0.2456582554134476 
0.2715561109220551 
0.2035896820284266 
0.06492089478598347 
-0.1773370733345113 
0.02352517711945337 
-0.001560209368095636 
0.05667369618519859 
-0.0579266983986645 
-0.5971867467857678 
-0.3732747829261795 
-0.1173683497722852 
0.3415892045548475 
0.04178782645051302 
0.02141091474112312 
0.2044018324320633 
0.9673354669530287 
-1.496721325118539 
0.2343472932443255 
0.8484312049200566 
-0.01127597896857758 
0.3445866704627452 
0.3499475992701252 
-0.6846811245507234 
0.5038933848130789 
0.1162955485363588 
0.7884209723753135 
-0.02734045110121669 
0.1925264694997922 
0.1738092794358061 
-0.0107244106025999 
-0.01104288717089458 
0.01656160937629145 
-0.1538637430422827 
-0.2672289657397802 
0.1939837936242632 
0.1677138137930116 
0.1921243867623735 
-0.01939517929589314 
-0.1134255318159899 
0.4100114241288374 
0.2028579731163771 
0.2088299417122752 
1.086508633577427 
-1.056164901303362 
-0.001417771383592695 
1.107558217865876 
0.1366137764608925 
-1.279888465363533 
0.4794923618989837 
0.7613709697626564 
-0.03144000070792568 
-0.1751525528776341 
-0.1496661454520427 
-0.8262027182725586 
0.2091987089830645 
0.144745731942067 
0.464861589004041 
0.1205697066491674 
0.2108069509076601 
-1.19482644905522 
-0.02694679314631029 
-0.02559949019992538 
-0.02286888638018731 
-0.6085092676713362 
-0.4246305733704078 
0.06702134708331133 
-0.0382250752571402 
0.1191218657760253 
-0.1209957352694886 
-0.1526697281077415 
-0.576046838793029 
-0.01571970213704156 
0.03062027227988731 
-0.4282041329763814 
-0.7937343632483972 
-0.02391816002419117 
-0.1344553570570574 
-0.1650404656304202 
0.2312705053381379 
-0.1606204724444685 
0.1801878850369776 
0.1418945700014617 
0.2797729281528882 
0.285520030300384 
-0.3073600752200906 
-0.5147937317716025 
0.0694339968273909 
-0.4749679813830535 
0.1847693993379655 
0.08805676137806985 
0.7759159146770831 
0.1234785116172465 
0.122052493176197 
0.1796613168284772 
-0.385300425356643 
-0.445016905122813 
0.1640347725533103 
0.8199397661811233 
-0.04998891924372001 
0.9943078098873979 
0.03577192939689981 
-0.4045523294029433 
0.5212052723855126 
-0.4352378100532913 
-0.5517782868066028 
-0.6412797266633202 
-0.0046876109228758 
-0.03746166767624193 
-0.378312750426799 
0.4550524985691022 
-0.1775307020466166 
-0.3284544030828297 
0.07507076231281604 
-0.1126784127336722 
-0.1877566849403546 
-0.08185074712446905 
-0.4290606358152894 
0.02498411894116156 
-0.4217360839405971 
0.1309850520862179 
0.03049377156282181 
0.5434107001009297 
0.05046212116058463 
0.04941158975040778 
0.1364468195840946 
-0.07477631459245566 
-0.1200055696155019 
0.2845947560261054 
-0.1236504749902895 
-0.01366639684902015 
0.2199743720974785 
0.1505726903057376 
-0.7588504307897882 
0.2525994340696165 
-0.12832208838316 
-0.698099698136547 
0.7165622990437552 
0.0495665895090921 
-0.215632379614513 
-0.05995242339586924 
0.2488168201402255 
-0.01862572213646035 
-0.9702929572150185 
-0.214157111071834 
-0.1170380514474954 
-0.3294556599118593 
0.5133094208288708 
-0.2668398645825982 
-0.1453728741098944 
-0.4098285789801592 
-0.06125607061923011 
-0.1967403296867092 
-1.149667940682775 
-0.2387730242236856 
-0.2361303068193714 
-0.1250027339663514 
0.1052369346614519 
-0.06031455357689298 
-0.3060579622743923 
0.2030941669792398 
-0.2881475495409855 
0.1201748687563636 
0.4379293860804917 
0.4797080076442824 
-0.18697067458023 
-1.28033854784031 
0.5169288516023506 
-0.1921081738567509 
0.01897242424208377 
-0.4805129838536563 
0.4502498696435487 
-0.2480172450812387 
-0.2411323315272294 
0.6407730425244624 
-0.02433252327342008 
0.137374686317888 
0.1194693030697969 
0.6934897376693737 
0.0224972058943855 
-0.3960123075730291 
-0.1639221856788264 
-0.4704585722309083 
-0.4632135167950531 
0.173260670096875 
-0.04799106932024732 
-0.0482978711663348 
-0.02410875158625318 
0.6967310284241236 
0.5439911926893308 
-0.2215222101016649 
0.3616610025027134 
-0.09487426232190321 
0.364750712553719 
0.01487420822807767 
-0.622359922319862 
-0.0839423948165727 
0.5291702078007027 
-0.01718178134827927 
0.6494531588605417 
0.01419106640785633 
-0.538321071537029 
0.7031472932802519 
-0.5120571136862963 
-0.05853563955694011 
0.1682709522800929 
-0.09538081216365918 
0.2887704283457043 
-0.09783584807591553 
0.7724387198282983 
0.3608595880961266 
-0.1300917587336164 
0.2127621063947051 
-0.3324133493505776 
-0.1930284034136195 
0.5465616928870962 
-0.09711814609449367 
-0.09764677891887125 
-0.07847205700254987 
-0.3208809426213629 
-0.1125861857409676 
0.4274687581764363 
0.4411727785903391 
0.1632163031723579 
0.4834758600567931 
0.4084197281851527 
0.1998203940132344 
-0.0721968271859349 
-0.7829471420745273 
-0.77116459292911 
0.2064463125589454 
0.003596322872845619 
-0.8750624954517832 
0.3229759198140636 
0.4774677679379949 
-0.5095199570284217 
-0.341787903571946 
-0.202362497909614 
-0.4079109923814711 
0.0976206453694964 
0.01170454035793284 
0.181130512586831 
0.1171816913108596 
0.1845721677366762 
0.07759342622929162 
0.1176643647525814 
-0.5286435725379565 
-0.2442570359734883 
-0.243403114030881 
-0.1747332720859387 
-0.4038663625191385 
-0.942435324336434 
-0.2112046657619017 
0.1655203406781199 
-0.2530605774287757 
-0.0108045760592839 
-0.6283035350702374 
0.02418813739023853 
0.02075562523975651 
0.6634905560338055 
0.1475710352863173 
0.2111114236766873 
0.02388498548765673 
-0.7836019014034745 
0.4966055863943853 
0.03517642997744778 
-0.5896480755579947 
0.9965102379598793 
0.007493298473586956 
0.2203199904003972 
0.1010551531522226 
-0.2370113887909209 
-0.009121664984770253 
-0.07861297992182302 
0.06592528260739026 
-0.1028702894254819 
-0.05452377763109813 
0.09024990991518815 
0.008694551475288921 
0.008451095956794564 
0.02345260173844314 
0.03670878310788195 
-0.5698369571590738 
-0.1854533070743791 
-0.4205015483387197 
1.106259875045158 
-0.619768997243226 
0.5137696076041509 
-0.3207532158188397 
-0.3424753678352318 
-0.6862539355147969 
0.8810606994871778 
-0.6493398546076032 
0.02106125696705842 
0.1456458069691248 
-0.2105680106410424 
-0.4798119962342757 
0.7939655288689356 
-0.120645368322035 
-0.06664319538075736 
0.06407412429358447 
-0.1533793998236481 
0.0676482021959172 
-0.1053200261297013 
-0.1019296009836718 
-0.1665058150385937 
-0.07967140418892971 
-0.1109496598445897 
0.1236645648900579 
-0.0673701779204514 
-0.06775425737198061 
-0.03101084377736164 
0.2386554079885524 
-0.01644412374183278 
-0.2298380721215359 
-0.3388034081232491 
0.5501816561772995 
-0.4780597320681279 
-0.2244178920603497 
0.7466554244995272 
-0.08630116633162954 
-0.1498582617672596 
-0.3221538838368757 
-0.5659131965402185 
0.02867631418949647 
-0.09249052981929125 
-0.7544470467083956 
0.7592833208481212 
0.1730450998823931 
-0.992541191854623 
-0.05037494198068503 
-0.1174908206683826 
0.4253041055869942 
0.05899147838264803 
0.07704566262857419 
-0.2041429786060497 
0.08021490010235291 
-0.280892479539845 
-0.2150382684423503 
-0.12860314793617 
-0.04564110059405109 
-0.04548126830245863 
-0.02492821666922389 
0.05606798368075985 
0.0525490613659132 
-0.05162731475825996 
0.1099955340751293 
-0.2144942042922501 
0.1595309678809784 
0.02116676535543012 
0.1026631574975948 
0.3397140778319597 
-0.4376941966837462 
0.5228976439009283 
0.03221102122885749 
-0.001122648846782072 
-0.7558140693081716 
-0.2783197524026028 
0.5181642369120631 
0.2409708077153977 
-0.4605044466732562 
-0.09734799407738283 
-0.2830861586881664 
-0.2405403335549752 
-0.04076739977718301 
0.177782546614902 
-0.1162407524097489 
0.196709159285263 
-0.2383382858841936 
-0.1145414693952321 
0.3110513356385378 
-0.1209214865568119 
-0.1214514298927816 
-0.1693340569828262 
-0.1712085399910289 
0.1959958337855782 
0.115299000360211 
-0.5790739831664322 
0.7227681019274086 
-0.3545293290950062 
0.04131424441011282 
0.8167478597968419 
-0.9713779754221715 
0.2170032191220053 
-0.06959638697878096 
0.2508663634961617 
0.01535198709905918 
0.6317903481369408 
-0.7934794636581182 
0.04240454360768063 
0.3192852868217236 
0.2872775782093405 
0.01162946640886669 
0.2594744450605385 
-0.09580665543214124 
0.02114802417467494 
0.5764981613233676 
-0.1351884033026697 
0.6085426807335804 
-0.3624381450724596 
-0.1424082109026368 
-0.3998224624824791 
-0.09325183058419587 
-0.09232272848623399 
-0.1207315004168864 
0.2001728758737854 
0.4600870702054853 
0.1052896010724026 
0.4140647017523109 
-0.05674191461614692 
0.4204274954058627 
0.4439525619073111 
-0.00701234007519437 
-0.3503006983548901 
0.1925268145083532 
0.5544747973666053 
-0.9794730248848692 
0.002953012578045982 
-0.08792908254619514 
-0.2582252268388571 
-0.3279697793750458 
0.6279136123304487 
0.4829046305378454 
0.02313263773421149 
-0.09707477359504667 
0.1678506849615835 
0.2197643794063793 
0.2027172249611187 
0.1234970287849464 
0.1297919575375951 
0.08995260544116136 
0.1060399258454974 
0.2122981924524456 
-0.04506030550095056 
-0.04560609310735741 
-0.06993706705719575 
-0.3814959645636422 
-0.270097205052035 
0.08488462223652832 
-0.01345382028780439 
-0.3616747655677115 
0.1563807896652476 
-0.3475634982931845 
0.09408777814767788 
0.1820442568870435 
0.5738909612663697 
-0.2490364909212091 
0.2839908828370402 
-0.0272980606407691 
0.2598365230406253 
-0.8404119504135323 
0.1157822101964297 
0.8081380092698099 
-0.4421174930223223 
-0.1255010428024286 
-0.1961994734916458 
-0.3649673053048175 
0.1393025876046235 
0.09396515186540388 
-0.09745486025433665 
0.02292711425024172 
-0.1323721534014998 
-0.114546767153138 
-0.707895470548258 
-0.1381101873365604 
-0.1368606584521477 
-0.1820518907980082 
-0.09828954913681033 
-0.2249756911877586 
-0.3313995358886138 
0.06343842300560509 
-0.287842808480421 
0.01520110610137494 
-0.09253042453890441 
-0.6609057274422048 
0.6846832542338659 
-0.04627364215163837 
0.3234603152101464 
0.1603691316082701 
-0.02447690948573551 
-0.2386585331321498 
0.1906354303897485 
0.1177975846131808 
-0.5076167132750292 
0.7526336762230439 
-0.1770867922289751 
0.09027024391425241 
0.06818670544610006 
0.2222098098295539 
0.1368197059121486 
-0.1040955160009423 
0.03624378441549311 
-0.1786145912865023 
-0.133135325140095 
-0.07090912570736835 
-0.1766480790638948 
-0.176360297371096 
-0.1944049709114443 
0.1540534177883768 
0.132956566528803 
-0.2137614728195029 
-0.2026495094543079 
0.4740947328178191 
-0.440204451292171 
-0.4049404423353685 
-0.5134531333987075 
-0.7951625851109811 
-0.02635305209437513 
-1.061491760761198 
1.335144752944188 
-0.04895825811527187 
-0.6364958552521736 
0.4819567695680363 
0.1325141118314115 
-0.282534933215716 
-0.4636646259209529 
-0.06250799168433092 
-0.1439061534212545 
0.1300136570133202 
0.331239979268038 
0.1782616578430462 
-0.05421044179309058 
0.08399288435668532 
-0.141750668768919 
-0.08720877502443891 
0.4921444878710478 
-0.0702156277370036 
-0.07086741837263882 
-0.06924303656302772 
0.06659433695713178 
0.6780984996023169 
0.2836967790456002 
0.2621347052863379 
0.08945661467350331 
0.1850614239562456 
-0.04292558366672145 
0.7547065483163325 
-0.1400754740347869 
0.806466411638139 
-0.3483791239822234 
1.666488333571477 
-0.02456783626504249 
-1.196492038239404 
1.154931740454961 
-0.04866653352017539 
-0.5172405187380389 
-0.6892462451270573 
-0.0791597863420319 
0.1613010673347944 
-0.3823849510792021 
0.3052599469671082 
0.04421047764981999 
-0.1959764603366068 
-0.07177174719726738 
-0.2817203179875523 
-0.2340300941795855 
-0.3856120983166899 
-0.095526582661589 
-0.0949745370255223 
-0.09321580148113442 
-0.2670459088527213 
0.343318562927697 
-0.3706148980410749 
-0.4184212416885212 
-0.3285545201558605 
-0.222655333389208 
0.1583247767737695 
0.3255954148433502 
0.05339576183126323 
-0.5573315366824341 
0.1146294361385146 
-0.2923892192838235 
-0.02524981991790048 
-0.5153418801440195 
0.7347623426543255 
-0.2261798017432163 
-0.5864242759525909 
0.5833265815275431 
-0.1508829099206389 
0.03037482114723138 
-0.08955543611248329 
-0.601000607448903 
-0.111680438515377 
-0.1735207401094963 
0.117453067972219 
-0.1936292713417473 
-0.1237655761521187 
1.021923166974106 
-0.1590899921994733 
-0.1613415798371625 
-0.1477055065964685 
-0.06278823410907239 
0.04974205847125709 
0.08142991556092777 
0.4147710129381338 
-0.02070988114906777 
0.2571091506740026 
0.2232383370732694 
-0.2318406214622736 
0.3703512221001939 
0.4881710998628859 
0.01760859355866145 
-0.3223158257639934 
-0.05484912408478861 
0.6455426921672889 
-1.02520432236149 
0.2666221217011926 
0.5884545957445408 
-0.292881096725476 
-0.02479286322411198 
-0.1531058172434494 
0.3240026333039134 
-0.4756466498928464 
0.3999506518274579 
0.1399503480322171 
0.635422330419962 
0.0001883744419242904 
0.1837059214404443 
-0.6379311672231637 
-0.01982245899151163 
-0.01838565516811895 
0.02551336107842848 
0.3756045441855295 
-0.4704494949791844 
-0.1155936509876445 
0.1636150900979377 
0.01446694109178706 
0.0660777319800675 
-0.5460392291174078 
0.2045006057439942 
-0.3470836677699444 
1.125922990952932 
-0.2888674662841039 
0.4619800465405616 
-0.04003748597643306 
-0.219505767586665 
-0.4733001472315492 
0.2022276871761509 
0.2559421341209998 
0.7144616370924028 
-0.02767302472813811 
-0.03813021475341108 
0.1201360739727114 
0.7672938307733472 
0.3249708688070507 
-0.09074250050278307 
0.2123884902102605 
-0.2659148520006754 
-0.1475222141388991 
-0.3318871357035449 
-0.01973443467992518 
-0.01923024857767149 
-0.00486935557328253 
0.5542331845537416 
0.1814007787333852 
0.6097123445959647 
0.2505369118542705 
0.3782062648878733 
0.1789042221189631 
0.8156013918095911 
-0.270602705140137 
-0.9696540890683782 
0.7098452579544341 
0.1386372158706428 
1.02893592921365 
-0.01493306763795234 
0.2780367381425748 
-0.01644257560447872 
-0.3361485593651346 
-0.1957173989810264 
1.174933050677853 
-0.06218695962867098 
-0.05176090123177567 
-0.1008074397841078 
1.017728613110796 
0.009638639286431654 
-0.3035764539551825 
-0.2497453937002575 
-0.4316518604524477 
-0.3858926756164232 
2.20990991838244 
-0.05504362182338704 
-0.05857419952817153 
-0.0493869644593138 
0.4382447287741657 
0.5698774695983906 
-0.06577234137261788 
-0.7758723287164915 
0.2425522555920362 
-0.89069593912365 
0.1083870796849507 
0.4171681686714563 
-0.4681589999962126 
-0.05491343631532044 
-0.3745371278060601 
-0.7192265003233361 
-0.01236669149431546 
1.06539039686742 
-0.2491605103586325 
-0.4945725931629094 
0.08365279670863213 
0.01190465367290108 
-0.00281019056934055 
-0.2748997227041237 
0.05826629581583362 
0.04971433706759627 
-0.1716949162682604 
-0.1037183789311523 
-0.2076852646169981 
-0.07775594562731218 
-0.1101622343323017 
-1.80371225132405 
-0.00315342411301916 
0.001482021379501484 
0.02114217438807222 
-0.03005203399357145 
0.612608956445692 
0.170540581770978 
-0.231704527247487 
0.2125369239354896 
-0.2565534186138807 
-0.09541968394206846 
-0.6294706997911698 
0.2966928124645153 
0.1064279938255849 
-0.1563537814669589 
0.168618560887863 
-0.01346025061396257 
-0.1816737067791892 
0.4512048387610945 
-0.4085495926484035 
0.07503939077124963 
-0.5133926992087897 
0.2190555130463006 
0.09201882483359392 
-0.2048566185345506 
0.08203099229045825 
-0.1590436546538754 
-0.4190224160415874 
-0.2916265104674122 
-0.347128646819826 
-0.4505279155988345 
0.1481931794811967 
0.1042366730512321 
0.08737243077496987 
-0.1362350077826796 
-0.146792423688996 
0.1747581456376089 
0.417918028629962 
-0.2246171978411339 
0.2166518781214472 
-0.2457769440635603 
-0.04477616434202236 
0.4241700074640582 
-0.4825102608296005 
0.6085055500814343 
-0.9704717116026441 
-0.3489407819685749 
-0.3242171947850068 
-0.04238595449875465 
-0.01151815091287618 
0.2274605309815809 
-0.5663590727683547 
-0.496826592423261 
0.4362764771771299 
0.2488868158426827 
0.03669725310736497 
-0.5290870411871545 
-0.2354805972145348 
0.1565176236891021 
-0.1482355747680347 
0.4797783218313105 
0.2133448477375602 
-0.002963669188207814 
0.3349078068209049 
0.3350002534618248 
0.3917324326877859 
0.1054598390806822 
0.04484600585178852 
0.3023779606517181 
0.1872669238067222 
0.2705265169335732 
0.1649624019754604 
0.2876079790602492 
-0.6489011592774596 
0.04031221176061124 
0.2338189503886936 
-0.4509787757579898 
0.4542586860376873 
-0.04497835624041809 
0.1665938280827384 
-0.08462367812667081 
0.0324309560734977 
-0.1028605397939673 
-0.2795653400586069 
-0.4888157397455074 
-0.04788220686296442 
0.03848253057255313 
-0.006555615356859182 
0.1287776500951711 
0.03560229353017724 
0.1530486298296385 
-0.09149487843375882 
0.04566727285392783 
0.285337580640571 
-0.2873683946532163 
-0.4974309593123208 
0.8611761310342348 
0.3120251838726713 
0.5588670741214005 
-0.04097494538044186 
0.126401396849735 
-0.2390305331816445 
0.5614644457480138 
-0.06372420979514219 
-0.2984623162448996 
0.1600821638392994 
-0.2050045730940838 
-0.8812286954845818 
0.7146003197816517 
0.4071839098839516 
0.7448293066783065 
0.3089859358130712 
-0.3592743615830483 
-0.5625122109550883 
-0.2256292398291153 
-0.3530952488281004 
0.08186646427621659 
0.03431762040826056 
1.010975165604383 
0.5898583377198703 
0.2339863274250853 
-0.4612371466084165 
-0.3529823243930791 
-0.7519174840083358 
0.2156300667757167 
0.2299130397324296 
0.05888206874389978 
0.1963931603486788 
0.07403435773064154 
-0.05678006960371425 
-0.08999218179470407 
-0.4293571097175972 
0.2738866647830994 
-0.4267577092749103 
-0.01927649034647756 
0.3591866963753548 
0.05116755540244934 
-0.5892515518447354 
-0.6812106413953591 
0.3864815927930705 
0.4119450633807537 
-0.4186737459286474 
-0.158639847899727 
-0.01626001585101992 
0.6831248646240753 
0.1941296316480819 
-0.2279696390618955 
0.1575805205388168 
0.1278692959946649 
0.014840872124079 
-0.2309147510661086 
-0.07768579468516662 
-0.2896460716811623 
0.1548274546737362 
-0.1009091366306313 
-0.1999613092793229 
-0.1357701166081255 
0.0319273657341979 
0.1028539685208744 
0.3468351785755383 
0.05592161026787792 
-0.3837788239030199 
-0.4109023621919085 
0.3011430373581942 
-0.6310965490767342 
0.0174953133022764 
0.3640523962019584 
-0.003217050362939955 
-0.999894511507158 
-0.1576038036381142 
-0.2003923149956329 
0.07443723055591399 
0.1068489816067816 
-0.09999599710804533 
0.1568075289254537 
0.1203748030398568 
-0.4926209297905139 
-0.3044718844392455 
-0.2131594249161456 
-0.02565232012588616 
-0.2675602413916607 
-0.03494968187665231 
-0.1642844624874214 
0.2672756977429083 
-0.1740328999803673 
0.08475824751624883 
0.1583903973096658 
-0.06953352736038503 
-0.2051807134391664 
0.7923619668207562 
0.3291987119884598 
-0.3906667336759504 
0.3373124743858152 
0.3686246619810295 
0.05152378313399891 
0.4328772954345189 
-0.01988393643524179 
0.5545404156205304 
-0.3191886086633713 
0.02673995354137146 
-0.1059113330763438 
0.08875128658659959 
0.5625948277436333 
0.2730768717849397 
-0.532540704299 
0.5050857031052527 
-0.001476121619497991 
-0.1412280651335748 
0.3197434047743456 
0.3586946737118453 
0.1610041003131994 
0.0975949543728135 
0.2876677681714744 
0.3897167686050056 
0.468526677664191 
0.2809731800257951 
0.4713118456841411 
0.5029651569414797 
0.4928324797837613 
0.3997637731416658 
0.645726743446446 
0.3192115267425358 
0.4301111493775156 
-0.4284054614287731 
-0.427131863047713 
-0.1299707340358999 
-0.2769634061492115 
0.4163266748744411 
0.4094590470551533 
-0.9217744459443529 
-0.4572119655300981 
-0.1068599509825608 
-0.7274579746290172 
0.07885030213784178 
0.3708758856349555 
-0.7395569347119151 
0.2972146167616708 
0.2009085990821912 
0.07012265850155536 
-0.1967192289216816 
-0.04149286996493824 
-0.09489986812380483 
-0.03583106202855479 
0.1651656147341206 
0.4238052600764478 
0.2312432158163464 
0.3071642916690202 
0.502081043408205 
0.03592787345887947 
-0.2046967162553513 
-0.2280192616791296 
0.5523699967634452 
0.654059959818337 
0.08236347201107982 
-0.3090470100789336 
0.1773512026354226 
-0.1004513407432331 
0.1952962417505109 
0.369617508456633 
-0.5175439900540942 
0.2046730193215097 
0.2938895162577043 
0.724819406006091 
-0.9919900268953473 
0.3581143679535285 
0.00705255767706784 
0.1868521334804684 
-0.4331280185569751 
-0.2651765160137666 
0.949953571767018 
0.4484393568272667 
0.04825973945108737 
0.2352275419301097 
-0.9676472503701704 
-0.468144995219423 
-0.3362421473360372 
0.7360711993010657 
0.2014723641435191 
0.7502919582706524 
-1.650470202500108 
-1.134855674094657 
0.6209370859290303 
1.415402499969606 
-1.286934518566594 
-0.3585011733951895 
-0.4039182396789069 
-0.1605250926237702 
-0.3559983746899039 
0.02296408772302152 
-0.580939167186567 
0.6176429884664282 
-0.5617595466115998 
0.242043060724134 
-0.1709372012881689 
0.01786060912698813 
0.6850481024109175 
0.3668375607080205 
-0.3896393273340852 
0.1582289217809541 
-0.04635091722871555 
0.03723913587949194 
-0.06428893601081719 
0.089681125291364 
0.1195308762668572 
0.8401428922209628 
0.05531942680472787 
-0.2102174020040113 
-0.6878157267841529 
-0.3050013716840556 
-0.8559186920340885 
1.093165588599386 
0.1034024267917309 
-0.2427237645815549 
-0.05980324604881179 
-0.1283194636379026 
0.3820549559748225 
0.1353302132922179 
-0.4900869518434975 
0.2519094075245796 
-0.2315895920886769 
0.1486580772987051 
0.02588266596193441 
0.4407882066700756 
0.1629025167041643 
-0.04331515726145434 
-0.4413258021605417 
0.01582118430474898 
0.1384666798148311 
-0.2759368085128664 
-0.4529226966032915 
0.3337166262678795 
0.6283645751202034 
0.4716118226674271 
0.2666073041553501 
0.1753491109159499 
-0.0766138066526897 
-0.222843787307173 
0.0492805664604624 
-0.3726955607298998 
0.4326332673850096 
0.2058604739804477 
-0.507020249851428 
0.6813563781303403 
0.8872755254474354 
0.4574527924824445 
0.01480462100220849 
0.3456103166658793 
-0.2320021845712874 
-0.005210841459023147 
-0.2127890939022596 
-0.0008492131391440311 
-0.3005620991126483 
-0.06750832817845562 
-0.5947878575051885 
0.09112324527471416 
-0.3592219394883129 
0.3522361136834599 
-0.04542783358391371 
-0.1893709395291434 
0.04948098727356448 
-0.1355462369927561 
-0.2693597278948457 
-0.6448112551928712 
-0.3172777994046987 
-0.1427416418729575 
-0.1663452020523895 
-0.177124324271918 
-0.2216750023093028 
-0.2252578903485281 
-0.08954701358702996 
-0.2272850730718706 
-0.2514661782663341 
0.0686863358683128 
0.1816311707890979 
0.1722352981396532 
0.09566033566419208 
0.790703130385109 
0.329643789632701 
0.0250806836827648 
0.1709228920444981 
-0.1089896990376877 
0.249870340465492 
0.5780099746278772 
0.2633746092835678 
0.05848067425341645 
0.7916625270983828 
-0.06966047606496698 
1.007642902912276 
-0.1909363395393441 
0.2032236505412375 
0.0277283184898293 
-0.2763404533469208 
-0.01102859573288316 
0.2298808887675081 
-0.3585131031349257 
-0.07477746497059293 
0.09112613354202097 
0.5465114058004317 
0.2228731584557677 
-0.1205835033885326 
-0.4419672646606163 
-0.4956130259284673 
-0.6867084318150335 
0.1192992940948541 
-0.5654414179468846 
-0.3607742233502355 
-0.3305695184731369 
0.465635265964279 
-0.01521255126351924 
-0.2557565808769795 
0.1055566288619802 
-0.6075559583066032 
-0.03594529818156697 
0.2663227182697661 
0.452546752586918 
0.1504632151232199 
-0.04798816281231184 
-0.1006385441763021 
0.1797317998437224 
-0.1248724550739512 
0.5960048503099702 
0.5024647636215507 
-0.76774850348892 
-0.1526719228452512 
-0.2144367165811052 
-0.375613197075996 
-0.01613283510776997 
-0.01441511225917025 
0.03818167517420928 
-0.3775498311681832 
-0.06963412084758813 
-0.5610809962333498 
0.3698482997456271 
-0.129579438761053 
0.1227826170089364 
-0.4218064867792256 
-0.4869642916509801 
0.08310836371038485 
0.7077159043534595 
0.336205109256094 
-0.2355372335906344 
-0.3071616513982571 
-0.2718789818716311 
-0.07899406576881242 
-0.300982740182103 
0.8715805000287611 
-0.4164892467207831 
-0.06612500752540763 
0.9140599591101282 
-0.4645373855831507 
0.5005563395784247 
0.2300673591602771 
-0.04734505830025704 
0.06956943339422222 
0.001984852941700199 
-0.4527155742240093 
1.377352548570401 
0.5643361394102479 
-0.1395291936852338 
0.2292013285574375 
0.2237468293510313 
0.5261666773883923 
0.09770770009537001 
0.4951305941930422 
0.4543756572631433 
0.2261938737977217 
1.392107064041622 
1.355443149256377 
0.9910862418011256 
-0.1713513000500879 
-0.3336047406385356 
0.1120113606140365 
0.08730471992893313 
0.2566119056956552 
-0.01046097309090812 
0.1042481055430638 
0.09311399435918458 
-0.180140146853795 
-0.08417497562089341 
-0.6743500422809069 
0.02555258427961285 
0.02814486220243615 
0.5561637046837486 
-0.6995930132339441 
0.3708959490840162 
-0.1451468571416559 
-0.5558846984642666 
0.7224640919119704 
-0.06179446373937948 
-0.04333754819338753 
0.2694390028990911 
0.1932217077677117 
0.4529552719164909 
-0.1058365355030873 
0.4751556610016308 
0.2225121657035914 
0.1946506591491079 
0.883791208193044 
0.6503346224329661 
1.165541306257948 
-0.08935453489218474 
0.477689675072869 
-0.3942347414759382 
-0.3099464929202568 
0.4147513405724709 
-0.2493040152414422 
-0.2549110742971963 
0.5346087307122942 
-0.2093437049474458 
0.03154117040802892 
-0.08580092357367122 
-0.1376345194147527 
-0.479669834921755 
0.4945015740288532 
0.6505620443735878 
-0.6438612890362425 
-0.2475221505455125 
0.1034086577319269 
0.3446842986986559 
0.1681474260250659 
-0.02869664211941488 
-0.4871314463619845 
-0.4749208013171684 
-0.2201460575047861 
0.01275904683657154 
0.3161374916382709 
0.3042857276567581 
-0.6152886521955606 
-0.3424031423452327 
0.1694638541356066 
0.03415904864710445 
-0.786700857708731 
-0.2136586972300463 
-0.809103718013553 
0.1863112227507026 
0.006888959837011696 
-0.1886273443686689 
0.3397557705041786 
0.5965393421684571 
-0.504931775960088 
-0.3419131081587031 
0.3197837202036705 
0.5695304392662041 
-1.07122831969072 
0.1727639188397611 
0.2445001003355247 
-0.2757536481366514 
0.39029810538594 
0.3964810598144139 
-0.02913112604943094 
-0.08375577183387585 
0.04829235618799179 
-0.7621735208511977 
-0.9833596381248686 
-1.093419891702129 
-0.3415874484512811 
-0.2640239660264254 
-0.4779028342229834 
-0.159767055625567 
-0.5295006004745847 
-0.396304437416362 
-1.284613202185624 
-0.08132717077733262 
-0.2129980245039491 
0.3733736351108536 
-0.2678211043699141 
-0.04041685961148993 
-0.01995265460863399 
1.066036347011164 
-0.7701621225399355 
-0.1078975875924909 
0.162756476174054 
-0.8010317753040096 
0.1888251174158303 
-0.692633148640008 
0.1683608724416733 
-0.5485147520837153 
-0.2293738637729988 
-0.4417746760471926 
-0.3869680142839722 
0.0897513676968098 
0.2525718894336748 
-0.0102732295522598 
-0.2953683735835152 
0.04299272712059327 
-0.3490069081075708 
0.5752449359270675 
-0.775847704043602 
-0.09704418756391174 
0.5731050367336398 
0.4330420777098671 
-0.06555928119065886 
-0.1058336382385437 
-0.1365936494631537 
-0.2522944706511776 
0.2743663202296661 
0.4540157721682154 
0.3800325390603426 
0.07289544181388979 
-0.1810435732780415 
-0.09049581069724931 
-0.1299382458441169 
0.5047853566255762 
-0.02093522744264031 
-0.3503698618638627 
-0.0142586029414151 
0.4747255755254048 
-0.06279909006688203 
-0.6452080720265339 
0.6526497924356602 
0.3304431611544021 
-0.2661929094329748 
0.0002257555837215349 
0.0971719290790849 
0.2418926210400658 
0.2602415448059457 
0.2670652146520834 
0.02087119588791131 
0.03994719828300297 
0.04949626757143959 
0.2909207804818855 
0.0147975062944475 
-0.2596228017153542 
0.1922003986165501 
-0.4575161528186729 
-0.2629562243090717 
-0.4459423400448578 
-0.1278562161283481 
0.4769330899840077 
-0.1578292095459781 
0.09599516333873219 
-0.1670511656437595 
-0.5001452209652424 
0.1715472629774783 
0.3292638639131105 
-0.2641352610210327 
-0.6322669596581431 
0.5043948950986921 
-0.4513570439790515 
-0.2068996697649715 
-0.2643244711672774 
0.3046947954754474 
-0.1130391731740647 
0.03220682734875926 
0.1981281560403164 
0.1879375625594046 
0.05124246045921529 
-0.01197820625980129 
-0.3388676675506018 
-0.158226337436486 
-0.3648605906247316 
-0.2905340860363401 
-0.1725605345034825 
0.08792297483622749 
-0.103628416848606 
-0.5942756956279662 
-0.1575887876153297 
0.223327055953347 
0.4282262814477575 
0.7253800350648216 
0.2357981118935711 
-0.3801271829709416 
-0.1442610212937874 
0.4550211854003338 
-0.158981566560718 
-0.6527733161134374 
-0.5349816860044294 
0.7509668018485398 
-0.5786919636740409 
-0.1458185951085453 
-0.01851380883021522 
0.1396451959931241 
0.2959295761197771 
-0.7872450936706384 
0.1091091172509723 
-0.03581315977664405 
-0.8043067431043839 
-0.6189317440933565 
-0.8906461391402665 
0.3672977756517199 
-0.6819056915957911 
-0.1096749598678018 
0.5494236304790152 
-0.7957303128377112 
-1.166282076846662 
-0.7090729558277177 
0.1559623165780651 
-0.03791766833550768 
-0.2124109410721042 
0.2720724374709763 
0.2720992995420534 
0.2648508835924874 
0.905420363082835 
-0.4891213730800141 
-0.3147483045551484 
0.769864393645625 
0.6233031911300679 
0.401732236809547 
0.2019981993488216 
0.4988715472533138 
-0.7591204873587171 
-0.147745393277812 
0.227581786772185 
-0.01735547889970199 
0.08065328953732309 
0.1633282639115108 
0.1295441342176592 
-1.282580662700185 
-1.049163996194925 
-0.932048450499169 
0.5021004099864054 
0.1450485721023714 
0.4861560861228402 
-1.615115548374934 
-1.849927324090189 
-0.06344503881536102 
0.2101852569279163 
-1.604485617569649 
0.3863114969910624 
0.1396399924098682 
-0.2891111427611265 
0.06575172742978222 
-0.00819787895857845 
0.07318653877222564 
-0.1406154482568119 
-0.4504070763670738 
-0.3950270803014588 
0.323668025544035 
-0.6685714496904986 
-0.3114842362828755 
-0.170957607956396 
-0.3603559510218882 
0.6469713059942266 
-0.3016350771676443 
-0.5514737612731498 
-0.09566620750276521 
0.111336048898913 
0.1070609804246978 
1.484091287886522 
1.390366464893865 
1.274648973090519 
-0.09704831372906909 
0.03859906636188642 
-0.03014486748714792 
1.018705843536028 
0.5916621116014925 
-0.1831607406017182 
-0.8184549281698911 
0.6200194774301662 
0.6037883243419769 
0.09910831706774553 
-0.4843735169444587 
0.09775384680233032 
-0.1251521364429886 
0.4530577302986836 
-0.1076440464124682 
-0.01562439887137247 
0.08158712444510152 
-0.5538489840405181 
-0.2211824841717138 
0.382167673881732 
0.5458503748077239 
-0.2525028790304265 
0.1514633209487469 
-0.546725048462364 
-0.3470370598977756 
-0.0007280288571189647 
-0.1377887110632245 
-0.004424712681484565 
-0.8190611616215236 
-0.8494579902604489 
-0.8615502970112097 
0.07009587084452443 
0.09604787784768665 
0.1251641187227519 
-0.4754866638747896 
-0.4434851285048847 
-0.02935561227481338 
-0.1913222265784111 
0.4253600250809958 
0.1294052383917305 
0.06990681621171389 
-0.297369490643626 
-0.419869182476844 
0.004917410660967084 
0.3382036510918993 
0.05594147218547235 
0.3772638068162202 
0.3044430643478962 
-0.08958815026269286 
-0.7747442047207992 
-0.4785717313698455 
0.9376113708184499 
-0.06011396443392339 
-0.3389221197811468 
-0.3553785629554858 
-0.6708564717324019 
-0.02065083830102906 
0.1169660669759393 
-0.04819284613273732 
-0.7106627407938743 
-0.5472515711855219 
-0.4834028144363248 
0.2976753156158631 
0.0721240386514041 
0.265047632287806 
-1.27244654928722 
-0.8905199856937607 
-0.08523240558552451 
0.3568677165890741 
-0.3625821296617673 
0.02609751880512167 
-0.2732520406848958 
0.3469233481954854 
-1.152636269436917 
0.3934381634715266 
-0.559441472808194 
0.3771170467593848 
-0.5127507005366984 
-0.7351196908290109 
0.3149252869368863 
0.4522752601613022 
-0.7287472169668939 
1.146422707432092 
-0.05624600153894738 
-0.292422377079163 
-0.9119005810534276 
-0.8673536516429587 
0.5190622249106429 
-0.1563738112799173 
-0.07328192597432785 
0.3324111850997794 
0.3263262034194662 
0.5740154810250728 
-0.07095348162277307 
0.6994952541981263 
0.3276502806639125 
0.08970325608818944 
0.6500164153824139 
0.5023439754282186 
0.5950915801922624 
-0.6129128880456849 
0.5485807619359901 
0.05069950711404796 
0.5103338638484683 
-0.8199753714712268 
0.3413343084040585 
-0.05613366122118602 
0.3568069390645553 
-0.2650237541873018 
-0.02528250103335228 
0.09918495020494623 
-0.2178335766880161 
-0.4877612961914238 
0.1458256253796028 
-0.4213319710352674 
0.03437397276015713 
-0.4540252759584068 
-0.3514320897189473 
0.04148424636788373 
0.0891260719487907 
-0.3147936733816869 
-0.6248847743292333 
-0.3276865165302867 
-0.5860697760655359 
0.6502493532885444 
-0.4861709352445367 
0.06615730889802995 
-0.4308642771682067 
-0.1795375211299399 
0.2239719751979744 
0.8197060863734427 
-0.1641258414917292 
0.2584067526287372 
-0.3475322352576421 
0.489627076793103 
-0.5475297948580564 
0.3764021028564456 
-0.340569356804363 
-0.0106285731266311 
-0.5478698539983602 
0.1506047011473181 
-0.1705380460277649 
-0.1761000120408032 
0.3064279179456734 
0.4720812066085657 
-0.06201463002055117 
-0.3227544347528297 
-0.6362887170807026 
-0.4821996630523034 
0.473394553031644 
0.0277778067762508 
-0.3285887883278239 
-0.1708012356868943 
-0.1983930844155747 
-0.1479314531497085 
-0.06804770469502153 
0.07943116420373786 
0.01283132866295057 
0.7183115596791572 
1.654320423331153 
1.013775665251695 
0.9787873135647203 
0.07637110048538762 
0.03923217806783097 
-0.3186337952081971 
-0.4134276569662145 
-0.7198435430825871 
-0.1727966890820833 
0.02327337285751235 
-0.358296394805202 
-0.6574090930602229 
0.5618629582121673 
0.7562671561653541 
0.1117461783338496 
0.333084598061031 
0.6584742529176408 
-0.06141356477271984 
0.3502935177794542 
-0.5052931091524837 
-1.229428166320327 
-0.2762571677121651 
0.2436673930684915 
-0.2101063992514434 
0.2747801006213895 
-0.2428230011182781 
-0.9356396862515535 
-0.5002352439654477 
-0.8153104326033968 
-0.7814376645173428 
0.3427819975221783 
-0.1693129029883045 
-0.2535878788866268 
-0.2966445437350502 
1.264489865868572 
0.6132297231376072 
0.01656923477376017 
-0.08982260656707305 
0.1135168367314231 
0.04607586578438248 
-0.05010309835054982 
0.6090317118533428 
-0.2711832255320335 
0.2871278525282718 
-0.4669151422532474 
0.4738925648019426 
-0.03203912830544273 
0.3833095001828678 
0.1988527130911469 
-0.4095055941366235 
0.02439266169047952 
0.3742994956635337 
0.07300042847484536 
-0.201441944718558 
-0.02338629494661508 
-0.1292885451620919 
-0.2293745629757931 
0.07841126413868937 
-0.03006131452549518 
0.2766679383183962 
0.1147037705646145 
-0.1120615407063466 
0.1082592010462111 
0.08577172823858852 
0.2191351340683697 
-0.3172313077577035 
-0.6487058004120536 
-0.01090560317421266 
-0.061709033799312 
0.06083096210142186 
-0.1507939819591191 
0.2221395506551178 
-0.309059185125742 
-0.2216155302564913 
-0.2084200419036447 
0.2119763070669003 
0.1290060667276994 
0.04889709447231761 
0.1363945450470258 
-0.08166436159845832 
-0.3631489936476067 
0.09733877641001538 
0.407970978862005 
0.2799281286031173 
-0.2024560836757089 
-0.2329260712692721 
-0.2672990541698559 
0.06428101162009256 
0.2519931646977772 
0.275974526732944 
0.2590646576885441 
0.3341640571643559 
-0.3193738404161087 
0.245603571192172 
0.2517153765152847 
0.2877600830338936 
-0.8414569866445222 
-0.2828263388404857 
-0.08419380080708912 
-0.1527217913937599 
-0.006558595521234003 
-0.05409155773014711 
0.3861206916534057 
0.08847746379522001 
0.1243069090465042 
-0.1358273432198837 
0.1881244563035605 
-0.4060841072929571 
0.04667226022013105 
-0.2202849302775004 
0.1281864659405617 
0.08157778241318661 
-0.2539703259707636 
-0.2475592790342593 
0.0235103270589051 
-0.2578734096309933 
0.1459874176010146 
-0.04627256431354516 
0.1543165351647165 
-0.2261439065705017 
0.0678293397637946 
-0.317583389279175 
-0.1025778191416675 
-0.05001448662699558 
0.06210965251814667 
0.0321327245104083 
0.01840986215883007 
0.3922224223523728 
-0.006742537007261601 
-0.165004186946439 
-0.04985713789316658 
0.01298966210186868 
0.0619042807847854 
-0.4310768838137992 
0.0794151187212627 
-0.3994047695316617 
0.1397678156558847 
-0.5234129117714176 
-0.2753221031339033 
0.003482953198013338 
0.3379372728731734 
-0.3517632404696123 
-0.03644178098694259 
0.07091422345573586 
-0.03530143421102325 
-0.02536862006695823 
0.07147229917071932 
0.1564025305202262 
-0.1455021652711347 
-0.1792116500595682 
-0.1169763872458523 
0.0508581439127905 
-0.03197324454064179 
0.02251499883313097 
0.01440600097345791 
0.01859157523192968 
-0.02219737310199317 
-0.04662037625489519 
0.0957719492570023 
-0.114058221703797 
0.09985385213948327 
-0.1348792726099211 
0.01915084984344979 
0.2016758423820696 
0.4563091005069494 
-0.1282680933466323 
0.4294122133852847 
0.2990577961256404 
0.3463323916756558 
0.8750716492140902 
-0.02056908060137158 
-0.4434462673346079 
0.03469750442594004 
0.06829798059040768 
-0.07597030615493637 
-0.06854611694290802 
0.1520239714887136 
0.3183171161957029 
-0.1200224814563273 
-0.2165080744789065 
0.1761383254276291 
-0.09898459744945849 
0.2141376443662884 
-0.1866050625131458 
0.1184524021204788 
-0.1223001859800328 
0.1650600150252916 
0.1226118882267887 
0.1974321739673648 
0.2413994060004329 
-0.08387354315535674 
0.2229270531750505 
-0.3694988631444581 
0.04558853539646389 
0.3718076857777087 
-0.4793013034973937 
0.01935896841297863 
0.7297515694314543 
-0.201360611770422 
0.05360829642621685 
-0.001645615543029819 
0.04716471966283615 
-0.4206442310537456 
-0.03946493352549286 
0.1062193892346157 
-0.2711086247627506 
-0.02990773617921172 
0.114765069190972 
-0.1463341145874591 
0.06763879350243274 
-0.2674679654410199 
-0.01323512008103749 
-0.1886922462160137 
0.2367262255259969 
-0.2034058517011771 
0.1300757556418451 
-0.0766299678402893 
0.1286820906301714 
0.08234921680337276 
0.1612537872356963 
1.000017033253309 
0.4166441295322658 
-0.05431399167019121 
-0.08529682618951491 
-0.05315958390107897 
0.1176250638112817 
0.1418887494510518 
-0.01389015017960012 
0.3525646357187435 
0.2361841206742054 
-0.3114456288707778 
0.1506196470631954 
0.08048338943888182 
-0.05836755003869915 
0.02395752529297717 
-0.1629299870584742 
-0.08930296834360132 
0.08451840572711546 
-0.113609512183613 
-0.2842628669483597 
0.2380535629842783 
-0.3307385975608227 
0.003665704316877089 
0.04902365070698624 
0.2893275597112742 
0.04801117342812575 
0.1935605238964437 
0.1812624726320224 
-0.07625870843919692 
-0.1450464055013706 
-0.04211158764547265 
-0.09047143370760673 
-0.1072407917683445 
-0.1876903631336826 
-0.03213056221208723 
-0.02359296730168644 
-0.009996030821847704 
0.1251867460148904 
0.1046089604911161 
-0.5243055498069988 
-0.2180676520093963 
-0.1542450856067084 
-0.6939396183418607 
-0.009443485268903392 
-0.6433548009396415 
-0.2250978694966466 
0.3475963696723834 
-0.07503040561813447 
-0.3589514959225465 
0.07552061413519548 
-0.06441926445484224 
-0.03874933004532968 
0.07497098732256909 
-0.02670894207702369 
0.04074181660051936 
-0.1375103974787807 
0.04653770440028111 
-0.06196132997724181 
-0.1453631416733291 
0.03898762534069026 
0.06019251877276191 
0.07131644025890585 
-0.8885126259206493 
-0.1607306130783814 
-0.09243535510741477 
-0.07174520720862207 
-0.1695448175716224 
0.09767155820491941 
0.5044123728567472 
-0.2544715170974676 
-0.9213734985615093 
-0.005061302142657625 
0.4692629525000126 
-0.7199259717124834 
0.02056771667812625 
-0.3755788743262878 
-0.08375950299209797 
0.2885503753935126 
-0.3237368513615994 
0.02889356293333716 
-0.02403085019470779 
-0.3662983253561649 
-0.1687260956981993 
-0.1979038260241365 
-0.1396518112332937 
0.03114945752109484 
0.1200560275232211 
0.06963836484533908 
0.1151285263769959 
-0.05987040062200356 
-0.05607772962944581 
-0.03084727707822186 
-0.02067122678634539 
-0.4955269660256406 
0.5514162615105389 
-0.0176917437030366 
-0.07889043664715571 
-0.4255260580371654 
0.2452055805192327 
-0.2833446418659074 
-0.01484620902853005 
0.5364926791662433 
-0.2674331444455396 
0.1319210348329075 
-0.0490058929941654 
0.006529260174487812 
-0.5248919875388051 
0.003635768052594374 
0.3530068615036391 
-0.09152111508434878 
-0.6000693563230683 
-0.135413212859248 
0.2620727975761281 
0.09104908495406469 
-0.1936502517203821 
-0.1916229955860634 
0.2433123744524388 
0.08744326410446204 
0.2961358671696584 
0.2970047270151496 
0.06999967461029967 
-0.1499564488914039 
-0.1409315427575779 
-0.08447074118258749 
1.075530886765761 
-0.3877467555130758 
-0.3785924496225532 
-0.4383269979967792 
0.6457907008246673 
-0.4278065008179388 
0.2767936382282729 
0.172333972479667 
-0.1011220251325795 
-0.4295106651675329 
0.0891571995106157 
-0.03820867893856796 
0.05558290534955922 
-0.1147758138805505 
-0.3233984988271212 
0.4220781883540757 
0.03708376428885221 
-0.5371738583796711 
0.06218093615065079 
-0.1036907003741536 
0.03027123613361877 
-0.03249408352706493 
-0.06147540195556425 
0.1675355493971745 
-0.03442988190629105 
0.1828390307926468 
0.05835932091973441 
-0.09696113927921805 
0.07711557057093618 
0.06069173739715978 
0.05379800849476191 
0.4928310553352574 
0.01201149467246844 
0.279159684289325 
0.03248100617040093 
-0.07647226434145568 
0.3706108557628672 
0.5013834695236301 
-0.157618251730724 
0.1804643559588806 
0.7150801416371315 
-0.1336380481946278 
0.07246146720921502 
0.006316691204672799 
-0.723086329947497 
0.4735497953836634 
0.04963857421847451 
-0.3296681898360548 
0.3122127838376142 
-0.0088195633411207 
0.2358063244173554 
-0.003803186407074818 
0.007830152802806377 
0.01316638554359037 
0.07443742220938741 
-0.05093631787226258 
0.05821509889944059 
0.003692428690514289 
-0.04253788718851575 
-0.003534395821322344 
-0.008797798626515075 
0.01758592332079569 
0.5512627603244016 
0.07319696606465859 
0.3522724462955511 
0.3324352616350479 
0.1397410151358932 
0.4191546940422148 
-0.2492603246894458 
0.2789204206206092 
0.6661177039162487 
-0.3485144902594189 
0.2189347703139151 
0.3691991695299476 
0.02567567316089056 
-0.7227855572650231 
0.01241950323526593 
0.5291197089238977 
-0.3805372588404482 
-0.4758524493355446 
-0.002810513183142734 
-0.0877593667977578 
0.06526685315186344 
0.160566537599725 
-0.07022987780089843 
0.1236477461422275 
-0.2348898530099274 
0.1322164361408956 
-0.06098170409972021 
-0.08732919135007983 
0.01040729938788702 
0.01811209596410171 
0.02923936382232501 
0.3337714198358081 
0.1583427255269538 
-0.2695793051963042 
0.180233431832818 
-0.466551252700328 
0.3060654664147992 
-0.9053058889328388 
0.343218449289468 
0.2531714250287581 
0.4132365559033285 
0.3627901798747707 
1.161687445626665 
0.002664862225462804 
-0.4948241960492005 
-0.1335717335320964 
0.3810273707199017 
-0.1622355702670142 
-0.372510728533931 
-0.04179230672369475 
-0.05026398718287534 
0.1646253564681174 
0.2609721252878236 
-0.08768139882345921 
-0.07019427747045999 
-0.3538571846108146 
-0.04034960862785213 
-0.2250054001596266 
-0.03838272319498554 
-0.07405824037126181 
-0.05233761734766629 
-0.12928719042798 
0.2980874044009371 
0.3740465421646084 
-0.2597442751118881 
-0.1443613690981155 
-0.4481824515589029 
-0.08768579995930607 
0.2218173536587021 
-0.1888949244504538 
0.4309991037955311 
0.2729602753923467 
-0.3943409692837442 
-0.05779269821375307 
0.02884413819114483 
-0.7797051772039292 
0.2094845079153268 
0.04709518157242375 
-0.1865467113883053 
0.2022252244043459 
0.07425846952558121 
-0.06799985007107112 
-0.2358960475511773 
-0.05373579722575138 
0.005799705183032272 
0.3662180595268896 
0.01329196483957703 
0.3483182463165713 
0.1981473737604393 
-0.08404879935700048 
-0.02812343336469955 
-0.00399782879648971 
-0.07170538870213297 
-0.810100018427558 
0.4616555399052776 
-0.07068784214716442 
-0.2990025573775742 
0.4611799159934145 
0.02698699409438871 
0.2936125128913434 
-0.644890793135436 
0.1747519592906187 
0.9509467976030873 
-0.1419673337759234 
0.3980857015266467 
0.01134574699497263 
0.6640982767929318 
-0.5915262060953055 
-0.08129139090943252 
0.3712894053081314 
-0.5181161896998029 
0.05174452907169248 
-0.1080674925482462 
-0.01008017369017441 
-0.2052508094684614 
0.1910323447742799 
0.171609372107084 
0.2515503889931228 
0.09985051299483447 
0.2303980912722523 
-0.06008996214594501 
-0.007106341365997381 
-0.003331911039220342 
-0.02382340768374655 
-0.5818250779882337 
-0.2105731088690789 
-0.0771564624772393 
-0.5134360738834233 
-0.0936941688009483 
-0.2557039614101707 
-0.4815562969281197 
-0.2476771419940603 
-0.09064794939403598 
0.1314180581060147 
1.281145428485132 
0.06871816992319263 
-0.01904393324613543 
0.2127417762445808 
0.02727494149152093 
-0.5560439522905236 
0.2835467857869634 
0.7255880344337825 
-0.02379853758950078 
0.3728561869245638 
0.1609345624269443 
-0.1157773476602512 
-0.2174521917084566 
-0.1100930159071106 
-0.003865380773880066 
0.0002385522970250742 
-0.002887344944531633 
-0.04788678491904634 
-0.03090730585126549 
-0.0217105593665755 
-0.03760488569308 
0.4118449584623875 
-0.05899006985934194 
-0.1542733008148539 
-0.2431781966755958 
-0.007296298811810771 
-0.0719411546115092 
0.2466352224312074 
0.04991980327629519 
-0.03961757685035385 
0.1018933911671882 
0.1347052806991886 
0.2544423057472566 
0.0008138138919889168 
0.5118588110337967 
-0.1831357844425145 
-0.4525920390876756 
0.1902659350868065 
0.4864469718586871 
-0.06036322705029476 
0.3421577848394937 
-0.1001852604224819 
-0.3592214402148194 
-0.2845620833901577 
0.2394825419632545 
0.2784156488102983 
0.3670523601291247 
0.399374402428236 
-0.02796763681353681 
-0.05152138297862432 
-0.04219158405412066 
-0.03936254164791991 
0.3233184836352599 
-0.2060741516114774 
0.02831349121501508 
-0.270753833901899 
0.2105136742274412 
-0.3282846340361962 
0.2304064321195472 
-0.1323977428329218 
0.4331528445683844 
0.443560604602503 
0.6758090676463901 
-0.3036143286531613 
-0.04232484298148299 
1.050805240982222 
0.1282459939323466 
-0.6693572679643006 
0.5317479923983472 
0.6804184358419159 
0.008523516281122474 
-0.05393888914460994 
0.02601134532998187 
-0.2494310857418506 
0.1932758522082732 
1.015988839523271 
0.3609916076388036 
0.8096691321801073 
0.512716014392137 
-0.1209503715434868 
-0.02611609201415078 
0.01076311813927625 
0.01920090996282046 
-0.9264213299514406 
0.202624345365345 
0.4066604289096449 
0.4058325828921388 
0.1271523861833913 
0.3971632715136323 
0.399726029769017 
0.1824292188056099 
-0.3570189005077454 
0.3081102996144287 
-0.6488055021813903 
0.1437191826287637 
-0.01464547955391128 
0.4717456709613695 
-0.1414740491841849 
-0.2937596716120607 
0.2221096504090841 
0.5055728873812697 
-0.0170685255017152 
-0.2370400929357597 
0.07446610371872436 
-0.1048357674894873 
0.2390336915732421 
-0.1502462467012853 
0.1854148095282006 
-0.3139531449587188 
-0.04148332691742347 
-0.06742791841182424 
-0.0403464512354286 
-0.01962559212504779 
-0.03005878463435847 
-0.6916549208282339 
0.2610767371408164 
0.04337649156779994 
-0.5812081170837941 
0.2739840295797533 
-0.4086337656700036 
0.143880849381359 
0.2519617019925761 
0.4355894148534976 
-1.226971285333369 
-0.5155133530745206 
-0.140898294351645 
-0.02093907952129404 
0.6094314040246707 
-0.002167875765435971 
-0.3827720330250179 
0.3115985502058611 
0.2179226926004341 
-0.1240083446143255 
-0.3613713675582341 
-0.1244402819897386 
0.0717942233059726 
0.4017355565870846 
0.1512880844125485 
0.02460729289067618 
-0.02622363754872814 
-0.002943599605832573 
0.04824398604894574 
-0.1081605050224104 
-0.1076959314982229 
-0.1330279132332316 
-0.4953737529516782 
-0.08109443125426616 
0.4836911070761598 
-0.01238774760394052 
0.2711165913816818 
0.3051770128624783 
-0.9214211473622248 
-0.3628266820738773 
0.1387502637466129 
-0.3055235713567459 
0.03518615788096117 
-0.6194360023955026 
-0.0571326512938835 
-0.1589894783857711 
0.2348554234878344 
-0.2609412128354842 
0.040651125734014 
0.3247781574038635 
-0.06161618009756127 
0.1513889274299285 
0.2179794304687444 
-0.06402563091163797 
0.3029982589399668 
0.100775558872827 
0.1701792089418043 
-0.004636742616960857 
0.08155181798137705 
-0.006985153221699602 
-0.03038459825754349 
-0.0395199361144021 
-0.01040363597233097 
0.002910709918998385 
-0.4114346661785719 
0.07114515231111807 
0.07710167480176398 
0.2032504384214806 
-0.1080185096416953 
-0.3831095043153076 
0.1244792012077718 
0.1826275000936562 
0.1591788675666148 
0.04516515126862677 
-0.0432693690356845 
-0.03600468373182016 
-0.092661634188505 
-0.2932763414288156 
0.01267103834421953 
0.07209878263702967 
-0.2657539052656602 
-0.02214544833230587 
-0.2171493012311683 
0.225419417758973 
0.04725389058674503 
-0.1842535800045802 
-0.121664132109368 
-0.1833571426567588 
-0.06893364446326686 
-0.1727832610199983 
-0.06234117833473483 
-0.02773051690767577 
-0.01456945169218143 
-0.001393458834394377 
-0.5008244907273328 
0.02570611633386875 
-0.4059535452733692 
-0.2143601712734922 
-0.1709104175796126 
-0.4210834848894001 
0.4093569920794747 
-0.1000390606015653 
0.2785310742021081 
-0.4116836368403316 
0.2665413380867385 
-0.7575183203199143 
-0.01654100336636952 
-0.05063235907148557 
-0.5781233070069118 
0.2362467992726784 
0.2274688198443123 
-0.02417713302685586 
-0.041915865413055 
0.08497744978267897 
0.09002297144822503 
0.1192981766313984 
-0.1599411769146179 
-0.5443456611940641 
-0.2547710765858318 
-0.4556600547007631 
-0.4678086133918556 
-0.01426912683209881 
-0.02095696976856438 
-0.0311904700632399 
-0.03095897588228542 
0.4542812103846271 
0.9414272524392884 
0.2953225472794724 
0.2039885773328882 
0.0584876361806427 
0.2122267744100138 
0.3905111337745563 
-0.377524628455469 
0.31276877243051 
-0.05489855672344904 
-0.2772389515896138 
-1.03274445035003 
-0.01320209599022655 
-0.5984235104283131 
0.2469051129032606 
-0.1083351265494967 
-0.1894842660155261 
0.4072535267980136 
0.02176210611999589 
-0.0816198121560905 
0.1182017310229575 
-0.01053442703284533 
0.581340153020959 
-0.2985674386117461 
0.1055333649634793 
-0.4756537373739096 
-0.2613812132087556 
-0.09314256936315848 
0.01694220576156754 
0.02463031791721747 
0.02972245250976752 
-0.02513150310173957 
0.5902240568769395 
-0.2039470510654511 
-0.2983547573609101 
-0.1513693975993477 
-0.3546365937692199 
-0.7672324625265797 
0.0205154186141864 
0.008525967985495833 
0.7913533884175609 
0.3975008498115343 
0.2543317249126335 
-0.01517821257771133 
0.03863085101728182 
-0.2169215303836215 
-0.1336168982493151 
0.08482112835074701 
-0.1085443856478154 
-0.08012135074763646 
0.2236699762694941 
-0.1255647462432636 
0.1329400489094522 
-0.09820275257088484 
0.3017771544841291 
-0.2926981530142232 
0.5646771957294205 
0.044657385220585 
-0.1215845968716291 
-0.2941550495493046 
-0.1324815201068463 
-0.2584344358571015 
0.3311625453876414 
0.6730575695643995 
0.149261935373839 
-0.04384327546915986 
-0.1780255977354491 
0.07183443718710136 
0.5897954337704948 
0.1239807852416353 
-0.07082551383436268 
-0.148277723560873 
-0.2733701804988187 
-0.06102859484588564 
-0.6292602344393448 
-0.06289470803145844 
0.210437220220903 
-0.05449094662364376 
-0.2017906406004229 
0.1940769627612969 
0.1079427167451814 
-0.04268062321209515 
-0.3381420920012693 
-0.215128504054581 
0.08447078057645782 
-0.151567616489716 
0.2405463229469158 
-0.3456874105090034 
0.06383517663467293 
0.2985730132297726 
0.426085699590309 
0.03192325231531991 
0.1113117962120161 
0.4270143720777626 
0.1844635940736799 
-0.02022996755023557 
0.05181980581067999 
0.0716691192628036 
-0.002306645621125911 
-0.0947521701525396 
0.01163857653371912 
0.1358382636673295 
0.5077810358381023 
-0.9114279569562527 
0.6319426426633133 
-0.3070593861960131 
-0.2853569077647985 
0.2090464260314925 
0.1707700649739032 
-0.3009296439987773 
-0.3511443724079196 
-0.0963581215216658 
-0.03882793999375075 
0.4243884505690009 
0.3023210530940372 
0.199133203340834 
0.4001514502388907 
-0.1762781540934733 
0.2306492603343187 
0.06941447417960316 
-0.5672556004763514 
0.1072204846443484 
0.35165450249022 
-0.2220010114256643 
0.202410046673673 
-0.3299852755497976 
-0.7362207437215111 
-0.7104170043053339 
-0.474054885287908 
-0.7178729798541802 
0.2783968640015391 
-0.01450123245721148 
-0.06501980143950095 
0.04289370523497987 
0.12319125063169 
0.4708943768592007 
-0.4398888327642513 
0.4004982275285339 
-0.01894319862565795 
0.4046478764099213 
-0.06189938666469334 
0.3215968314963021 
-0.5534112307038769 
-0.0006366696364545656 
-0.1075685964754617 
-0.5302698237648791 
-0.3812367113127482 
0.04951375782462859 
0.1820767961696472 
0.6126895329817297 
0.4411931655448418 
-0.4231972699031856 
-0.2068884588713989 
0.09553458483871197 
-0.193965690192246 
0.2787049346194319 
-0.4019719990711325 
0.2797636509411974 
0.375212702308576 
0.1454966447806201 
0.3015490222886551 
-0.261461188873119 
0.08244913811041765 
-0.6637371378391935 
0.1604666443884252 
-0.606472025623487 
0.2903944048356792 
-0.3104608252930509 
0.2025784630794359 
0.06334509400634245 
0.2891151364096589 
-0.06515435391427414 
-0.01701136874261802 
-0.8022227534345699 
-0.006319736005303646 
-0.21534508668081 
0.5693135251025458 
0.2531831632111837 
0.5440793253717859 
-0.5993220727740916 
0.4615790754937964 
-0.1115882725769088 
0.4725264225783606 
0.9487184117395504 
0.2960815764096653 
-0.2520730966504871 
0.9818283215525944 
-0.06581241852391465 
0.05057326072433839 
-0.4339307064959507 
0.4420062077547565 
-0.2261028542824047 
0.5747304340040167 
-0.02435577117309295 
0.2016699902871745 
0.6357847301889774 
-0.4191516689123964 
0.01917651907452704 
-0.8268752158386412 
-0.1866164835694021 
0.1335643652344216 
0.2091611233242533 
0.3659914829670352 
-0.311328663444927 
0.1579015993638358 
0.2082881487474707 
0.167202133953737 
0.1507750700301352 
0.03802787588472847 
0.1928068952184985 
-0.215629571019201 
0.2088683921639048 
-0.0361375383005653 
-0.2765307988356368 
0.3984552531865138 
0.3761178120590474 
-0.5173172958557866 
0.6629158620042622 
0.9772481888974718 
0.3727882328610087 
-0.2744783448319865 
0.4859421815930519 
-0.05291907283522902 
0.4799802358443237 
0.01776786133796523 
-0.4083507272536435 
0.5009389126086611 
0.6060901577009352 
0.832571677281206 
-0.729743897424409 
-0.4003639254911829 
-0.2065983050479022 
0.5445397224509538 
-0.3618970764847886 
0.437164093757697 
-0.1810323275382073 
-0.08032544379695344 
0.02234721245749957 
-0.5996402951817523 
-0.1705813257047356 
0.1289032916630383 
0.3449029265981005 
0.5306331866315108 
0.5475338464680476 
-0.09782101585202352 
-0.175895796266532 
-0.06874992361828379 
0.2429462870665546 
-0.6806017170727362 
-0.193493610838917 
0.2131572556888573 
-0.5265643961229161 
0.1968098126844241 
-0.2303413572600416 
-0.2390266985124356 
-0.3132291315272218 
-0.5110047865766506 
0.4414295891500367 
-1.077995857069447 
-0.7382971505453914 
-0.09275058419244481 
-0.3367112657592761 
-0.1410866321364013 
-0.2652471331677947 
0.4393582706145003 
0.3543505241869884 
0.01330787278050807 
0.0764652302451317 
-0.1217919077984843 
0.01190975683016965 
-0.06814309681369857 
0.198858169924779 
-0.1438123868082234 
0.3637761195999373 
0.1129236619625618 
-0.2135938482459802 
0.02599175019645113 
0.1171580568393158 
-0.161656465228621 
0.1923671478370192 
0.2629282422902562 
0.3142035350608627 
-0.4852482677887215 
0.699956001876688 
-0.2134695039100487 
-0.4772679414639963 
0.1107149674656481 
0.5275128239911522 
0.1728032990117792 
-0.4440247847107001 
0.0887932237662976 
-0.599293980853373 
-0.2378679055483742 
0.08779593678208582 
0.2535208799004126 
-0.05656025654370171 
-0.2797390606856827 
-0.1591293420795978 
0.01523144102738697 
-0.1063552889614699 
-0.5562463359459184 
-0.6880027608096971 
-0.6983948120498192 
-0.1406856234770794 
-0.1618596956785629 
-0.1778324077383091 
-0.1326994519281858 
-0.06041150479745716 
0.01680426718615742 
-0.2651622702739569 
0.7524626932375396 
0.3616930236864612 
0.839289668008479 
0.4380002684630674 
0.6240398970454812 
0.7066915154640847 
0.4356906132394838 
-0.3140798023226621 
0.6552315912812937 
0.1220695727366237 
-0.1515631760968583 
0.2560981620838733 
-0.04403671508983706 
0.0683533220080883 
-0.0285496554927055 
0.1504567443890321 
-0.3376305183999329 
-0.08366749406432267 
-0.2955561572946152 
0.04098554644520031 
0.06150720681061077 
-0.09633197642208743 
0.146210281007401 
0.5128695777776433 
0.3486371748071015 
0.6688902002043708 
0.6261384539660566 
-0.5574862152697071 
-0.2593515944915112 
0.1344125233986201 
-0.04978325705658574 
0.3731811867191676 
0.8535057562337791 
-0.08713441289376363 
-0.2613145680024421 
0.1657224011989919 
-0.1871748495348526 
0.1785936021097747 
-0.07375125044107664 
0.1352809685891256 
-1.187547549391958 
-0.4018698220957325 
0.7153550936398965 
-0.1904462330224534 
0.6256879297330815 
0.005860505917657508 
-0.01220863565283869 
0.4716559690752261 
0.2276664550462954 
0.03203243862834728 
-0.09767635244891257 
0.1467152487719422 
0.2358692360895314 
0.2746638822706522 
0.4737359463231962 
-0.02751004964162113 
-0.1240993434974622 
-0.1011762865031192 
-0.03268053441168704 
0.1824143428066116 
0.07750494167270716 
-0.1139146105553556 
-0.0008126953028624734 
0.449795487603874 
-0.07158189984892216 
0.4154317070000663 
0.3881634918967767 
0.2490202437724655 
0.1789589193653327 
-0.008574464050328079 
0.04281862279102623 
-0.995368454068788 
1.309444320210172 
0.4381895191331347 
-0.1351561668744027 
0.4301790993185105 
-0.1011791568836443 
0.06074365956899831 
0.07251274022644849 
0.1489232102512176 
-0.4505342623948817 
0.06536397110967229 
-0.1464804494350002 
0.07679415994032848 
0.01328395232687356 
-0.01912456516204615 
-0.1818624241783252 
-0.08756829609870556 
-0.162614881951906 
0.1372025719808916 
-0.1648953541586 
-0.1839464320511663 
-0.235712663456098 
-0.01697022935277732 
-0.03054274251827878 
-0.04470876841599968 
-0.170949740638606 
0.2851779417903252 
-0.3570621492424738 
0.2048223803295416 
0.2016921088853979 
0.1051572296646665 
-0.2588846112115767 
-0.8873884169306001 
-0.2273078715226816 
-0.3469187553564659 
0.1248053917476178 
0.02802554654389271 
-0.04425454119179667 
-0.02608787267515465 
0.0457572123913758 
-0.4383613025591369 
-0.2221705660367621 
0.09249135906596763 
-0.13739033272161 
-0.2176634468728347 
-0.5749150827788233 
-0.2016694276811626 
-0.2883236764502877 
-0.3024756621657558 
0.5638116424750595 
-0.2320105788112542 
-0.5020033823574235 
-0.4353684509710402 
-0.3827092676633996 
0.5692624438581438 
0.5035282407395819 
-0.1145433392593689 
-0.4707646038683637 
0.2778695284794789 
0.5091113451315967 
0.1968120232415425 
0.4229439122649737 
-0.3324778090281404 
-0.336022413297692 
0.4923649298891896 
0.04289283661413128 
0.9925741294036949 
-0.2289965225816066 
-0.04165637782080527 
0.206745034190974 
-0.03623374874463033 
0.1998083625799349 
-0.3717069747178867 
-0.01842951030548711 
0.2421480946920563 
-0.1275353362178007 
0.1129413536463026 
-0.6664380278727347 
0.4002546964017864 
-0.1952274384665441 
-0.2984719208073161 
0.2861806669557408 
0.3291901056916611 
-0.005659434345686651 
0.2553924582884153 
0.3982756893360557 
0.3859326825045729 
0.07431660653733023 
0.1246616528891601 
0.1592719976477089 
0.227756080025106 
-0.02911066793498712 
0.1604649966289666 
-0.6884167777956023 
0.5302789984607768 
-0.6705828137027943 
-0.5334565762551078 
-0.0889203557234487 
0.224355485146446 
-0.04683250647896001 
-0.07215792555742044 
-0.3278580472565705 
0.2940116641815391 
-0.3172102536103747 
0.3045615419612707 
-0.5352506459254225 
0.3825687075309562 
0.6575308454453482 
0.7915349378196017 
0.6570075039454594 
0.7983983027947831 
-0.3010367131046494 
0.5642447653508517 
0.4457788469239117 
0.6791320264502443 
0.4257235844737263 
-0.4170623727272246 
0.3650109907314551 
0.3246771141865228 
-0.1437186327162933 
0.3794244244738124 
-0.7229021270115668 
0.1334796783940528 
0.1337738400186486 
0.3616597576109554 
0.344659614641573 
0.4801464677115928 
0.1027538960672963 
-0.6367104619854456 
0.514377115514829 
-0.03192493046406081 
-0.2141012175758499 
-0.01236400104509107 
-0.3000685467388665 
0.2218131351962126 
-0.05297386115074319 
-0.9011191714800679 
-0.9054763393397902 
-0.7357195555304737 
0.08067252623560628 
-0.0003060495637738636 
0.06542222640878985 
1.050226544117519 
0.7273600429936502 
-0.2542082276347136 
0.001625540835641103 
0.03098226125129964 
-0.5125625850327797 
0.8046562765479099 
-0.2378150136137759 
0.2062911862281616 
-0.128684947424079 
0.5388183223037382 
-0.3401604235841829 
0.4009152862523752 
0.1224656487146317 
-0.5919393845233838 
0.3200127933490047 
-0.5183497992308413 
0.6540402887520996 
0.09585860067065763 
-0.09415090396651225 
-0.2475637232274063 
-0.1361711265058351 
-0.2513394036326014 
0.06181726554394876 
-0.1602158365245502 
-0.334457786548906 
-0.4411898548914461 
0.04242599293139818 
-0.1180232907086264 
0.5866975306095099 
0.3537281961822198 
0.06251110384151018 
0.7300775786251302 
0.4145914671887146 
0.6895662081999689 
-0.7198798372407229 
-0.444880473995713 
-0.5862672285210829 
-0.6247096226554548 
-0.5060233531204041 
-0.4202460217388774 
-0.5045322333692066 
-0.003876736680224388 
-0.144625129564978 
1.234507604033712 
1.017770730585508 
0.4023891844243748 
0.557476473492399 
0.6188125924216921 
-0.1901973917320887 
-0.3360812652052022 
0.5105174039303434 
0.3605853678915305 
0.3452713070310561 
0.04976820973901865 
0.146970248289137 
-0.05516458548215424 
-0.1087255278528606 
-0.2480454704458996 
-0.1032005329008217 
-0.2042760801593494 
-0.2114442299429594 
0.1800852293246468 
-0.09368624975505242 
-0.2220774241512605 
-0.4932266014777183 
0.01908738840789453 
0.3740282747147626 
0.5222618359466786 
-0.262347008433376 
0.01818682325185308 
0.1359361041894468 
0.1319337928352616 
-0.218053312738635 
0.179263488550048 
0.1591317688729797 
-1.29891804110485 
-0.2559608006658574 
-0.7741838367891056 
0.6232044800237792 
-0.2395800013410375 
-0.006251529907723832 
-0.2163007656553938 
-0.006086242275749859 
0.2390110316119454 
0.1453461668959888 
0.007469309481528207 
0.2096906691569439 
-0.01790087239888248 
0.02969802636940682 
-0.4512540175030674 
0.09036521421554181 
-0.2525017327993057 
0.358908984591208 
0.619026325960669 
0.1941672475149227 
-0.05362628219978347 
0.3701901751527766 
-0.1298911113483193 
-0.222464629785661 
-0.14951629622556 
-0.2847430018396544 
-0.1168051868430509 
-0.09590968609954457 
-0.2924659392330762 
-0.0162013041941966 
0.6808852831149248 
-0.5325245319219816 
-0.6509865785151802 
-0.2527501884739686 
0.1963714726880488 
-0.4022748450421845 
-0.1131094363194346 
0.4725938042651617 
0.5887615153691689 
0.3097728237100206 
-0.09082724373098164 
-0.1926039655099838 
0.2211862056661845 
0.1075696515730093 
0.3370410805473107 
-0.22643943197602 
0.3978736843475482 
0.1281701475371221 
-0.0462162703865979 
0.08417982541159838 
0.0610698726930563 
0.4082432246599874 
0.4251058783542429 
0.14223871904703 
-0.09164507559509799 
-0.1336024989767141 
0.5220140935400837 
0.03736875839048851 
-0.4731560181562685 
0.3302826317533782 
-0.1433880133235564 
0.1793670925439292 
0.1695594635217172 
0.3124840129911005 
-0.7367422035978584 
0.5303107557386515 
0.1181220425740799 
-0.01546697601386054 
-0.12880176180467 
0.1159810351134357 
-0.3799598445015541 
0.01470694131356763 
-0.120673707600665 
0.1628268040915201 
0.2336047186583078 
0.0868596039663235 
0.06280120648756507 
-0.2693349185336612 
-0.1152171097807176 
-0.264189010668845 
-0.2413066634419502 
-0.001587528332525772 
-0.1732845854884371 
0.4745580452921477 
0.04174123190675304 
0.7477637514158698 
-0.111575001928648 
0.9935930571719642 
-0.02236064937724476 
-0.0768892523184244 
0.3774340272532803 
0.1234124834176158 
0.5371130240273713 
-0.3829453681787075 
0.9870507522147283 
0.4054508292599319 
0.4290725740534614 
-0.1308019449214869 
-0.2654032195178878 
-0.2231684994882308 
0.3651028529043656 
0.01700206660205104 
-0.08321937217836987 
-0.06610310339701722 
0.3333815913373142 
0.09127439824240723 
0.1413174214897536 
-0.3459619838526883 
0.0649994985024278 
-0.2046179669546161 
-0.7417702860255496 
-0.1534209348064293 
0.3479468959620806 
0.5318192053077586 
-0.2977972477366762 
-0.03326832471374712 
-0.1943109757364276 
-0.4435950877505191 
-0.4565668936829086 
-0.1978986473989953 
0.4288028276540662 
-0.3429026341228724 
-0.6190460928853392 
-0.01747514424536312 
-0.4630575183446939 
-0.4933968404886345 
0.1583353697524671 
0.3856250671836193 
0.4254513041312501 
0.3409920456994171 
-0.02439326131878138 
0.3310954286547613 
0.5407644641611552 
0.1068988464645252 
-0.05917039358946072 
-0.3707117429952501 
-0.4289811885937719 
-0.4488019798210746 
-0.2051973019357766 
-0.01330872504337459 
-0.1408280308816527 
-0.2747535545421709 
0.2193517577784088 
0.2747197667792495 
0.2318691809097282 
0.4362786181399141 
-0.04164663397411075 
-0.5585851775681336 
-0.3137021089341642 
-1.097633078737317 
-0.2034673157639084 
-0.4969915580783392 
0.4687785769375209 
-0.03144041577229735 
0.8029208604367932 
-0.3638717662470182 
-0.1553087888894568 
0.221533801816178 
0.4018457033516242 
-0.3652386749360491 
0.0588800157716413 
0.4495244354193937 
0.4952986480526907 
-0.1336391074214025 
0.04119768529910374 
-0.09525221002457825 
0.08109519955392529 
0.04769386218844454 
0.2567534818134953 
-0.08531928680207329 
0.3424009159039869 
0.1731322339255373 
0.8420428895628114 
0.3700872321501472 
-0.2418440798335367 
0.1212000988145557 
0.53945223890459 
0.4405903809001179 
0.1143198885309336 
0.1987812268633123 
-0.1452750071776607 
0.009922025947763809 
-0.2204254879842032 
0.3985184723474485 
0.1001059532275032 
0.1745836551209572 
0.2073895729706071 
0.5184853891710156 
0.4089256380025293 
0.4712033795296338 
0.2184206163707337 
0.190154669117338 
0.06125555804082742 
-0.1337859347654178 
-0.371532817608545 
-0.175556720139117 
0.03193091992779597 
-0.3089268927005668 
-0.460981526774369 
-0.754708053776775 
-0.1674969145720783 
-0.3716487033973144 
-0.2955918841971596 
-0.07871641232199235 
-0.1377182673754542 
-0.05763198275880316 
0.04825589217448331 
-0.04105354044683621 
0.1014864332897871 
0.604837417951279 
0.6140948046956378 
0.06624232356953946 
0.7414993967688907 
-0.08166416148660033 
-0.3038511276415006 
0.3597606789955041 
0.1314244901991003 
0.1751125780550736 
0.3225856719455553 
0.5819980163526441 
0.378330652370018 
0.2145476700632176 
-0.2752255850671457 
-0.2352279600154328 
0.4006414893503533 
-0.4678709219745366 
0.140210180234423 
0.03378559626589116 
0.02989123506751193 
-0.1129622937699691 
-0.7088933233974779 
-0.255481531763643 
-0.70044518882358 
-0.5393093593776166 
0.5702732069917601 
0.6153245351814305 
0.06173245647911896 
-0.4852225618839259 
0.110994403476892 
0.8077346899561633 
0.4636610122451179 
0.1730104683960308 
0.1453949090852662 
0.2921741153566523 
0.1983935608736694 
-0.2468226437295475 
0.5385734614424198 
0.449874699873418 
-0.727062260466186 
-0.6670979494689763 
-0.1257825787206169 
0.7508015250946488 
0.08032832096379283 
-0.2173318347851358 
-0.4374613786798489 
0.1910232375323781 
-0.6457610326903447 
0.06153863681121465 
-0.06259692149210055 
0.4934629744136779 
0.609570823034783 
0.6200967081781894 
0.05933781532309403 
0.02535751689278982 
0.04788990644526864 
0.6714602792113669 
0.7442776256457249 
0.009844764323570752 
-0.3419537239359718 
-0.5226437183011633 
0.5597185735186616 
0.3489426288786674 
-0.1991706310607659 
0.14647092665775 
-0.04528116774878714 
-0.6868628800378437 
0.367377823348314 
-0.3376629314879801 
-0.1642139107513443 
-0.2586001463220199 
0.5211519852137698 
-0.460793575104795 
-0.03213209175541108 
0.1863511298400032 
-0.06865050755768795 
-0.06389513889224105 
-0.3877037237328798 
-0.3055762934370595 
-0.002619799792787397 
0.003522832741765868 
0.4378142632450513 
0.1975686060645235 
0.09667955101898708 
-0.2266660389385502 
-0.1446135107099355 
-0.2741102363713573 
-0.2918718806007498 
0.9475123498529032 
0.7876197602566938 
0.5314948010970022 
0.2904626107538762 
0.356467365355645 
0.1120885632624371 
0.1034074114452506 
0.014326150429806 
-0.02641821535231969 
-0.2970507333431224 
0.06840252470051142 
-0.00520288309443491 
-0.07167692908998743 
0.7362071818844729 
-0.24375035949065 
-0.4152172109790507 
0.9772065438165205 
0.4360198550099121 
0.07327503026668684 
-0.08384667199216558 
-0.1652802971531901 
-0.2325909276154453 
0.2570768132627234 
-0.006500319980446159 
-0.1601825920581734 
-0.09852039878499247 
-0.3611901808217844 
0.07487501600230202 
-0.4731593395650118 
-0.2242088169074031 
0.3257300505189217 
0.828780713479 
0.2700999499375881 
0.1424167214122044 
-0.1448339402363049 
0.2579930514329851 
0.5367343100307351 
0.01157090682852035 
-0.3357453547214507 
0.2168198062760481 
-0.04300712733691828 
-0.5200513315665694 
-0.139864782235476 
-0.1890817678708914 
0.1587228293409836 
-1.040823824633999 
0.2811534085465124 
0.9927918103495212 
0.5897433601393081 
-0.1834216554806627 
0.4227871111647796 
0.3674415308019969 
1.880656445709699 
-0.7709932775413327 
1.880656445709699 
0.8666424996516849 
0.305955030786379 
-0.07504713322721872 
0.5027688194544997 
0.3231133241979577 
1.338224496905556 
-2.662387367534984 
0.02538105637380374 
-0.3465616960648833 
0.6169041971510582 
0.1497293009198492 
-0.1245759897720795 
1.521333657719783 
1.207851290185795 
1.131541911781513 
-0.3765727539058146 
-0.09116082745555686 
-0.447451054484415 
1.620993436543357 
1.574105468886243 
-0.02467902280283459 
-1.572049803820123 
-1.397723491265913 
-0.7757699693851996 
-0.129472314023069 
0.0313759074794297 
0.07211722418787034 
-0.7197665463301113 
-0.529291717672369 
0.7472989600273314 
-4.666095349523371 
1.219020016937208 
-0.06476193449506423 
-1.11522750772328 
-0.6616114130933128 
-0.332952322549069 
2.417674080986329 
-0.3812599023272158 
2.417674080986329 
2.45222067169765 
2.058401030927012 
-0.2301620110727286 
-0.03823532808032175 
0.7349057705842236 
2.019802116231961 
1.186560292927435 
0.4565306817095927 
-0.1639059619782652 
0.7130986274936799 
1.242480334803767 
0.2233461984056102 
1.850400530141844 
2.231141068786702 
2.696569607276755 
0.7544449881330626 
1.574364172649245 
1.326319722469492 
1.776269934694753 
3.642932536147891 
2.311158519923022 
2.699054243933998 
0.7321308940156734 
0.2816048670680948 
0.2145533103725629 
-0.7450244384536582 
-0.4745092558728048 
0.570224454350021 
-0.3891708457619247 
0.9348838209750649 
-0.7461042946780564 
-0.6071806124069613 
1.23091265114156 
-0.3085368370297407 
0.2095138514621352 
-0.849597579507872 
-0.2885351227711711 
0.5590154013618647 
-0.2885351227711711 
-0.03144658618539647 
0.2043844602129687 
-0.01096710899921293 
0.1173578352647566 
-0.3260498177191636 
-0.4527732463738522 
0.1800318530433775 
-0.1286225306485972 
-0.1041273030320597 
-0.4536231519827464 
0.0930685370282951 
0.321532560515188 
-0.9599224387943874 
-0.396111827750837 
0.3102274586721953 
0.6341883626451164 
0.5793492253057735 
0.9080445154623744 
-0.1971260560218676 
-0.09615370664457057 
0.02158650848509465 
0.4885647403786179 
0.01662909362217537 
0.187140227705479 
0.5919160178646707 
-0.4767668555895912 
-0.1521488888709423 
-0.2788111196561234 
-0.2020002421452578 
1.08902838085623 
0.3452989001062867 
0.4336198932774946 
0.7084255716700455 
0.3129708525707692 
-0.446973987109482 
-0.4159944797237786 
-0.57841950804609 
0.2585248822022708 
-0.57841950804609 
-0.4458288490538153 
0.05270768814639008 
0.1653148024759453 
-0.1284758560550462 
-0.2754095271478511 
-0.04396414577909263 
0.002839298625989306 
-0.6212357781938038 
0.1576999581424069 
0.3211994942743316 
-0.12865706826202 
-0.2269523478344326 
-0.5786683958611973 
-0.3579555999073015 
-0.4107684723736182 
0.3708883361262428 
-0.08990986250586167 
0.2116316288335919 
-0.4556168256098485 
-0.3045495803589886 
0.151082070377176 
0.2170656536429855 
0.02859394346504921 
-0.234151828791325 
-0.6954687689206758 
0.2530770927744679 
-0.0169621226669682 
-0.8882094790052395 
0.2191658933973117 
0.1247106589919646 
0.343356348146249 
0.344250383551275 
0.3694104259073427 
0.03635884649657446 
0.06859623666170403 
0.2456980721574334 
-0.4994477699333265 
-0.2345405881479316 
-0.4994477699333265 
-0.2864506467602449 
0.09969640007931799 
0.1004018354646168 
-0.1496068033134867 
-0.7585441912007092 
0.0549742431935017 
-0.641544002127733 
-0.3438282971714374 
0.4138140298556461 
-0.2453809180440823 
0.7322321463134447 
-0.363515990372275 
-0.6633703574423716 
-0.2226210108972386 
-0.2179188965395251 
0.4787640081966599 
0.005027706607646461 
0.455613815619149 
-0.9486277470522847 
-0.9194095974533664 
0.02937485980666125 
0.6748149894191262 
0.1495146728553435 
0.492122056265706 
-0.4170368851902495 
-0.4018111292035009 
0.4534415218225505 
-0.6919265101567279 
0.2800942721395998 
0.4427162650687873 
1.604387349656337 
0.1692136708030882 
0.1192640752257759 
0.5367907005675235 
-0.3445117206552131 
-0.4433244624159751 
0.163034591225439 
-1.13108628306327 
0.6563091540410538 
0.7052642478842096 
-0.460516428452952 
-0.1011424523419338 
-0.1555062268646698 
0.2418001938222186 
-0.8162785249483121 
-0.8308267103441755 
0.4784296398785689 
-0.4121571836160423 
-0.6143804353611266 
0.2537762569395211 
-0.05482374343309696 
0.1261018682726567 
-0.04241243526439774 
-0.07275144177956187 
-0.1614880586289814 
-0.03399718049031279 
-0.1915174300990076 
-0.6545692795562491 
-1.180781181153566 
-0.5719168306281365 
-0.9561019742128682 
-1.159261401518457 
-0.105602460895447 
0.1994558355187759 
-0.2062767814103431 
0.7391085932516399 
0.1921157758973446 
-0.830430810204877 
0.5869902311447924 
0.6185399441429306 
-0.2503254366201536 
-0.9992851787475441 
0.1344325909359511 
-0.3134408311293753 
0.3751931038174392 
-0.2767885779693723 
-0.668272853061616 
-0.1817851482367747 
-0.3194817793869384 
-0.7994423435649264 
0.1204221372039002 
-0.02695355306166086 
0.1588959799982399 
-0.5213556768344378 
-0.07228199475569412 
-0.1825704815364768 
0.6044321236596361 
-0.6599312423432458 
-0.04297594113260968 
-0.09194093229978123 
-0.2006988099332146 
-0.1965942872798634 
-0.3741264756992678 
-0.03337166777095607 
-1.120879513838928 
-0.6253041943606461 
-0.08226922872604793 
-0.5396758160278631 
-0.6696156337282811 
-0.5058407862466213 
-0.1853160744820853 
-0.5670489213484873 
0.02505422118652215 
0.0346780313740907 
0.07478606001242841 
-0.4143028885485008 
1.176055800012378 
0.6734996972008371 
-0.1887321501322744 
-0.6829427276046125 
-0.06353555168277342 
0.07234223884164828 
-0.4147902130023576 
-0.08720074453965571 
0.5795285369742897 
-0.623194795343493 
1.031948708221151 
0.2057614529060512 
-0.1916927228563734 
-0.1343492718505782 
0.03803001745401018 
-0.004026034300825043 
0.3368949025709043 
-0.372548418619629 
-0.2766646389002442 
0.3031101195120972 
0.1463029480404235 
0.131044226766195 
-0.119260361225283 
0.5462934732149083 
0.6780879067414816 
0.6862913683844735 
0.5716994519962272 
0.0002961576037480637 
0.2990479438493055 
-0.14651120722209 
0.04965800829961416 
0.2206337275102905 
-0.2327508800299196 
-0.6740167240421721 
0.1449446282048679 
-0.04052674245935105 
-0.1697911996477874 
0.1135133215309602 
-0.0002130189925440285 
-0.112474788988209 
-0.5323264310667805 
0.1774632502734004 
-0.5035834470922221 
-0.1444473919895065 
-0.1289437911077387 
0.046045815864124 
0.1799879657051192 
-0.4390012880110815 
-0.7804871586715469 
-0.2558888718862979 
0.3211656497476197 
-0.05277880850877188 
0.0996279881629375 
-0.01020550775982196 
-0.4794517605824066 
-0.005459036596951496 
0.6818890134384407 
0.4149918503746339 
-0.6318173151716751 
0.1720726951602023 
0.2913571748272691 
-0.01401262073095613 
-0.1641452734807115 
-0.2601632643387077 
-0.5253060740286659 
-0.2360637439606984 
-0.7333992657384445 
-0.6776635149188327 
-0.5584536968968266 
-0.72617511884958 
-0.03774460387022972 
0.3136279752759213 
-0.3798954770775326 
-0.7407371010766819 
-0.240183688966206 
0.04462929968614569 
-0.03827456285008625 
-0.1034857432449224 
0.0408260689687043 
0.2341474502304852 
0.1219409784105384 
0.7828519362297985 
-0.6348702728727796 
-0.5337076077233539 
0.1136576497999716 
-0.01031491754345117 
-0.5487468010750951 
-0.1481346886524247 
-0.6845110116290644 
0.2179826412478967 
-0.3339819538912457 
-0.09847498416615352 
-0.1381184820059781 
-0.5382751694990633 
-0.2048673266801216 
0.3445753213703315 
-0.2198643451001834 
-0.1148277022490116 
-0.04257514357702755 
0.09144410454565799 
-0.07758811245818574 
-0.3671070198612101 
-0.2338124517607552 
-0.3760875398695732 
0.01019378539971987 
-0.3118011901742898 
-0.2365828161211848 
-0.6875027012961386 
-1.075583799370439 
-0.4393680667957428 
0.04190572002340963 
-0.8942365369126384 
-0.4223996093588275 
-0.1944431843629569 
0.01555206058651789 
0.1347880100784236 
-0.1598668165352189 
-0.1541049456798383 
-0.03940400674219927 
0.102868390604335 
-0.2615403535305714 
-0.5303208402244062 
-0.1321611043064979 
-0.2762970506267898 
0.2231740496341637 
-0.5323336682351312 
-0.4126723911037925 
-0.7833341439088208 
0.2342034843295072 
0.1844735154354257 
-0.2233716285073162 
0.1815097879127112 
-0.2703422723218647 
-0.4141282744999036 
-0.2851339132287487 
0.4445794798126092 
-0.3642332458974027 
-0.1887644954310078 
0.2668256242025941 
-0.1026522703653479 
-0.4714413612170542 
-0.2954088279119408 
-0.5513282918646525 
0.4562328180045424 
-0.7621766986197474 
-0.2585303456470283 
-0.1368986210111151 
-0.04592708828059508 
0.08487960059064521 
-0.2579777761597628 
0.2035589597739585 
0.2632004562472946 
0.4287870972485298 
0.06035490455706682 
-0.004403268077707266 
0.1537652946861561 
-0.218800445503844 
0.6649719837886139 
-0.1775295528839491 
0.3857136601639733 
0.6657263256859385 
0.1877901074498139 
-0.09209451711949597 
-0.138548669379788 
0.08281714502847887 
0.2626998797660558 
0.08123398645197344 
-0.3201427911250643 
-0.2558695695456241 
0.2610166678952834 
-0.1846928020519072 
0.6336148301267465 
-0.4569720938841244 
1.089483246241458 
-0.591606985537719 
0.6559375095721167 
0.02686141286147119 
-0.3278436658132532 
-0.02575340099563881 
0.1701256767243228 
0.2195974394078078 
0.1510244865847937 
0.2068456737817549 
-0.1219475832893524 
-0.01889551347612567 
-0.1517788678790981 
-0.1609806209443289 
-0.05179662910260655 
0.2592157984013033 
-0.187932621906421 
-0.783273199538671 
-0.1338808475069978 
-0.02594887408052379 
-0.1527377889108561 
-0.4409349792915217 
-0.4793869373152619 
-1.368882888016656 
-0.0406858821235016 
0.7520126586265484 
0.06775822993862664 
-0.7557953229381205 
0.1328258550954925 
-0.02162996353254711 
0.1891832991018699 
-0.1415771373797213 
-0.8056132757370664 
0.2362193613557241 
-0.1533083079823671 
-0.3719499009630112 
0.3989909494438882 
-0.3061021545715701 
-0.7480046893008745 
-0.284605120762249 
0.2323588208527224 
-0.03627630547574331 
0.02133779343540881 
0.1602813464017982 
-0.06141000426717243 
-0.02182738108403635 
1.405988172940392 
1.064858235605621 
-0.7891289929059816 
0.1893618369807301 
0.1743208466729323 
-0.1723660054235812 
0.3917244230643809 
-0.1855803863038271 
0.2082532916938261 
-0.1022956712082146 
0.6058694958603738 
-0.664482224583882 
-0.05252581072701391 
0.798619254527363 
-0.06777669679461829 
0.2991293873897372 
0.419819509230651 
-0.1418079154410972 
0.3565281164213113 
-0.03127334882022492 
-0.02874223532429231 
-0.2289205707048013 
-0.2717591145531719 
0.007573135577322867 
0.1059010258539153 
0.1744067181664916 
-0.1185025602875787 
0.05266048931404819 
-0.03773896410376185 
0.00258248978383237 
0.04951909263700948 
-0.1354051974493545 
-0.02716417732895691 
0.005876016339679761 
-0.08341799069482744 
-0.3887086301650388 
-0.04949262849850515 
-0.4864802473498099 
0.01589363984361974 
0.2501576428410242 
-0.4664586807181553 
-0.2288330591489105 
-1.474481673296905 
-0.865462613677371 
-0.5576995732492316 
-0.1269383596458911 
0.3050979499408438 
0.8209119737876831 
-0.412214647462159 
1.090379850524384 
0.0282534064719635 
0.1673319656303022 
-0.4516996406390514 
-0.381968168846594 
0.2317636449791884 
0.1103676322628502 
-0.1860223519751888 
-0.5267900622129015 
-0.09716719312470641 
-0.4759780055225377 
0.1899832192740632 
0.124181829349352 
-0.1896949045004826 
-0.3187576870941011 
0.1256931125739432 
-0.6235382466968047 
-0.3798359650699811 
1.164416873958007 
0.1228893653536555 
-0.2244981596752656 
-0.216859959113392 
-0.201923640029197 
0.326243859768336 
0.2525469625694199 
-0.1385762050407538 
0.3032971975109988 
0.2147057806837231 
-0.3564439649347199 
0.2458344623292456 
0.7089592534893016 
0.02706408030637727 
-0.3270117733608438 
4.611123116529955 
-0.3109728784987987 
0.04230777297105674 
-0.1338070827090269 
-0.3604878188780158 
-0.06471926437276219 
-0.2287264564398851 
-0.191791990382574 
-0.6287649688282111 
0.1815618979769105 
-0.4306745077471821 
0.2122550749275203 
-0.09221101637370799 
0.4161099160160217 
0.01181634745853958 
-0.05064924681831625 
-0.03413946464656459 
0.07137954890817327 
-0.228800793445845 
0.2974351169510096 
-0.0227479723967338 
-0.6517196039354186 
0.2814431491377966 
-2.497839994213303 
0.2840861558455408 
0.9015215080588673 
0.340981674000256 
0.02277954175665036 
0.09311102536309943 
0.120201455106677 
0.09647250906865622 
0.06401069217841619 
-0.07729895353677413 
0.1629360032471803 
0.1531366066677564 
-0.5418832420040209 
0.1010375999978795 
0.3498886609218892 
0.01366712750656831 
0.05475337750721276 
0.04169507461033123 
0.007977449486852431 
0.03443031159399559 
0.06463970164310204 
0.5408931128134348 
0.2304247878353942 
-0.9291736645338939 
0.2632147881006904 
0.2276423775242487 
0.1181763919926299 
-0.09557987496133108 
0.05357253288926273 
0.2829103808993355 
0.2566081083027163 
0.2312526779743586 
0.3560029663819148 
0.1770084867867727 
0.138151778283602 
0.007026280051351981 
0.06679029978155034 
0.2134423977267991 
0.1210202444503138 
0.05261739751214995 
-0.04735107153202574 
0.08878012288532805 
0.07470700689317383 
0.04604747903110969 
-0.3095983113283283 
0.02547627047266452 
0.02166881903797521 
0.01367946810936546 
0.04835639195011908 
-0.07267332129798555 
-0.3437382712637747 
0.1361610957820746 
-0.001036652303854847 
-0.004961165829957814 
-0.1638212151169054 
-0.2994977867270595 
0.05935650571869389 
0.2336325367076365 
-0.02560820414052454 
0.08067898337338635 
0.06994614316184011 
0.02780302810414955 
-0.004000467038454971 
0.09150091171537106 
-0.2822825045023168 
0.24221851296368 
-0.001516947947660757 
1.012202085336859 
-0.001023286796954809 
-1.209249407064339 
-0.02176069953190237 
0.01637846839439371 
-0.3461533367701751 
-0.3151976713005155 
0.05307195752031221 
-0.00125752458710916 
-0.001547452565883282 
0.08050161107715226 
0.5493772509974169 
-0.09852310420937579 
0.05367019245381181 
0.2887785671464885 
0.04950358726449597 
-0.004922187404362746 
0.05181306202268415 
-0.03031702735103115 
0.2416635244380864 
-0.3929409093931416 
0.1892840022903659 
-0.0218658613618759 
0.1478797376801428 
0.08966071958322347 
0.8127411325392084 
0.1523230332958406 
0.02205970722471131 
-0.2747556192031563 
0.2747761439761103 
-0.3399072931979609 
0.1336549803398289 
0.1275101142345638 
0.1471318984559211 
-0.03160781872847145 
0.04267369435214509 
0.1877053878140068 
0.03543474570612681 
0.100866563366979 
0.05973712440633258 
0.08046974167142512 
0.02380345584103195 
-0.07519176895145929 
-0.008977686703771103 
0.03438877470737345 
0.02931167436494624 
-0.3949878431544779 
0.09677806492707947 
-0.3807540426041108 
0.1300921537969073 
-0.5808374919456252 
-0.1619180154396264 
-0.366937529778472 
0.02641725570152881 
0.1457002906385418 
0.1446635119120893 
0.06133521572271726 
-0.3909248532890894 
0.01311386625774284 
-0.005088358276154987 
0.2675491398516605 
-0.2192667174868434 
0.01365204562420272 
0.07955865670629297 
0.02772433997085647 
-0.1729131304052883 
0.09901110581677133 
-0.1017151573566337 
0.03064421408078377 
0.1509351834027157 
-0.1110823587303397 
0.8907547852132967 
-0.1289236993364992 
-0.146398395452238 
0.6368856660008372 
-0.5439096487631429 
0.01679083663163758 
-0.102446957897986 
-0.09760194844941328 
-0.3711710690538649 
0.1883708314440549 
-0.02673788789932896 
-0.02877840297868753 
0.4263537379416522 
-0.1755004870860107 
-0.03134600230043885 
0.03413566888130708 
0.02307488660899732 
0.07549053658683308 
-0.2496560065781212 
0.1045715318495905 
0.03897240220577857 
-0.2848658947080315 
-0.07961714439139415 
1.856482629732629 
-0.02987464570138666 
-0.2965618317250267 
-0.02089014593800808 
-0.1213735271833649 
-0.1193199964259765 
0.01587190121581077 
0.02502086888640029 
0.2504541887720262 
0.1788879181783994 
0.02999903631420625 
0.161110889248046 
0.3012509428715531 
0.2387822808887052 
0.03345413445513191 
0.02963476419765345 
0.02854616835352885 
0.246626950214655 
-0.5618599621522423 
0.2208261161898454 
0.03303405124604797 
0.4383767163406724 
-0.05924168031686048 
0.8916370793552413 
-0.06801870274220925 
-0.2006254404454946 
0.01333765805993049 
-0.1097667192437646 
-0.03686349859903305 
-0.03316535610152242 
-0.03041615796063304 
0.1131925893577638 
0.06649134690729325 
0.02634042731811545 
0.1003154589857221 
0.1221511097949285 
0.1010957124099678 
0.02626727172071674 
0.002553138661082191 
0.007354364249806223 
0.2603470120876081 
-0.4964463972976696 
0.1145936026127143 
0.008466377413686462 
-0.277908521370804 
-0.08126239521167963 
-0.5072265319451251 
-0.1451308011662031 
-0.4013528920188286 
-0.01691129203442004 
-0.0875146934181061 
0.1098215098305644 
-0.1453750983827997 
-0.1515125945452829 
-0.7156529519992457 
-0.3447575660060023 
0.06768667331267281 
0.05421199173226353 
-0.004730540207522806 
0.4136171072755688 
0.1481210214527129 
-0.08959091807671522 
0.0122796312809709 
0.1927292996938291 
-0.2471722542459746 
0.02356655696573581 
0.01794047990394968 
-0.04374011508631598 
0.02319070027673086 
-1.678479070734688 
0.02668659520064166 
-0.2312375537352412 
-0.2770755671784492 
-0.007983639643513438 
-0.03765111015306475 
0.03785319555277579 
0.03777135265584684 
-0.09660585327499063 
-0.3850685266450082 
0.1033018878165953 
0.3460763624674997 
0.2466810718801294 
0.1875471525345743 
0.03046916314669794 
0.04472813376130323 
0.03155587936074304 
0.1429885484563931 
-0.1927705978124829 
0.02088468370565645 
0.03336299591017924 
0.1309020102573046 
-0.02591120122439376 
-0.2706045584294253 
-0.01930510447902947 
-0.3914778610712924 
-0.6925967068432287 
-0.09275890460436971 
0.009087345959091844 
-0.02178408926915583 
-0.02022170089036305 
-0.3299885470783243 
0.1903613976445743 
0.006010366324985176 
0.2163019239863851 
0.3303074350667474 
0.5188540659519908 
0.02290148524174267 
0.05528164087677316 
0.0675005825784763 
-0.0009824590451969553 
-0.02637436481542078 
-0.0603358778339925 
0.06630883924952299 
0.05635099024974013 
-0.04147239907940831 
-0.3998719652780892 
-0.02153523392029657 
-0.513982792316354 
-0.3898278030219083 
-0.05848757104626075 
0.2975101691314791 
-0.001669006041390463 
1.033796668201137e-07 
-0.03333010929913494 
-0.09108391646035717 
-0.007353245363742516 
0.1808311266937451 
0.3669828886816837 
0.1623943453938185 
0.03864223532859133 
0.0947220965372594 
0.06336854788011509 
0.02916308640546839 
-0.1038575044218889 
0.06370260412644889 
0.07184373162029516 
-0.8617897305291051 
-0.2282970508558791 
0.3543184080394414 
-0.1589508922776101 
-0.337064735321255 
0.1199839787045714 
-0.4704054019634476 
0.008437542087919966 
-0.0280415079642814 
-0.01580257824436581 
0.05672765763197263 
-0.1179972090934178 
-0.008399603741548876 
0.09021721030672535 
0.3009123316299404 
0.9992210629836973 
0.02220196011565756 
-0.009234755436278896 
0.07504700131950687 
0.04588240771003844 
-0.2092057939046579 
0.07337126280348875 
0.09147727252858495 
-0.141605809147924 
-0.1038534472782854 
-0.6427221799146201 
-0.08559957062272569 
-0.1614836430474882 
0.2357941988337265 
-0.1597163568524737 
-0.1370236689083987 
0.01625220063726314 
0.02545826051361011 
-0.1176416462018228 
0.3250762850933079 
0.04126137283151682 
0.3688233467183205 
0.3466671134032252 
0.3206303580283651 
-0.0231574038732607 
0.00854473996795312 
0.04755253045859871 
-0.06019106717219189 
-0.2018014122695301 
0.1644730639781414 
0.05466589016906341 
0.16538790141542 
-0.0001810294005361764 
-0.9920090846829366 
-0.02727135022064562 
0.1669468976775523 
-0.07645089087137194 
-0.4811469597970637 
0.03363391987610138 
0.1000520339892341 
0.1081899378885567 
0.03889400958524132 
-0.08617222848918654 
0.1187575841946441 
0.2940572122290545 
0.1825898830970749 
0.2194924944200699 
-0.0196621291655377 
-0.00732977969754842 
0.01784740447923505 
-0.01446797163121049 
-0.1663605335911058 
