solver_type L2R_LR
nr_class 4
label 0 1 2 3
nr_feature 6374
bias 0.1
w
0.1929792553361444 -0.08502925126516901 -0.4317535023566539 0.2757397858567548 
0.05389041975096411 0.0758531524510356 0.0005509324386243387 -0.1026083311705095 
-0.0955980420816982 0.03154936557987872 0.05076026882257943 -0.003711317299775936 
0.2249635226755 -0.07253341068347513 -0.4260017732979428 0.1746749358766854 
0.509999368062622 -0.1340936844539862 -0.6217127235060317 0.1035065215608835 
0.2045662777411073 0.04525957035513006 -0.3808769649003028 -0.03620726273756254 
0.4585085420262266 -0.1048528528388217 -0.3808928821196615 -0.05831092445635384 
-0.3627347065134511 0.2463473132391146 0.2417456294613559 -0.1920929227755691 
0.05269153712098154 0.1196382822072877 -0.0917948505971842 -0.1986955993449805 
-0.2455359574723855 0.09385350667487211 0.1748439150854351 0.1205515659269533 
0.1305133955530043 0.05950942552919036 -0.1294870396795341 0.1916453874709009 
0.2704567618651059 0.01074022238906301 -0.2307174572936811 0.1339765566642937 
0.1520031052920636 0.1677758691454367 0.4217632593635497 -0.2333687744641103 
-0.06738868160013027 0.0811538454339447 0.3172158990715314 -0.1468311193862737 
0.1065382780263611 -0.04677043205425457 0.4871028244689485 -0.1534837084504401 
0.0045757110588995 0.09207675962878975 -0.5429786906166203 -0.04229747689409538 
0.08755438735371004 0.1350382031657981 -0.1732311505605976 -0.08752154636691807 
0.2676298752675248 -0.1372785055962551 0.4255090550905392 -0.08192908356709636 
0.04662707874515565 0.166611861890381 -0.4375723655272194 -0.09214489266256358 
0.7771347660224667 -0.01343976883596377 0.1511601181139976 -0.1916970435607302 
-0.1760985952953275 0.1391375465116279 -0.1534768772394207 0.02308694091794162 
-0.03852847425939208 0.2418587526521201 0.1386286153427298 -0.3367021664632054 
0.579730208805604 0.14424622913393 -0.2851478179662195 -0.2859406818644843 
-0.1244901535000887 0.08549001233302948 -0.3641950960267353 -0.01140529358055977 
0.04083693871833674 -0.02856036350714106 -0.2697899868034533 0.1833629786313177 
-0.2595469160679521 0.01131048728629011 0.1363755457459712 0.09389653253352094 
0.222104721764708 0.1448739004129473 -0.25852971747119 -0.06123329951780974 
-0.4503826709454384 -0.211504414390831 0.3730069265603502 0.1671909142779893 
0.002424170159012229 0.2230336838418272 0.1728807858930761 -0.3235380827651313 
0.08502261056853913 -0.2165634247263739 -0.3175076517583519 0.3947459115445037 
0.6838363144973993 0.09846533888345718 -0.1747228908364429 -0.225248093337291 
0.0009599709205045989 -0.002320716521191528 -0.01586467044334611 -0.00346555564705091 
-0.06984438978464472 -0.05703140533373396 0.1190844453863061 -0.06355402144173265 
-0.1170300819753675 0.2138668625205365 -0.1422108833163984 -0.07252192771555184 
0.120288339787429 -0.06321388920654775 0.06071654523162066 0.0533954908783597 
-0.0718835367941275 -0.03001628321804693 0.2559099288091123 0.009360919365560135 
0.003203403493653574 0.01015235050833058 0.01677292705054404 -0.02395001003797861 
-0.171104715277837 -0.01156188281293166 0.3503441419656741 -0.01389971207243494 
0.0439793854796019 0.03209206352735656 -0.1141638716879483 -0.04193433514233761 
-0.01363678002915104 0.02039816593507761 0.01026728752596117 -0.03442449346494292 
0.08560842001147183 0.3292541477034382 -0.1773379660068156 -0.1818749071644376 
-0.001458277885888964 0.003070157151002811 -0.0162792642761718 -0.003265176061235954 
-0.001773831321552926 0.00220676441780991 -0.01579893271441731 -0.002755469337977378 
-0.008447619675857606 0.005501780678714774 -0.02929750078670915 -0.001480301302403764 
-0.006483382511414656 0.06701224862082662 0.07881610135971009 0.0105561504401178 
-0.1360111743417259 0.01878069938130313 0.5063680193874629 -0.00522580763115121 
-0.00395604834895092 0.07891405873146771 -0.3351655763577384 -0.02127147795688492 
0.07884355750768519 0.0842573717376582 0.04946731940189352 -0.1161940380310008 
-0.1167465060389715 0.04699817850210602 0.04201933146482768 0.04896789288844702 
0.008820773710026385 0.07885997728504447 -0.07619574159213435 -0.08305808964744472 
0.3092992987567394 0.0468055933965871 0.05713015785582238 -0.22473295793886 
-0.3958854464748474 0.1474311597900963 0.1434491098583361 -0.06533945837011466 
0.1559662539005286 0.05937354530607898 -0.2592236645821747 0.07192062311855416 
0.1949505886803536 0.07550437451343441 -0.08303664630997783 0.0002801830865583317 
-0.4029454873603739 0.2631207654580911 -0.06801213348676285 -0.08456366606766275 
-0.3461951265891438 -0.1872836054905095 0.344337381551181 0.03471391916873226 
0.02108248130485663 -0.01367972306884401 -0.03583039173804972 -0.003036648422234934 
0.05553958011531966 -0.2812177786507163 0.3493662019113481 0.1181446366997523 
-0.1765910144462702 0.2522434852547961 -0.02772679278396621 -0.1476564921262805 
-0.1517405364312086 -0.01548509793004278 -0.03312855754545035 0.04724377921468515 
0.2807960232794011 -0.1682960220343388 -0.007942151522796183 0.09001076620635558 
0.286649669246231 0.07749805180925862 -0.08479754382058033 -0.04419975401811683 
0.3304894802854833 -0.2900373990213802 -0.6403754845091059 0.5973023376605066 
-0.3668454603960594 0.2431816425597825 -0.06856962354965021 0.008135954428757676 
0.01943526767169557 -0.1744856332419219 0.03939905668221583 0.08900515611983853 
0.1391144225196884 -0.04510550966413276 -0.3059663015091196 0.1236276835576135 
-0.3185943416242216 -0.07588178413692746 -0.02375019340104744 0.1169878343908083 
-0.1924116299710817 -0.1793993415550587 -0.2585180959325707 0.2402796458239792 
-0.6510162942648003 -0.06109336447450289 0.3313820337365265 0.0292299611796826 
0.1317608073272279 -0.2038893900221666 -0.4202650804837474 0.2503958258615124 
-0.3590935633278352 -0.1885743622745538 -0.07016351209286661 0.1996870977793147 
-0.2893475658932688 0.02914541943427174 0.1359003820178466 0.1737443937866308 
0.1195087232509795 -0.1334738198269731 -0.2523286580184932 0.464607540277276 
0.2703395550997449 -0.1592612936643879 -0.3402873925020831 0.4208332425072226 
0.1235406676447074 -0.1384475102215249 0.08576335809435964 0.226522865806445 
0.2123428914219923 0.2655171749444072 -0.01706179183193417 -0.2569460743628925 
-0.06752322632131734 0.1322302673731758 0.3680265744167433 -0.1984403565527224 
-0.4087514545543816 0.02477961868337574 -0.04235361736578307 0.1290264342686162 
-0.003527053530383912 0.01742315710205366 -0.05895157665485402 0.04763527437738206 
-0.2508651681391625 -0.08028718365191563 -0.05876093925795593 0.1696203670855196 
-0.08319454486242329 0.04376028910982368 0.1234069245804608 0.01321486714830933 
-0.9014312412055286 -0.2065966318995069 0.02611571226033635 0.442458070807429 
-0.01545744629976922 -0.1428064626568905 0.2276143900037181 0.04322042010280543 
0.2905598308996035 0.09060651081114131 -0.05442841333056608 -0.2463319221450873 
0.1416780405212046 0.1857128611784129 -0.1586767579473334 -0.2466764645343238 
-0.1691991087136895 -0.2231203132606742 0.08323111690341298 0.3357108531251791 
-0.05624681875470952 -0.000105575380081047 0.3166058504723248 0.09095145894994359 
-0.2570502932531298 0.006996625289077687 -0.0755787424245541 0.1220876798300729 
-0.4814387733997111 0.122678491101068 0.3258218509467499 0.08578428482763509 
0.3702038281841316 -0.09806695117145757 -0.2660075802807462 -0.08220872310537376 
-0.2009824559362954 -0.0005834357009590117 -0.08133554758107792 0.05132320699479775 
-0.02570482622483636 0.003109243668261438 0.2372379471492992 0.01791944751060451 
0.352848868251305 0.0823185932840554 0.003457841753703422 -0.09757700121253375 
0.4436660579775659 0.01696339071452241 -0.03360540681779032 -0.1140758226264643 
0.0006664681000540136 0.03230365973988677 -0.03242126372473042 0.01575951718644777 
-0.1798956442292726 0.00391412011671557 -0.02571553034172544 0.02521094213557527 
0.1449155403655682 -0.09509326382433804 0.147119729816036 0.0440927940783494 
-0.02369865624237785 -0.101557747615017 0.2795690859655479 0.04224109708829939 
-0.01849012182582681 -0.1205247152968266 0.2791730283456608 0.04936631124509382 
-0.2040654019068558 -0.01837288991449132 0.1876479300639514 0.00221360679690325 
0.004011941333037795 -0.0176790923488645 -0.009642636191051587 0.007242472111784631 
-0.1716298269296226 -0.03296077573812512 0.1520441527416437 0.008932846929914006 
-0.2929591684452861 -0.01284791986748984 -0.04747983259647732 0.1079201933048663 
0.07054381522233874 0.0230134842095139 -0.05507706861804303 -0.01042303568433492 
0.2985683676296237 0.03357041062823404 -0.01850195364479884 -0.09473771696322034 
-0.131259078889152 0.1123998544983351 -0.1547979907837799 -0.09210267673282023 
0.1404677659926108 -0.06202781775821598 -0.1505935977670895 0.003493883882249341 
0.04004252632549327 -0.003879680692495994 0.41356918015893 -0.13011962269368 
0.2083477333144224 -0.07771085653859332 -0.2570950740987413 0.035955355786129 
0.1149809597757276 -0.02316320521907963 -0.142739901422997 -0.06038424555835991 
0.2342945036623886 -0.01008927834461477 -0.3896590034792965 0.04032170463822239 
0.1056742698792188 -0.02140503112085321 -0.2405460947674707 -0.04729448838172161 
-0.06317243123213612 -0.2390494649063727 0.0198734733880367 0.1838595737072841 
-0.07669800177135849 0.07081067586704123 -0.1202311806845472 0.09550414101309693 
0.2074743946811253 0.03884191573096265 -0.3003162018675274 0.0376133997852895 
0.2359067233351468 -0.1889018448650998 0.1402387202272123 0.1317708709007681 
0.5610056574631722 0.1747308018576864 -0.04225735548618004 -0.1910940233769816 
0.03946907773035879 -0.1901976031613636 0.1096243051498038 0.1372077459000833 
-0.0959007492860814 -0.04267341748723192 -0.03188944066892892 0.09028655035886535 
0.06245870398474329 -0.3046186492626302 0.4232478961935195 0.1530618579153197 
-0.1066184968891681 0.2167093432920384 0.3139694367094504 -0.2213394658532614 
4.77706734863248e-05 0.02109497768167439 -0.2089959498272689 0.1735289982809058 
0.442130074263589 0.09446243550647271 -0.7730404128037616 2.293798361049369e-05 
-0.2649687687457478 0.008415226984996717 -0.1858664970255673 -0.03435095067560408 
-0.07592777659893149 0.083406220710368 0.4280365648746092 -0.2155455280550693 
-0.03367285515593683 -0.1340675112075115 0.01442491910223621 0.1387681991725873 
-0.1080374773994538 -0.05930153793205849 0.132209755608547 -0.1124801735822243 
0.3916785151346988 -0.04524078618156427 0.2522306301311991 -0.2114540705063593 
0.132831687055408 0.01135965315747662 0.1380986488301733 -0.06092499609400859 
0.1069756579661402 -0.0213663249480786 0.3516688439113683 -0.03744624894144341 
-0.4609624050798694 0.1138238645486329 -0.1773017327787881 0.2725511951032661 
-0.05980953272847891 -0.06186923773437309 0.3924590930165278 0.04870656274533616 
-0.323172242297032 0.02562263059743901 0.1693986735206867 0.2005160117025765 
-0.1953273284126776 -0.1282200771002352 -0.5339993378775778 0.2960951399741537 
-0.04972139126407061 0.04828207416664695 -0.05785583927074577 -0.04993221434554389 
0.06819376520438508 0.1113408058257277 0.2667380785554544 -0.2061002509744907 
-0.2744978839729945 0.09037876799658515 0.374702454664163 -0.001284545914622866 
-0.1196598530077723 -0.02135336793325738 0.0355094344628473 0.08445961695243913 
0.2255416275079754 -0.02463036156368264 -0.01516505824457298 -0.1841628592175764 
-0.02112602128793398 -0.06644969259643739 0.1828480419797263 -0.02134700677001703 
0.0333786651984505 -0.03295378525217417 0.3055439649809445 -0.1213232443350075 
0.3430193664899516 -0.1240146661235172 -0.2410576555393203 0.1216083189367971 
-0.0690942662424138 -0.0606913308658065 0.2315232657787313 -0.05447828762044415 
0.206876107463472 -0.1475558239436842 -0.05384000072363693 0.01272213711753978 
0.01203465183244364 -0.02482683887327693 -0.126336511119169 0.02572514027796946 
-0.004457761456940655 -0.01265361818788735 0.3000555433877073 -0.07392266239155559 
0.1320431287178774 -0.1623039395728769 -0.1627203464663672 0.2245823244444389 
-0.705060399084266 0.07370327891489091 0.005544798725593582 0.05841673980776035 
-0.2352851874638565 0.03081399248836532 0.2883955618332301 -0.05536775520349257 
0.005559307721384171 -0.02507075637246969 -0.1230329179401437 0.04087790650945419 
0.3745431445687007 0.1553725328205461 -0.193888665436143 -0.1699572912265255 
-0.4776329626104357 -0.2781588799857962 0.1701341787823071 0.2918212603160275 
0.1094203285124326 0.208812425334865 0.1132320885408351 -0.2491998633945821 
0.07274220770060584 0.007276411554302001 -0.2840180682507288 0.06452013907679509 
-0.07173681378727148 -0.1446260600306587 -0.1824844923590302 0.1317799963322499 
0.007895349766648126 -0.008723081860631535 0.01331222008706728 -0.006242304681389476 
-0.06068437459483929 0.07540863208728668 -0.1728761318298536 0.1333089018140816 
-0.08557169481382645 0.01352794060958904 0.0571860458310316 0.02047782243664098 
0.07044702828994875 0.04000662749459891 -0.2389118932354869 -0.003208945786399139 
0.1228840777375732 -0.004113963797180661 -0.02066249421134955 -0.03362271658765602 
-0.1068182515816938 -0.07091989376461272 -0.2218581873798799 0.1322991466182974 
-0.04084615489529345 -0.0385168862625612 0.2324327269455496 -0.007223296180785202 
-0.1779083627224301 -0.06001474573449149 -0.1959324072261832 0.142263205734301 
-0.1310272619967822 -0.06128123371395209 0.04724908042949191 0.07723483821891748 
-0.04444406116749935 0.01296821549462687 -0.01051223784074614 0.008932464883811435 
-0.00295242787503937 7.51040462296491e-05 0.06210755852931553 -0.01487513652487065 
0.002632035590157173 -0.002342870959156721 0.03590803260217566 -0.009413343927814044 
-0.01154221450741212 -0.007724258655527383 0.009880833439803732 0.002815606021656784 
0.3260786092613025 0.0880538961205493 -0.08294291498403038 -0.2815929126731766 
0.1999970218848574 0.09145054243443369 0.3071490318990331 -0.2535721801694354 
-0.2110641863627744 0.02961171913810038 -0.01974861948485962 0.0546932425061099 
-0.1319211224356249 0.02893828616373199 0.1752882626624961 -0.01068944802342986 
-0.03336602982323773 0.0104022373310734 -0.1568018972406026 0.0341724492061173 
-0.1675798516221076 0.02534725844970926 0.04849868243385633 0.0438569177800267 
-0.1685403703297232 0.01727118611521493 -0.1285663116214051 0.2441058007296038 
-0.3546726552305952 -0.1457367935668963 0.3268846198137365 -0.06316049744516498 
0.4353417899525608 0.001196104501791564 -0.1062188921205713 -0.09293119698709074 
0.1508128301941537 0.01923540089062001 -0.5606697306232442 0.0639418308155603 
-0.2434046399042152 -0.1231194192917251 0.4581236886817093 -0.09557190792356555 
0.2265037547385635 0.3361278568971932 -0.3602842489960398 -0.2620287020782709 
0.01241640720326094 -0.0115225519497733 -0.08255394379968314 0.001787297826005015 
-0.3392572082565128 -0.02685060348346869 0.08479239758560303 0.08091971878679756 
0.3431676559201363 -0.02050120524172615 -0.1010386412766371 -0.04478197254466643 
-0.2113837909532629 0.07913418798041348 0.03390608590943578 -0.05950977249032322 
-0.1433915040746238 -0.04565928916794498 -0.003115196614836174 0.1084019782703214 
0.5322032426081421 -0.0107565798613118 -0.1370393389335934 -0.06928782928046537 
-0.3636397330528114 0.002076032628305201 -0.3419905749887228 0.3090311074548889 
0.02537541524875608 -0.0416945430963731 0.1410619635042663 -0.0608036476182361 
0.08308495493022353 0.1111904838640241 -0.01741198046449146 -0.09102790765540912 
0.1838430638151371 -0.07181978389122599 0.0267629261523669 -0.1008694788468015 
0.04060680550365483 0.04833371365100599 -0.1107868732210399 -0.02744923949207623 
0.2462043011394867 0.1489234033365826 -0.2084646185650866 -0.1492483017191086 
-0.2485800480822667 0.2220787723810937 -0.2650466200839071 0.125056240812595 
0.2473378720780246 0.1229264874103315 -0.1184734601659843 -0.1478209322146204 
0.07953064241551748 0.2348681404565495 -0.2551919039537098 -0.06081621113779669 
0.03450307992246076 -0.09943697457041745 0.1784342827787174 -0.1228824203324912 
-0.19205562462694 -0.05205808627757545 -0.08372043241103441 0.2213289977098224 
-0.1715990574237376 0.02876171320739444 -0.1759271882269784 0.2370125979332739 
0.08587234090457094 0.03321134379861837 -0.3088479027852764 0.1995277156671658 
0.06915532898695156 0.002437454658397254 -0.0184814812428164 -0.06463160922367137 
-0.2358286028300476 0.1003924253504875 0.09492022929667175 -0.1672150074938556 
-0.0905969758979583 -0.007416044997319822 0.1051557624464401 -0.006277432147467014 
0.1441085072146159 0.048782203619906 -0.2297402981891198 0.02065557776697021 
0.1896975306336486 -0.1680095959645128 0.4310986000761244 0.01432786490198485 
-0.0686978285110364 0.03513005034315615 -0.1750651422213881 0.02836188461383862 
-0.5062610235932937 0.1709257361767848 -0.04526931249538604 0.1119925264639611 
0.03853712277007562 0.04311742765785131 0.002449829120319512 -0.00462247493253851 
-0.01121917004897505 -0.07212983219512194 0.2689112441329484 -0.02488978569916635 
0.1941758591022346 -0.06509681071177403 0.03954984042564071 -0.02251911128740254 
0.03635457857220124 0.08322919887397456 -0.1053695537190975 0.009812874011456665 
-0.2979772664037976 -0.03067823904187469 0.3145258893228538 -0.0613232278919607 
-0.08600075622077652 -0.04913554676133345 -0.2275237448947558 0.1034932700746329 
-0.1125173842344449 -0.07702007871944505 -0.2610811215131164 0.1559476143654042 
0.2350745148371939 0.1362911703842746 -0.03614853464506228 -0.2339285698786147 
-0.255713506146155 -0.1101156070847384 0.1412170349088698 0.1821411014116124 
0.04248989579896256 -0.01858130566747556 -0.10542018843153 0.0007291357179510482 
0.3289269386687242 0.223915705015443 -0.3492408331381759 -0.2365230396944211 
-0.1888156762103371 0.1186305956190371 0.007749672453539993 -0.135214097847308 
-0.1060210481102057 -0.04998436791435441 0.1141892433722547 -0.04921860266706282 
0.04494260524651057 -0.04007420148385839 0.0518233521131233 0.01494030754660918 
0.07307481980004341 -0.04302266272648998 -0.3595119475155981 0.1397455972815045 
0.2560009259212912 0.03409730798161345 -0.2662207728530407 0.001409383572659428 
0.1150340291967409 -0.0221134429248639 -0.2684483635476287 0.134565695098759 
0.2408659715125446 0.1134330693022919 0.1562593657517622 -0.2028515903425418 
-0.1526318261882384 -0.08105991122743104 -0.09769172940460992 0.2244271220982998 
0.04457803578947511 0.01557840464886612 0.02970221933752809 0.01902000671589605 
0.06287874574575612 -0.1283473561272088 0.4017097548286099 0.1155114837860475 
-0.2724618931180496 0.09196170441413735 0.1665619214354109 -0.07969509353863977 
-0.2250605071238181 0.1340241883659189 -0.1192037294272567 -0.113532848845359 
-0.1872454870098195 0.1280965689053846 0.02765266293137469 -0.1086291491239668 
0.07742202266278506 -0.06115630967402948 -0.3258745201770947 0.1160238703182367 
-0.08442910658208551 0.05713886755346911 0.3287289162746149 -0.2012148187709883 
-0.1189350959857684 0.04965592552506444 0.2111462063129822 -0.03582827215492312 
-0.05178559441316553 0.02484505805325333 -0.5275208296273494 0.1270549443055984 
-0.3879038012855655 -0.02716419173852156 0.07026746236137182 0.1288522432733445 
0.02568344758302531 0.03918377077744507 -0.2364850747250208 0.02166597193082009 
0.06880745005425708 -0.1333352858350958 0.09042140247235553 0.01445772148962256 
0.3373482937556128 0.075205172891899 0.02532986483429309 -0.211152504559073 
-0.1156580054273606 -0.02495406054359999 -0.3641241565299393 0.1961352620802879 
-0.2179523844370482 -0.09486526431320923 0.2284275701421973 0.1435279131324408 
0.1872255622595832 -0.03046839811499026 0.03151591900757567 -0.07365086192247909 
-0.1133103972543011 0.07380896031571875 -0.1309500931537115 0.04691665016195092 
-0.07128838510804673 -0.07619362082708181 0.246110505232757 0.01429319353009075 
-0.2234244333461835 -0.01092241451710016 0.482099057495838 -0.09035779906962253 
0.06227991278683103 0.05305718576005566 -0.1842755348449505 0.00774251040631877 
0.06622155020934874 -0.05519602367685079 -0.3425054517483674 0.1600114499962059 
-0.1704495962900874 0.0009940319154994012 0.32472487197011 -0.143860192208984 
0.05395980415245095 0.05125365906000977 0.2747803444779975 -0.02624443646188155 
0.1046084972342103 -0.02707834321108392 0.008508133766972634 -0.02899707485747553 
-0.1548419610217136 -0.100981425191683 0.08246711165388071 -0.02107307473781489 
-0.03982957047280033 -0.01427626610993258 -0.02387190451158979 0.06199255248449807 
-0.02776092228257149 0.002295550951946787 -0.02522277315189398 0.2097216714909784 
0.2094755194512632 -0.02102729300396346 -0.1811279446656173 0.04673868540833746 
0.1782764584352409 -0.09705656815173314 0.2019955733194327 -0.06423463510374589 
0.2642661152875646 -0.02613219172068022 -0.2019291326015724 -0.06245185813382513 
0.09890555873044676 -0.1440785340188278 0.5172657604478873 -0.1538754144613786 
0.1978743611168553 -0.1044363785168776 0.2234462261826326 -0.129232267113099 
-0.8880509527320717 -0.05945632294853054 -0.4192435018925838 1.003515901971389 
0.1131822602309574 -0.02714401577338608 -0.05816250710771356 -0.01360203571899951 
0.1190990415313873 -0.02664076068205536 -0.05520195712252994 -0.02064083152824897 
0.1287776665276296 -0.03939443814920684 -0.1329884353404303 -0.009127078131929358 
-0.1633633185178623 0.1696056696876321 -0.07640402883581918 -0.1290030658201937 
-0.09542533549924029 0.1263135203940661 0.6727998516069773 -0.2196415367392954 
-0.07791599733863924 -0.0308256282236461 -0.04774383528650474 0.06427758350335835 
0.06268394370260941 -0.06545850251965872 -0.437480280906919 0.1444666135590911 
-0.003958906599620773 0.02043951618129639 -0.2504962559575997 0.01277186860670939 
-0.00538665357031663 -0.05316967334076809 -0.1216036146559624 0.08770992492750124 
-0.1825073683288874 -0.09254069384266425 0.06006313396769635 0.3955800131333086 
-0.3490974671407888 -0.09379241194222025 0.04929244124654954 0.1539303026992032 
0.4622283202603931 -0.2588948355028837 -0.1241050591357653 0.18732076914785 
0.007443939251063595 -0.1949763969649196 0.01157502995452473 0.2135338188256231 
0.126404913164243 -0.05327471677873135 0.01031219681797874 0.03706427988992251 
-0.1120086842011079 0.1964859075133382 -0.3767263350224842 0.05962920888206326 
0.0176077199098222 -0.03818137714766837 -0.06387865868443265 0.02287700974766079 
-0.656791038201725 -0.06447198548829285 0.189539121140825 0.3074011811983807 
0.5705887767657047 0.1194853569140953 0.003542014447942748 -0.3305255318176654 
-0.3020629108199552 -0.05083658001558125 0.3312888255045349 0.01667496934910943 
0.02904274753226209 -0.108625469748386 -0.5132154542126927 0.255088044257728 
0.01745307727765365 0.1597420646791962 -0.1262046685387311 -0.07459859442568077 
-0.01457670853552209 -0.07464818878570938 -0.002339336685843796 0.07345572870199621 
-0.1582588623212076 0.02207264122303242 0.05086685497742598 -0.03569918977225962 
0.1872035248110955 0.08697363538990747 0.05550481739450148 -0.1481842642183542 
0.6011137566615548 0.1600112751739395 -0.4107276312807379 -0.3015724281759083 
0.1447496744892533 0.0469017990363049 0.1138377844154539 -0.06162853719584659 
-0.06713512744058601 -0.08537696084758278 0.01246981218773686 0.1077474162224015 
-0.1166504443551925 -0.02193727372059628 0.3074400122175731 0.07021476421827431 
-0.2228315762384286 -0.1661365535640708 -0.07809869865496974 0.2120898102547835 
-0.2174797544371211 -0.1266823189906607 0.1137249269597846 0.1847402338512895 
0.496593200810876 0.04196325288812112 0.37645487639723 -0.7356828794019842 
-0.01163880275076632 -0.0686817342910441 -0.003985285161985486 0.06609767723211324 
-0.01391914879510144 -0.06867088100488562 -0.005658016441389177 0.06917196188437665 
-0.02609600590138187 -0.08386541712524324 0.004002415396678748 0.08235648332275945 
-0.09655286737467214 0.07454727564596808 -0.2695044025199704 0.0542153601499554 
0.2772468936410994 0.04285692790388233 -0.3511506571398726 -0.06291421506997764 
-0.2782799221666206 -0.0216350344030035 0.2758960678943232 0.1262959481198459 
-0.1848413726264988 -0.04270419539719012 -0.0119805967949843 0.1545256820039348 
0.119534539723168 -0.02962307358284853 -0.1586902178728452 0.03683632125813927 
-0.25061214776069 -0.04514951053460816 0.348043573401525 0.1153640882928161 
0.1671367162592332 -0.004366573250227932 -0.1490265100475947 -0.3783279866157542 
0.1193571426245235 0.03077589347836819 -0.1535178082676928 0.06739194840189192 
-0.127796251350423 -0.008138131616224696 0.2613435037583172 -0.09045671661582567 
-0.08418499085968555 0.04211762028797562 0.01612800868007123 -0.01092898519934831 
0.6123198722284425 0.0330483393212686 -0.6422469789465264 -0.01859388164994451 
-0.208491307697654 -0.2213603145870509 0.2686661078105804 0.1362526101460257 
0.04087407059928525 -0.050645732355378 -0.03435650755761067 0.03341919629511546 
0.6415753105047882 0.4087887998730914 0.5014870776153242 -0.8832451530224126 
-0.3495558750921421 -0.5573871712046207 -0.709119477458543 0.8135349186052934 
-0.1294031169583741 0.3172028832468463 0.7117062913951435 -0.2768170722999314 
0.01902730403408897 0.09009219942042951 -0.3292119498692049 -0.1196803418582702 
0.2397852826744874 -0.1453488683743394 -0.07224439713583038 0.1632650377459613 
0.01202278250121731 0.004586950823907999 0.1204290076873357 -0.02787983532694545 
0.04618140632993281 -0.09163203685583916 -0.0442876455093048 0.2231700164891008 
-0.04615101388672553 0.01252370112968661 -0.1223419308260962 -0.04045333263346695 
-0.03570726588886852 0.09501858175626973 -0.9371663835655185 0.08193605440607821 
0.1169606374085338 0.1005860859210933 -0.6614697742885083 0.005130296977775039 
0.1521825421178424 0.08329690756358003 -0.170645645102146 -0.1117099294910471 
0.1421221191476608 0.06630332156900375 -0.2962418771152476 -0.03101384596080004 
0.1238894388880996 0.04414484728847626 0.2070463931064156 -0.1505197043515798 
0.1638899939925565 0.06579268836223252 0.02188034781227358 -0.1322343375787214 
-0.1494434964890761 0.01951121141276291 0.1804521191040165 -0.07227396474788134 
0.02839282621968345 0.01022255539930883 0.07598872382140098 -0.03587311425992699 
0.02862349812226461 0.01019255918878369 0.07555507165988071 -0.03569118245441631 
0.04081600758556593 0.01485627860177865 0.07654550424269128 -0.0471941467241689 
0.0657861557763208 -0.09381631938961225 -0.2306510406073791 0.05913034548148449 
-0.0001266315411267331 -0.009986675553264287 -0.0114174296086516 0.02320597361823916 
0.2202370059906035 -0.03469519308700722 0.02730043841403675 0.04619425591443779 
-0.07193613177338197 0.04972428921001992 -0.1962438179805857 0.04431704188788389 
0.02151528655070959 0.01841967718102295 0.1568454153910314 -0.008037586557320913 
0.09383247315590613 -0.02223330578423623 -0.0286087675646069 0.04580889030410548 
0.0720410984592153 0.262232976602388 -0.2786945754312498 7.519884041560871e-05 
-0.09212373268769009 0.263804005675726 -0.1342549190661061 -0.08626288351137394 
0.1142022801405244 0.2279084227338062 -0.07866507211046812 -0.2143136392297847 
0.3116962186838645 0.07698923653490868 -0.01565803342748174 -0.115387603734214 
-0.3069872921222567 -0.2554139073171079 -0.4147060314967853 0.7969315633681603 
0.09472578448500146 0.004161226583769243 -0.03417660393566133 -0.1544072543087651 
0.01609423517906634 -0.01698785415777732 -0.06808526954111324 0.0192082895597202 
0.1029049540210558 -0.06545173044489661 -0.5866822645532677 0.1664926168852464 
-0.3712381052386403 -0.09169440278790428 1.075509184448198 -0.06401779700624699 
0.5072616151952718 0.1508775243552516 -0.8590537678583099 -0.046762250357328 
-0.3556460436502608 -0.01011447960344801 0.1508975182028828 0.01731018101981346 
-0.0792031481688433 -0.04025416638650862 0.01499035056552132 0.1081734990582197 
0.01410097326121838 0.02404062255276232 -0.04783790645013041 -0.001186403049032832 
-0.08369061942645471 -0.1521967654414739 0.162106095643788 0.08159324696651606 
-0.09225207242813821 -0.1672638951269937 0.163238735376195 0.02890089443036778 
-0.1886661169538961 -0.1238553259872921 -0.1571232267086709 0.1718156297614719 
0.002265413191486945 -0.03340411456736201 -0.3225518434522736 0.07826247473257716 
-0.06521905527792071 0.02932245581270499 0.05828805256476372 0.001632887306879488 
0.08501006202263799 0.0180450819514491 -0.2827685188102618 0.009934511561256071 
-0.09063950937531229 0.05602301259983655 0.2324682514441593 -0.03477104576253298 
-0.04010573424547 0.04768108029637183 0.08186646791094335 -0.02273961208722113 
0.2381509560071641 -0.3894160112777951 0.2580814464496572 0.192822887343085 
0.0147423652585778 0.02871360498801757 -0.06792842214097228 -0.002904203107455921 
0.01442783726249363 0.02912072075356848 -0.06815430290878856 -0.003105733045836837 
0.02366429473303019 0.04031294452166843 -0.1067158597076332 -0.0007823573638574071 
-0.05920917332486449 0.1611494371270336 -0.06047583253313057 0.01316917807610315 
-0.004074374771221604 0.1393219715815725 0.06259742459809391 -0.07652694772551918 
0.06216176576807021 -0.06320208139037839 -0.08752408220951424 0.05521299068077992 
-0.06941208963011228 -0.03990090245293269 -0.2209497171401533 0.06241103725500278 
-0.1266312342392124 -0.0101059815078476 -0.1579936392868136 0.06696285007415104 
0.1011697184099224 -0.0499028080563838 -0.06344249925971335 0.01044549468387881 
0.4098564535372 -0.2303943809895904 0.102385214676193 -0.1678250410049328 
0.04911719247971715 -0.2039899486215853 0.4556617570611159 -0.03637825372145424 
-0.216744737089461 0.05532184928105462 -0.523301298399809 0.1317062506688526 
-0.2879406616494899 -0.08089238042440557 0.6607662915547725 0.03863033854407058 
-0.8489055723980433 -0.2989907798294708 0.4124210582253198 0.6655186315314964 
0.02347055313652075 0.3017242342559047 -0.3684482048730235 -0.0851078550043215 
0.0005279561914964957 -0.008122285974825004 -0.1065460439961554 0.01905704760926696 
-0.2911341929628854 -0.3474588334992386 0.4377198983244173 0.1594487421030951 
0.1502813664322501 0.4651365950059494 -0.4253731536521593 -0.299397806604535 
0.1018242603356892 -0.3369682644543222 -0.001457877724101102 0.2497501117282053 
-0.3129156578109571 0.1022730258682451 0.2817704366624127 0.02412725415068334 
0.2724533702337834 -0.0103891210491203 -0.0575470212594212 -0.1411623260084552 
0.02593302574881306 -0.01943755299926292 -0.04086971567515503 0.01080028379244157 
0.3185467887259962 0.2629614833851315 -0.1541332548223458 -0.1782335966303397 
-0.08439022356254118 -0.05676927994980727 0.05704589702278829 0.03124438192621209 
-0.2849711986477064 0.1379989947826164 0.3148723182434005 -0.01408700298295948 
-0.04863452288281157 0.0905846896069032 0.2688579305206894 -0.06049595374190298 
-0.118325861601861 -0.01015833537651126 -0.008270457077563086 0.04855532557563095 
0.110016391300942 0.01870259155566397 0.1092847876933389 -0.05693399396651906 
-0.134700138455418 -0.05171544447392031 -0.1250891967616642 0.08937777057161315 
-0.07140611314665546 -0.03469197611622968 -0.06411070197696164 0.05234740432691221 
-0.2793110736333697 0.6102595332164246 -0.6807343068068831 -0.001684715898925577 
0.03265691088147134 -0.01899945965329721 -0.02388513744076674 0.005964416741312918 
0.03289701844440678 -0.01964864950239472 -0.02312011913229187 0.005968248064758009 
0.04893436335926226 -0.02711558596899058 -0.02613080849118698 0.01231333625196031 
-0.05421302667828409 -0.1002702015126942 0.3054593936917251 0.007182408194594876 
-0.01191064350703228 0.05457860133268767 -0.4538269599138665 -0.06743631591478487 
-0.0541489803509417 0.06964983543040808 0.0290654120080144 -0.02059604412942758 
-0.4887352391919839 0.1521157109430365 -0.1070716423021829 0.001989742466698057 
-0.1876950541207733 0.03474475313804865 0.09042602060118787 0.004965811594611469 
-0.121833374148462 0.07584540028614044 0.06692974389146876 -0.03486365950031601 
-0.4033399194235453 0.2406759779104876 0.1182248169598449 -0.1242908209291279 
0.1372809603360949 0.0342742787267057 0.1163277802301318 -0.09328160094691576 
0.412467650440953 0.1571003385583617 -0.5459374596001558 -0.05589537143121049 
-0.002727370272394152 -0.1260390366964152 0.4553381115797651 0.08796145121622571 
0.3672211246395288 -0.2551347725178315 0.01048479033289806 0.1129565059407147 
0.3580488503129091 -0.22601678054168 -0.2195522067285819 0.2268096923124952 
0.001570461210918709 -0.008517471927177786 -0.09768278619227644 0.01737926882640102 
-0.04635244913682114 0.2077928743297014 0.01763513380251249 -0.2522945113371775 
-0.07436109457064094 -0.1278944498134678 0.1182874755770841 0.01678534455834959 
-0.111494275386549 0.01651745655577263 -0.03146180789700825 0.2049842229372672 
0.3768433368354157 -0.04084433487847963 -0.1671348703924515 -0.07072540824239165 
-0.419074150398707 0.1095677341461416 0.1050085418655024 -0.08898291540054004 
0.006557923133696564 -0.02667719620616707 -0.1172285778296736 0.01450333653868888 
0.131541342283465 -0.002396615648774535 0.001035814628481083 -0.07570214679925896 
-0.02862361359944324 0.06743425971217214 -0.1163340700564201 0.07349232858615715 
0.07657152126796356 0.0008119587064311255 -0.5454378969048694 0.00805296147763266 
-0.08872135587211175 0.1329395345141491 -0.2977109949458473 -0.07967348750551795 
-0.08010388663347857 0.07730553369225086 -0.3067559838383456 -0.04210457615325058 
-0.1420044109317709 0.1441633701900574 -0.00185507691135429 -0.09133811292935159 
-0.06303176310921731 0.04357951386385427 -0.2557041116123542 -0.02103702282416442 
-0.09828302142242745 0.08156411361598957 -0.2287278256861965 -0.04581083733661991 
-0.1626578717501102 -0.2943601719005899 -0.3297486225031982 0.3539689736903319 
0.006231833103717003 -0.02071362575455629 -0.0984343966207873 0.006545946064105603 
0.006494193567222147 -0.02006534989895736 -0.09767622514304904 0.005816301873229152 
-0.008877504724575946 -0.02457491597178232 -0.07684679273953876 0.006868832199184786 
0.00184452098150548 -0.08211227852243336 0.1624647811134927 0.0223286013444794 
0.177160853787441 -0.07831811147129558 -0.2841821923618306 0.0183072208009268 
0.08940514452416802 -0.003445024136332093 -0.2478471153576073 0.01527853304993617 
-0.2812936938465792 0.1456596984078735 0.2019508377393691 -0.1177505209495318 
0.2230907249610348 -0.04053511667694296 -0.2770840390254203 0.0247629994308595 
-0.1432687630060271 0.08346077651425646 0.09510047886308817 -0.07438291186427494 
0.4529668697296523 -0.2640559412089903 -0.2827541938125363 0.1431991921687091 
-0.02146313505215977 0.05172824524985619 -0.1419028309006725 0.0765430372945374 
-0.1783279291354496 -0.02556353566044375 -0.004152796749676509 0.1144251543080813 
-0.1579602651602012 -0.08251353480831089 -0.1413050569255918 0.1968789843041296 
0.188717353357837 0.1631529911235065 -0.3029515135136432 -0.2680375907329145 
-0.1195087025633671 0.114229930301785 0.2796757328423572 -0.04961048625240862 
-0.01486111141438413 -0.01623569390047682 -0.1206963955288128 0.03628042919716615 
-0.1500763079787229 -0.2073859570020731 0.4538565031963791 0.06976415502329439 
-0.000944141641229173 0.1532439782942298 0.2119169108975009 -0.289088988595246 
0.08165727377760273 0.03143341580545551 -0.4828111790659161 0.3419530046885716 
-0.104432446642905 -0.1378763101647396 0.07079292432606059 -0.1080586399808209 
0.1389767229530799 0.1813792960312585 0.01694971434264933 -0.08658475668505924 
0.02714360519215835 -0.01349008578074012 -0.04105220042933496 0.0165493250056214 
0.0400137297741268 -0.02073423932312463 0.01044308423822516 -0.1102149843356745 
-0.01280713889137421 -0.06074002327830201 0.05439554093813323 -0.0675104544739959 
0.1807580301385483 -0.07035487807703271 -0.1533407411766211 -0.02420104961351569 
0.005838071291532717 0.004291580821855265 0.3154554054233694 -0.06645375368805657 
-0.02610575932879344 0.0103574973457319 0.1563048890743541 -0.07037547703097286 
-0.05723687714410153 0.02910082134135801 0.3830012909769379 -0.06091737562245422 
-0.03052830700875809 0.009751796689247241 0.05823867597719971 -0.05282247746075172 
-0.04784213966459591 0.01878421202972824 0.1799056210612956 -0.07044094868416322 
-0.1227700675650878 -0.5664800865134015 0.1415984389287218 0.4682833410050975 
0.01920622784134481 -0.009213924819133591 -0.03242080860847792 0.0129279624896599 
0.01930043576186656 -0.008448152040260426 -0.03258269916637126 0.01230579040023444 
0.006550364962494651 -0.01750927981884723 0.03560213438528353 0.01360713406614017 
-0.1004781649422343 -0.1323300661511595 -0.0062187455876287 0.2054681827794177 
0.00467235967227779 -0.09786981610355869 -0.08245049904097922 0.1453268791044137 
-0.09381309170420887 -0.09741554018141471 0.3583262823184003 0.06903669823472064 
-0.2265425215361488 0.01299541976156773 0.3284898568874232 -0.04061470680412985 
0.01228151923799079 -0.07875826445095581 -0.06327766714918727 0.1167979701069243 
-0.1478557586060682 -0.03842911646591177 0.2256692826033593 0.009490648732676193 
0.3625008565568307 0.04901211094485922 0.1839473958534282 -0.1983494912020105 
-0.07991409718368343 0.0981864646861996 -0.1928906217428935 0.01152592805481654 
-0.2393436740912462 -0.06450423311730481 -0.1688573823153658 0.1588600367072385 
-0.08398822596736055 -0.08725422071811478 0.2132548858782559 0.09403968506851482 
-0.2105281905714468 0.0391082824702674 0.2830485456775825 0.1430607081986883 
-0.03410738781119661 -0.05048962306682773 -0.1024233706636756 0.1268916466172511 
0.005439479296896441 -0.0107612293423032 -0.05318513614427021 0.0099086389744197 
0.007678695453879405 0.02168540456664282 0.04098744304835243 -0.06471429010268408 
-0.2161601331253699 0.05332709623912488 0.2178448499177196 0.004516467941564711 
0.3216981078258246 -0.1025494405281283 -0.2751630872221499 0.02582776731271594 
-0.1014709252788614 0.01339178721952981 0.05239322010612579 0.051698195223615 
-0.4014215567839405 0.1592538698028556 -0.002647069329531553 -0.08246704354794195 
-0.002136565689400355 -0.002564487807665445 0.01158491043925237 -0.005200781667251717 
-0.1106699965462196 0.0605323487544255 0.09486959924923384 -0.07934349559678895 
-0.1307087831804757 0.1054190322756468 0.01063015067328008 -0.01219125018938258 
-0.008542764792001263 0.04762979898451804 0.2646478965471289 -0.04758324245192468 
-0.05867275169316432 0.07590228703065434 0.02796574541767294 -0.0375634523998712 
-0.04046454811470601 0.06108810789203281 0.1150752451389229 -0.065106896507929 
-0.06226673345609566 0.06672249456166367 -0.06758086282706093 -0.0240148759130802 
-0.02058366985436687 0.03619853943547627 0.1168216972119172 -0.0568700927376282 
-0.04168717663816392 0.05797283868718842 0.08565719953342003 -0.06210496005568462 
-0.1610511373488789 -0.08177487954065005 0.4913780075205697 -0.03876837330395225 
-0.009118329114559147 -0.001082483666384195 0.03336434796459155 -0.007950202406294953 
-0.009023372951814376 -0.001019058371828555 0.03299093245485245 -0.007913272773798764 
-0.02009957733086204 -0.006621416403417749 0.06011405867395295 -0.004993602585522497 
0.01628674256786338 -0.07625375149149105 0.1340433903182629 0.01483214536353359 
0.06469052998988342 -0.03601712238331676 0.2627246181433655 -0.05089517667692209 
0.2522499417622252 0.04908881057342212 -0.4155499292277995 -0.009818398112890975 
-0.0505188872628576 0.1477888197082012 0.08954578301321428 -0.09113070677876765 
0.1165678099965193 0.006756050659182327 -0.2698568550204017 0.01958810465128162 
0.006102708362852741 0.1170742953261532 -0.1369586054141336 -0.06662556750556026 
-0.05207790675687305 0.109331114954269 -0.1271044782685192 0.172911516059653 
-0.2075484415899598 0.02297383367499434 0.07905633140903248 0.04431135121254301 
0.2743186205686189 -0.1498093542205169 0.02137402234537323 0.08305319590656413 
0.1729614419290788 -0.09569837480885494 -0.3158351694107485 0.1142569263358139 
-0.2079629424136722 -0.006103611453861888 -0.2581858809435593 0.2482289786714958 
0.6239665727661328 -0.1680122320170694 -0.06668489060842833 -0.03864905420052584 
0.004853529695335494 -0.006218699633134407 -0.02647769417348216 -0.0008517271844273137 
-0.02393521110546133 0.1592377811545742 -0.3592357585771321 -0.1023999966571863 
0.179011577890957 -0.1691743539701317 -0.07276112956715687 0.1121600768057093 
-0.2391557716804874 0.04700789073087558 0.4338866235736888 -0.07451379655596262 
-0.04232217611822692 0.06605316482071352 -0.1635422324089539 0.06260763292315125 
0.3643550913603203 -0.06510707594509188 -0.3466291435464922 -0.02909644810643998 
-0.04529493487862787 0.007675350027585355 0.0171626898502126 -0.003293433987628919 
-0.07528302209103187 0.02415135648524435 -0.02090945744507097 0.01237433784503315 
0.2386541446237584 0.04225770324451929 -0.01560286415125343 -0.04079148285829796 
0.2160633401159429 -0.115132936105202 0.4716982293021002 -0.05464329777275488 
-0.1645868449412703 -0.05826708496192686 0.2538680374311469 0.05660127230930749 
-0.1761262391834599 0.005463980489596325 0.1036190762581688 0.01728434565490682 
-0.247190194391712 -0.02149948890528039 0.1040478939303885 0.0782260893364343 
-0.1354411099793444 0.02808246117472126 0.02043319245357855 -0.001913052698383867 
-0.2024753696900492 0.01840741080722346 0.0521771785715816 0.0236191941415679 
-0.04493887363354081 0.01533376395582312 0.2122752260915112 -0.1227310804397288 
-0.05871760606253158 0.008505568402888819 0.01946926810491001 -0.0005549213284233685 
-0.05865841031184266 0.008490760066505334 0.01923830781709453 -0.0004293101995273639 
-0.09561402213195039 0.008282672557384419 0.02130832311157541 0.00947679097757201 
0.04948676704004891 -0.004623276895034245 -0.1317846973040435 -0.006842858671180127 
0.1759577996495184 -0.03730513207931497 0.04554147447375238 -0.05330524325353286 
-0.07950225243351042 0.02925284951937665 -0.2970541455215399 0.04819817333282805 
-0.1570776407548251 0.1000720134537555 0.01608174755249791 -0.06463780734285998 
-0.03037280497437354 0.01676911438685304 -0.1600315241970418 0.02846266202976019 
-0.1653857664348798 0.0544393047232679 0.06583315471463268 -0.03158677987160779 
-0.1351062760171262 -0.05925966248646963 -0.06548315949131291 0.2066315320573206 
-0.2068492097523746 0.01690444693877278 -0.02337592761959156 -0.01759281295503486 
-0.06271531780535225 -0.02219104919743944 0.04201633856930477 -0.02220889967423156 
-0.1008801674344552 -0.05622850280988104 0.2470554990867238 -0.01935738057318694 
-0.03196582667144513 0.1370507744719733 0.2667417338324866 -0.1690165325805482 
0.7573629270528062 -0.2400923092393337 0.05868416969224455 -0.1077766281204116 
-0.005851308745482395 -0.006571502921520376 -0.03714018795145842 0.007732694759563562 
-0.1449552677270148 0.08515799720396167 0.1236181956345444 -0.09454023331440642 
0.3754791873896022 -0.02634905971779274 -0.7001225137439894 0.04031353254699117 
-0.1953433905619404 -0.1124156351290536 0.3429104402400273 0.09250236109157946 
-0.2660865208979601 0.1731237320750137 0.2679099523603089 -0.0975083188050571 
0.3483740337414702 -0.1429571250711902 0.2647923568606804 0.003055941882000101 
-0.0600558169005962 -0.006172475933380837 0.03834922735706676 0.02512983507199755 
0.1420149770255672 -0.05358454670260446 0.03937746026723746 -0.1003862304678018 
0.03955589105422289 -0.05623559033700623 -0.005594637099218223 -0.01346504396675632 
0.2193292117802504 -0.1447728249570697 0.1831194165923551 0.03174292871471663 
-0.06076115084647103 -0.08763615803715394 0.4256173817831612 0.04183051329426202 
-0.2428684602426333 0.004801211679814772 0.03551292896169771 0.03384005244754114 
-0.1546995515646191 -0.042214099738804 0.4088860829271123 0.03482889872235758 
-0.2503370203142964 0.03792146082262432 -0.117977717248598 0.0225241553689654 
-0.2777007906349894 0.022192865377265 0.01497937762101929 0.03131620151156216 
-0.1401553734267829 0.07368548153522868 -0.04967632516602086 0.1212745040019731 
-0.06914467368324705 -0.005560897137653687 0.05750446729148556 0.0280525612862116 
-0.06889666898476304 -0.005652810246507455 0.05748878613179995 0.02784551082661118 
-0.1241229460610522 -0.003613119658182655 0.01370601129721577 0.04710021148368838 
0.1743849594604512 0.004726421231666726 -0.1818038554900524 -0.008834864773340516 
0.1961019248348671 -0.0580518130708096 -0.08134415279450866 -0.004621753500973477 
-0.2503032820215403 0.04835893251052688 -0.1036607736912951 0.07729895764537523 
-0.3288158049889455 0.07191908795372576 0.1102724839424785 -0.006044363011306407 
-0.04932163515370629 0.002789766082236265 -0.2392196052858103 0.07028152269923574 
-0.2903461222853928 0.04788487083264781 0.226472533222597 0.006155421728323187 
-0.0595659608733573 -0.02969521897848284 -0.0385110798973512 0.05901367540914133 
0.0528522388009459 -0.1222008996628781 0.3429726860663591 0.01036594964418858 
-0.2836352323405322 0.09794613581718656 -0.3184190404260032 0.03488980440838298 
-0.1316846376170012 0.08021740407612273 0.6059628975114779 -0.1795436839928375 
0.4812083512342052 -0.04061476942294677 -0.2562084787375746 0.009160270699521566 
0.06572884737097286 -0.1547952790388815 0.2059396523775298 -0.1260205862169048 
-0.006182663795427337 -0.004404970369433369 -0.02982003417370659 0.01245874214002584 
-0.1437243791216453 0.1448459178734682 -0.223474665283121 0.05981786595866023 
0.1795516466355064 -0.07880675192374638 -0.1354599066236967 -0.08594500591948147 
0.02181180058297457 -0.09411122796825608 0.07012213919171059 0.06504623710811062 
-0.2804456384168427 0.1787794973791267 0.2426577792071399 -0.03784962795789071 
0.2363635216827219 -0.1562548438026853 -0.02077012901540459 0.09115421704738121 
0.005163450076964793 0.00236911459195676 -0.01761620809484762 0.00838449875620001 
0.1422731608721182 -0.03110892799403378 0.06242201499546926 -0.07012212877653802 
0.08185208424171628 0.09576795573905954 -0.001815149808742581 -0.1284340924377088 
0.01541033122458778 -0.05676895562626887 -0.0712836800247372 0.01953352854543455 
0.02400195609648089 -0.02508613236326778 -0.1078861996103875 0.02419960254088713 
-0.1261787381293845 0.07879110274911572 -0.1037942362919816 -0.008497553586369553 
0.01972730878433645 -0.006249990531604813 -0.0886200089813157 0.01863453318637725 
-0.1484307315670312 0.09597436866369669 -0.07971721258730122 -0.01744282724835717 
-0.1306243207916976 0.08633559674503834 -0.09874385236372189 -0.01064867580954674 
0.01067201664653392 0.1388970234473574 -0.1105566307186985 -0.1404497584289537 
0.003746099935669111 0.003909672151336036 -0.007716305398108655 0.008684323887220543 
0.003675457382152239 0.003706029510435472 -0.007558077696106032 0.008903966226238879 
-0.02128058747557744 0.008830581532961145 -0.05929883935797148 0.02254610407446904 
0.2955691490918508 -0.02909566931204829 -0.4054685356199164 0.0563796968228038 
0.3103458644094275 -0.05281350034449252 -0.3804896064205579 0.0419945710039063 
0.245420450632306 -0.01594917215963319 -0.165531898907404 0.005756446684743169 
0.3320190031538143 0.03502425791592329 -0.01261184298533467 -0.1006065019831261 
-0.01447876574465861 -0.05378850109066802 -0.07078906844493041 0.1456287552564485 
0.2920651265971818 0.03144997581902773 -0.08712376866390177 -0.09084362872596854 
0.006513343211187714 -0.1553534624076809 0.1252113019127488 0.04219369208833055 
-0.07478896775716459 0.06789345576832866 0.2042820470583336 -0.04722175719651499 
0.2710747422133336 -0.05449212626146267 -0.6026715980648433 0.1800513986939069 
-0.05228078787575593 0.08125194412662122 -0.06797014445474886 0.06294395101817633 
0.2683782056086326 -0.1195098266527821 0.03674279765978375 0.03684281658188853 
-0.1529553766088436 0.02622159609619151 0.1662214562411428 -0.07915836187392493 
0.002406163379224081 -0.005233001162062269 -0.04998821102355663 0.009645335030020481 
0.1021057525754293 0.003373674519911777 -0.7189870166627625 0.2005939018223117 
-0.0314355821153311 0.007159163028426489 0.3713035097826136 -0.1753384939700277 
-0.02287831370454933 0.02239282369185097 -0.05995003434275195 -0.03803819286535244 
-0.02297159456487859 -0.0602192598824746 0.06508293686352511 0.1787843282186513 
-0.132798436650897 0.08308757785206984 0.1342302504879393 -0.07186613052171879 
0.02831328454500187 -0.006918697792924754 -0.0124722385591625 -0.001606127098764478 
0.05935196287883475 -0.0926307280842215 -0.05709040538213692 0.0722164979334739 
-0.03727878613172293 -0.007208188500358811 -0.1490447190034191 0.1389890670923981 
-0.004078194972439478 -0.1147930797761628 0.4522503198777845 0.007566626890540596 
0.1533464966079123 -0.0123136830505366 -0.03140183949114901 -0.01741792362266944 
0.09935614102239493 0.03117930236983707 0.191905861639188 -0.08518869797697992 
0.1756730671510503 0.03512595770069094 -0.2290209831427297 -0.02296478279293477 
0.06752659244425338 0.0399837241074353 0.2320785521049773 -0.09330652911067761 
0.1017627370187634 0.04370424442339125 0.1496721244678728 -0.08781329806166957 
0.2067892206710668 -0.01657655051462325 0.1824373808601343 0.001056768118180928 
0.01842196263477598 -0.004774858342654804 0.006821955730857479 -0.0003614557522642148 
0.01800613466384848 -0.004729527608328146 0.006500192023593522 -0.0003514247103319823 
0.02837851654932243 -0.006280684347736859 0.04051050252820972 -0.0009019051771685502 
-0.1029927806568664 -0.01676343874673236 -0.3593982630499992 0.1018125241173096 
-0.01584822773444971 -0.04833326040637397 -0.3590850781980666 0.09596287014957917 
0.1145294285216112 -0.03422400272878093 0.3167482496891931 -0.05013303053160117 
-0.2281750548450576 -0.03033076692137184 0.1732176879655543 0.01843250248640232 
0.01402507735876871 0.009301578448711037 0.5669533315817625 -0.09985458791641316 
-0.08016923105587727 -0.04339449930551237 0.1491782460264759 0.02033011562591672 
-0.1574221206432927 0.009793756897937362 0.03794561575641778 -0.04696775340780903 
0.0004812582176669349 0.086156301428019 -0.5168334921349785 0.04146149638345115 
-0.03173986591730252 -0.01681440340696342 -0.02141972501954353 0.01968155592154115 
-0.3844196349668027 -0.0592976396128046 0.5284846493000441 0.04069431776272115 
0.292487903511748 -0.1767534083975431 -0.06229492313731489 0.1222319661440441 
-0.4135576458029077 0.07217836105772117 0.2639295648514045 -0.08215724238987887 
-0.01815475132910053 -0.008956528410079077 -0.03410748497261275 0.01466044651624734 
0.1091146768209764 -0.08164196743514905 -0.1862248393685675 0.2001202326439539 
0.03848649527778988 0.1040996377096571 0.163948902573322 -0.2666241843679679 
-0.4281583634769706 -0.001138588631574358 -0.08528868958008014 0.1775808035970332 
0.4685647788798348 -0.1107948515820815 0.02834459265840803 -0.04495592949653543 
-0.2408978315283329 0.1160457316264945 0.01755871515813345 0.1035336432565818 
0.05005496004558609 -0.01467597176536469 -0.07855571431623548 -0.0001753679083352583 
-0.1472714555551141 0.1021320872855218 -0.06151125040918325 -0.01171417540897134 
0.1237438507656883 0.006076278077651833 0.02384456632072681 -0.03866234211297301 
0.01537264788222457 -0.08286481734386321 -0.1346334323814328 0.07463217450171152 
0.02287748340980191 0.0004254685935523508 -0.05309148507237523 -0.004577959377571027 
0.07950851398275678 0.04025298529324924 0.2029274310440067 -0.09532066448114605 
0.01668291401217497 0.03914924498154389 0.006920773853577894 -0.03959056862672716 
0.09985247891460874 0.05500451930986257 0.2983771178025166 -0.1287350870976364 
0.08088444353403931 0.05296018401866317 0.2296536409605031 -0.1093529146851509 
-0.2367368921567784 0.116489744990483 -0.2946210610599292 0.0007484453047961923 
0.04407306745665201 -0.01208366420802894 -0.06396376118365776 0.001571307695719661 
0.04434217447076468 -0.01224451125211993 -0.06341410822911438 0.001579129565138337 
0.04469291137831183 -0.00638021845532084 -0.02483438632900254 -0.005085249566905016 
-0.2791846678086815 -0.06065461437677066 -0.09589215265368718 0.1351758599407324 
-0.09629658097352772 -0.0962882735943196 -0.1910458233770122 0.1254030313395038 
0.06378790443989156 -0.05969381586601367 -0.01709155342932336 0.02856530848674079 
0.04622291275993679 -0.06872000835789423 0.05278712247757243 -0.00438606812609134 
-0.01640919395361197 2.506324463211634e-05 -0.06417154525982324 0.03104576844596212 
0.0169177903176388 -0.05969175032165393 0.02778989576401565 0.006797386623689785 
0.07260422068723683 0.06454390571190678 -0.231411229491501 -0.01124904223773404 
0.2614969215757229 -0.09156400705979532 0.150808617332448 0.002189922290469497 
0.1118260475031926 -0.09819558067723172 0.2946289656653662 -0.0382538014390439 
0.02865647107227703 0.02927904267424816 -0.3289889159137936 0.02178115945132226 
0.2441587427993031 -0.1031503409068273 0.3196428772105809 -0.1742073358687568 
-0.4637242834318667 0.2842608192039278 0.1542588248403378 -0.1957917054660261 
-0.01175589627457081 -0.005272935505765444 -0.01302820304167489 -0.007161094084099796 
0.2339875271997623 0.002473545415459336 -0.1078622254265501 -0.0304316395169667 
-0.08942486364250907 0.05148863034439329 0.04570933982953854 -0.06105425128563045 
-0.3124010947858117 0.02127367611157386 -0.3045404510775196 0.1239251793822584 
0.3754776338398867 -0.08906247842279218 0.4609044970188041 -0.09483306683330431 
-0.2091728825610709 -0.02479149297631201 0.1374355704767205 0.1258865902308934 
0.06782241589471774 -0.003753847605797136 -0.1172556244206075 -0.009909020226200691 
-0.1752074310956628 0.1434585870172306 0.003710045123799938 -0.08599160633339685 
-0.17794389051384 -0.0584089687122625 0.002946255318283041 0.1021173799827753 
0.02478712978766262 -0.06918792159202956 0.06622181887091728 0.05048940083614162 
-0.03929186867571929 0.01578835193228938 0.188049800097641 -0.01994316231139998 
0.1230594783528235 0.04093671941916658 0.1112644267797116 -0.08923983442167845 
-0.05566022118306093 0.04933582562755239 0.1813250057500197 -0.04542074803150653 
0.1755747936863117 0.04832329870005177 0.0802892768571061 -0.1103621216479423 
0.1261768258576135 0.05082406725318308 0.1091794561338907 -0.09932996721393277 
0.2007527901789993 -0.002291577589046327 0.1336046946537486 -0.05348234480874518 
0.05980996107287644 -0.000839964938930577 -0.09520013327143252 -0.009404485432220855 
0.05950102703156309 -0.0008281383968276024 -0.09532753755447712 -0.00932779298458657 
0.07522994597015643 0.00468256819680889 -0.094016388352143 -0.01917636403499466 
-0.2643387772729778 -0.04550745744396514 0.1831068922386029 0.1013480611072665 
-0.04309579993328939 -0.04884343375182611 -0.1176106064332307 0.09099053940196201 
-0.001410699368211711 -0.01258866851630946 -0.07759565163411879 -0.005094405288618976 
0.07431154436563045 -0.0185712137112082 0.02005691815693468 -0.01907274668674063 
-0.1576198646979815 -0.002501134889546065 0.3327987913061542 -0.01509423334037853 
0.04743124429854364 -0.01509706546553616 -0.1736414717719848 0.003892102527848137 
0.1404489443075581 -0.08631892891845441 -0.07391127125008079 0.1238477040918322 
0.1946925422221137 0.06593566497572054 -0.2092800012358174 -0.09442935611959061 
0.4388942000524013 -0.07477634910549116 0.1844480043773819 -0.1125775449157205 
0.151668404914001 0.009696027051304896 -0.2195631966098393 -0.05263516114708164 
0.1138164372558054 0.02225622538087095 -0.195406984319981 -0.09958509516684977 
-0.2632508345828254 -0.01683853749054067 -0.161351053875237 0.19045650354755 
0.01147051651848226 -0.00354959858026348 -0.03126970881999056 -0.0117514615734711 
0.234215699531701 -0.07975607492229936 -0.02250972131807436 -0.05963006565882771 
-0.3490927963263583 0.2258574663208234 -0.3470527188620249 0.0445600988531198 
-0.01921374530920008 -0.153118937207696 0.2700203048304615 0.003961688868219154 
0.3764763898296997 -0.03755310385726079 0.008819505451726432 -0.003728541142460897 
-0.4799646740375552 0.03708172380063678 0.5034678668433545 -0.009203490742117782 
0.02947945246216214 -0.01279745869396081 -0.09597192656555811 0.01163217727048864 
0.4293770512716599 0.06203776078512373 -0.1055658417749271 -0.07817940568488872 
0.0211392042469071 -0.03646363603187693 0.09606045716404842 -0.03022544938919196 
0.1036625782377039 -0.01745864934214027 -0.04248559912152357 0.0001228131881717071 
0.1103373621013993 -0.0412587351934704 0.07162294368353571 0.00778636774061283 
0.1358947379607284 0.001486573431665559 0.09132706966738803 -0.06243054870186383 
0.09160310147427278 -0.04173638125981709 0.09794938408946993 0.009023501235857261 
0.1442589239102852 0.0162797600536091 0.097857280171216 -0.08651230827960099 
0.132173909398674 0.002964098691267898 0.09787861854202114 -0.06458542608843221 
-0.1200227808928303 0.2364335262838346 0.01563301846925716 -0.01997494283987494 
0.03205081853215053 -0.01402093504536997 -0.0598037454294242 0.01102535308291948 
0.03215606504728541 -0.01435134230971916 -0.05980066537134775 0.01105765934035009 
0.04713247380290284 -0.01164120447017158 -0.08627142449026258 0.005750518293751081 
-0.3324831504478166 -0.005597023786741648 0.2548179440550256 0.1007329857108205 
-0.1469776294885402 -0.04324069819021213 -0.05940732266826436 0.1546579532449113 
0.1137165417614675 -0.005825627429484749 -0.1540138974763471 -0.04161890779279743 
0.1221036895364326 -0.02545751341003352 0.409043945264639 -0.1237476833747541 
0.2009766969301518 -0.03216167994802017 0.007014189120612066 -0.009146099434428533 
-0.03220533372500638 0.0001863074544594862 0.1856667410711812 -0.0727474764881615 
-0.1215081393541434 0.2226645081855192 -0.1662860314555052 -0.05672225007733559 
0.2589695722938094 -0.1165020768777583 -0.008709721050407744 0.02632142177834845 
0.02146527128394924 -0.08974247586380138 0.1102491552709643 -0.02800260956192053 
-0.2047926144488554 0.008852423858971156 0.5047260182525746 -0.09850910268631778 
0.217125445197311 -0.0840590460492011 0.1829267943084216 -0.07756617082058927 
-0.2150940709962813 0.06338923306040907 -0.1478465523290146 0.09640107600354712 
0.01117206020961481 -0.008450484669637354 -0.02776339741346211 -0.00881139021381735 
0.006212328099174026 0.03905092373563611 -0.02179926717503653 -0.00776398316847384 
-0.07361361606067003 0.03392644658944873 -0.07708535503419331 0.04166508493534867 
0.1025724002677529 -0.05915903083547565 0.05521203250263855 -0.04754311607459456 
-0.2172234432449174 0.008793227841118243 0.2269156616105673 0.009149566216830577 
0.2820297356985536 -0.0260636375891046 -0.3652063884314791 0.1007749025742003 
0.005367201338722727 -0.01159919677479674 -0.04078248074803877 0.006505001782553581 
-0.1970684815966459 0.07621831220104601 0.09481230839987674 -0.1155532221827938 
0.0823558870597387 0.1616900812216637 -0.1255668791629416 -0.08829042404850704 
0.0754615931036315 -0.00356853943801951 0.07853347940553537 -0.02000487801307391 
0.09297724362753404 -0.04150389702591845 -0.07186174497537251 0.03251180451560981 
0.1251261766900547 -0.0351666113076889 0.2073419107703193 -0.05193527015417049 
0.08923992096388397 -0.05224441767842379 -0.1253661422252748 0.05036009932346103 
0.1391368824502597 -0.0321372428364495 0.3332419000689544 -0.09003969842595465 
0.1261916116283691 -0.0373541722186897 0.2142569525714207 -0.05361322244315917 
-0.2821827200091934 0.16675216147157 -0.1072112283609664 0.03737349734112247 
0.003824529261316646 -0.01064691194468041 -0.02404002796959507 0.005124716469519673 
0.004155642242890385 -0.0108548377328657 -0.02389564773081659 0.005080798835947639 
0.007296567930593399 -0.01326357612898164 -0.0010150930738748 0.001397618967456183 
-0.2203108608160324 0.07685785347181992 -0.1438995178917225 0.1046751504027461 
-0.07729015866938775 0.06241918324057493 -0.4045149122157532 0.1336962968174255 
0.2084554512036553 -0.09068521452032982 -0.2167267501847257 0.07831804075476181 
0.192499474611464 -0.04163331163650195 0.1417208494552255 -0.03241211154237379 
0.2174208291615076 -0.04674427049831504 0.1288043996775292 -0.01946385880304298 
0.1199251619513107 -0.0463880237091162 -0.09252023215945616 0.03405983907222397 
0.1538300569040987 0.1016445921928474 0.01824368995910125 -0.05952242389372484 
0.006089920336745526 0.0266326493202042 0.3016270816947389 -0.1837461079139289 
0.05778574618254512 0.08572081536349352 -0.3745241761767651 -0.03528919865769865 
0.1441700056448103 -0.006635787635102143 0.08362489579388041 0.0004975294873789048 
-0.1685471694551505 -0.002802842796395521 0.4452496068100637 -0.1475877902099906 
-0.1417358010791437 -0.09084032760289432 -0.1720677594153531 0.1330198171684415 
0.01525377455372462 -0.004919346311259508 -0.005994736084171058 -0.01351331412419264 
-0.2013946242817786 0.07936047268039785 -0.2424341793593321 0.1060100006247283 
0.03572560102794671 -0.06695211991901225 0.2219079889455387 0.01299680995200076 
0.1879678152094692 -0.0173332336720005 -0.03658254967406476 -0.1238904962387667 
-0.317345411522145 0.1076371141189525 -0.0673314844057419 0.08606073240552163 
0.2447241873433366 -0.1959284043441774 0.334594762634916 0.04136253844757781 
-0.008506203256009686 0.003829664964591092 -0.01400248500526887 -0.009794539514913582 
-0.03922501213337082 -0.0892552028890702 -0.01071384162821332 0.0671449177150589 
-0.02376907858896354 -0.1029856759881267 0.1281087373255788 -0.03078697167516272 
0.1488477940786273 -0.03436875298823477 -0.1237721237862036 0.01137348879132059 
-0.003868387692620355 -0.04079118607152492 -0.1882059336323981 0.07232632652468646 
0.01024482431718556 -0.0269930426546093 0.1891436750933699 -0.02041548257007191 
-0.07104844870823541 -0.04241846566798599 -0.211282386740952 0.09710791264521157 
0.01806040904322381 -0.01844271441431048 0.403638538924799 -0.07363190903231875 
-0.007982620521594087 -0.02584486006650435 0.2286489881998038 -0.02439256344988333 
0.1846528180285963 -0.03340265513843487 0.08347391169242568 -0.1659449870472077 
-0.006063299871497104 0.006712599274996046 -0.008459624662652961 -0.01026096014407975 
-0.006426365792833033 0.006775921633262466 -0.008610846986594718 -0.009962539054867811 
-0.01637630534329776 0.00480300621136504 0.01280678881216019 -0.008902993582370844 
-0.0172450531224441 0.1386879832405998 0.4049683165765671 -0.152864772269666 
-0.06877566502682357 0.1304719247123205 0.1592476514496937 -0.05567673401560515 
0.05173878963481367 -0.06019952514082882 -0.1232724376494393 0.1020840868902964 
0.2005150251976753 -0.03371361189804517 0.09267822163965675 -0.03087910673763913 
0.07696455486660861 0.02464760808412705 -0.3863035670988756 0.0315988834842196 
0.03842830212230731 -0.02697149129557752 0.06764008996046585 0.02428810737497805 
-0.08246846545167306 0.01887060224942131 0.1407178016604708 0.03405381361826069 
-0.2598078674206505 0.2041987836701958 0.02211237781854675 0.04406196618589761 
-0.06607289516014991 0.1489204684927496 0.01712921468446455 -0.07335255860838871 
-0.2948044015060617 0.07198456433015718 -0.1218109860840697 0.05268847929089819 
-0.09068685557799586 0.1502903990010676 0.2716128768249291 -0.2491826440648146 
-0.2286962865563898 -0.05391405892792076 0.1997120108124691 0.0889016708557855 
0.01820385730012057 -0.003839661128577362 -0.01771055718766337 -0.014090738569186 
-0.04175363059966071 -0.1536853952803918 -0.1185590429920556 0.1469596015834081 
0.09135745018910391 0.09180619926638067 -0.06026156131098966 0.02094297756838284 
-0.1446614818520917 -0.02187133379089625 0.6213185800539784 -0.2048196723785981 
-0.03467483267696 0.09769492388859767 -0.4901432751458737 0.0542032289314202 
0.1369906859537326 -0.2618756959633393 -0.6111687601708796 0.4067074395390305 
0.01287224571068612 0.00346174390078903 -0.0152596164519969 -0.01643749173468172 
0.08677371779196263 -0.02830701733944715 -0.02229783753408481 -0.006478233855814901 
0.03198552264505516 0.06484802808862002 -0.1000743532428732 0.0206842320702741 
0.008640652713634355 -0.02532535972422353 0.03535686786267469 0.02736583070125393 
-0.08282649912086563 -0.02863030169606037 -0.1907280987791635 0.08856704104420959 
-0.1105614925699585 0.01264717081159954 0.1980884092108068 -0.01521296791799066 
-0.1284449382084579 -0.02480257456747753 -0.3057258769532488 0.1119644702231197 
-0.122296368219169 0.03287200681561342 0.3863752135137005 -0.06620427765091269 
-0.1238412291602775 0.01838583196918746 0.2125400373900188 -0.02145343919845256 
-0.4446975840463803 -0.03026261420665552 0.3388760087030252 -0.007589935724177817 
0.01663115020736809 0.008968374032363667 -0.006188494969598082 -0.0204185495133077 
0.01731752862351611 0.009025257719404003 -0.006778680844157807 -0.02037744349264606 
0.004652018869470857 0.007573379380545701 0.04391056803185302 -0.02061902719933352 
0.1806855954280009 0.1348376546378596 -0.3195353584392995 -0.0912166608513762 
0.07568158445413999 0.08751518456274027 -0.2743580044437529 -0.02699685165684841 
0.07767381618039677 -0.004645246145925369 -0.3306432996594348 0.03744178032906572 
0.1053617440585919 0.09320108173496987 -0.03173105851042497 -0.1411979126244273 
0.05050417048385482 0.0002342843573775757 -0.1121940973108287 -0.003280524054097168 
0.02829005565304498 0.08471571701482966 -0.2100372279034014 -0.05938216125314162 
0.06712950647645154 0.08405369981539981 -0.1335565789838336 -0.02445257144483193 
-0.2090785318336336 0.2245803499838731 -0.2749203351437212 -0.09915445590433736 
0.04431442924882008 -0.01622457470605713 -0.1203216444262651 -0.09757606458411097 
-0.1667163234234751 -0.06988791332188901 0.6641267179688346 -0.1012253991963294 
0.07685492196777216 0.214619324110169 -0.03026502006747346 -0.1770899362573306 
-0.2513712518220059 0.115839478097578 0.04503239425697707 0.09324650817450031 
0.02338485356625391 -0.004264776270773249 -0.02188896156007069 -0.01461729067805635 
-0.006505141609942346 -0.1715407418640719 0.2996297345945686 0.003373527630732122 
-0.002504993134287706 0.09729082586186599 -0.05093139225931754 0.07200338054604642 
-0.1519285351487956 0.04529730050976589 -0.06663393948249809 -0.1230543143023005 
0.0881752048279478 -0.03823371362234874 -0.06980489487331566 0.05035520502225443 
0.1684959356134697 -0.1566656737928638 0.02536757778852345 0.2294883886052858 
0.007607303071828303 -0.006055513455740211 0.03977402706710099 -0.009365939573650396 
0.07030493315517575 0.03360854975545089 -0.0927866610334428 0.02179620794415446 
0.04807553229859578 -0.2359319553821251 0.03111800788802153 0.178669759656656 
0.09376642272680524 -0.02063100080885881 0.2432443686572251 -0.0228496976108315 
-0.1067617826983241 -0.04125728233225696 0.1411020157893147 0.05962952303614382 
-0.06710024094604576 0.0230574253777866 0.182288654656218 -0.02767341980501779 
-0.1765529393991086 -0.04443117040896694 0.08026310105920009 0.08624543881527694 
-0.04377144630433866 0.05574036926763107 0.1961427292840646 -0.07209373906302453 
-0.08404984168939383 0.0274292148522903 0.1664704607211347 -0.02696849285300596 
-0.07827676211175554 0.2024692496642938 -0.2767063268646121 -0.2151656630592164 
0.007052218192273721 2.244375070890882e-06 0.04083859822072433 -0.01250660872381927 
0.007113334552872087 -0.0003092785752387444 0.0412083616437861 -0.01213516428310098 
-0.006189459235304944 0.006403411639149095 0.05481700599821415 -0.0182882212140239 
0.04514816547159022 0.144911400921541 -0.2840333305206806 -0.03216664167702986 
0.03996512777365302 0.05324559191656326 -0.2965976125471675 0.04478687705674044 
0.1239299030821951 -0.05301513764324541 -0.286938067651718 0.07961387107741981 
0.1305194564921754 -0.01675690726326815 0.2432309122250113 -0.070150361483399 
0.03126556407925249 0.01642938320079692 -0.3020706407061047 0.05525597369789465 
0.05682477012429821 -0.02376062924302401 0.02690541124412317 -0.004841574178748785 
0.2014406326783489 0.02125580199122935 -0.2573530633873438 0.03015502856876761 
-0.2502379151152881 0.09055286785268064 0.05969689685964475 -0.03278082431759757 
-0.07620260543780452 0.0242390137287484 0.002272648185125653 -0.04096105038540963 
-0.007487182833540738 -0.05299486118278306 0.3759792789978204 -0.06835462413326415 
0.1302288551715329 0.1850155386605808 0.1165711183290979 -0.3672487498379761 
-0.1785067705447758 -0.1901110707696645 0.2506382838590808 0.1189277132639733 
0.01282434019394905 -0.005881904935793902 -0.01821232411647942 -0.0007680554549245819 
0.3196623737771331 -0.1798666112385729 0.2511487191497698 -0.05129395755328144 
-0.3514703763798711 0.1884682974311293 0.06342757469088774 -0.003112649076072898 
0.01246205390747557 -0.04652456925944551 -0.1560338441422649 0.02015845308007367 
0.2350192455130447 -0.05858322570256076 -0.03368510713017876 -0.01800553836409934 
-0.2852971273649177 -0.05943895674850536 -0.001748572826516363 0.2670816234480528 
-0.008042280469710332 -0.005760333304904355 0.02146006366694382 -1.206042242811161e-05 
-0.08109837529946981 0.03891198337765105 0.07590843730862515 -0.03739095324509567 
-0.24130126477293 0.09965770653312246 -0.0007343896180475335 -0.01038716671190191 
0.2843388752071838 -0.03429994672470652 0.2523745193949294 -0.026444560664081 
-0.1015756734142943 -0.05154195053752205 0.2103178253404818 0.0647381060194946 
-0.0392772586771731 -0.002876233449106353 0.1051550241298099 -0.006628023599094836 
-0.2180574113250031 -0.05609560918081206 0.1947974787273071 0.09174069566453598 
-0.006270699714115886 0.02292727658862723 0.049100048461171 -0.04437737111512701 
-0.06784160198802552 -4.632359171392795e-05 0.0914579712966255 -0.004805190449574768 
0.2169136757772736 0.1071296563772093 0.3118814425381086 -0.3616820076369969 
-0.005923358598006839 -4.890250205936143e-05 -0.0009226827720203081 -0.001150344204134541 
-0.00625628587667153 -0.0001839902901207631 -0.001357595987002533 -0.0006502809373641635 
-0.01641939941142048 0.004443918977369414 -0.001277542478373131 -0.004886923639443778 
0.04588185038734927 0.08028578248246122 -0.3704478287093759 0.008096311294250563 
-0.02070028886791674 -0.03003483625654392 0.1426108789467796 0.07633479598817025 
-0.003020234590649407 0.005633724841720829 -0.198650894766569 0.03485010078073954 
-0.03566546641624313 0.02202758066036598 0.1536926974390055 -0.07333960721516274 
0.01118484001765737 -0.009553138111063295 -0.1404652878209541 0.06299952981880759 
-0.1183083186842926 0.03974486979797343 0.05374342879451973 -0.03622303720747971 
-0.09647555034025453 0.01242611414880048 -0.2116781299303645 0.2583635240309354 
0.04882869941468689 0.2290930634742707 0.0188506904287316 -0.2337773424520924 
0.2551545639712124 0.05675518764165907 0.002982965328138985 -0.08331200228910694 
0.119483822515441 -0.04533693165093877 -0.0304067586331493 0.09203756283957443 
-0.3672554022337388 -0.06238639132592007 -0.00221805325981652 0.07566977312589927 
-0.1531385738334223 -0.1918453223112347 0.2405141875616068 0.05218841872388118 
0.01648103030102123 -0.01031432353310223 0.07134498672481211 -0.004883285564981256 
0.1956438074889816 -0.001971277511274785 0.4057399177199123 -0.09462851060942115 
-0.04636644141271846 0.003502901871113035 -0.2951525256635063 0.02787576712455726 
-0.2148304275361703 0.01668926706724589 0.1988309084651658 -0.007951653243964308 
0.1105255536246726 -0.004223053471931088 -0.1453336929041597 0.06320559720223054 
-0.05014505120757028 -0.1125229070993499 0.08410524680328658 0.0858211706584287 
0.01849953441662448 -0.01145537589540869 -0.01234051202718613 -0.001652169432555294 
0.08155188006216554 0.1084041361302867 -0.1006471816565092 0.01318327405191856 
-0.01767517330546215 -0.02776294417955438 -0.05954779611440488 0.05755682886103319 
0.1559667347616913 -0.004394525157537147 0.09041769257758443 0.02957639146285295 
-0.2280165812186558 -0.06056022849474309 -0.0262766590708245 0.1571945962292247 
-0.04126870027802054 -0.03129574344612809 0.02788633417342941 0.02266937103965747 
-0.4264221671088125 -0.08702214338933172 -0.09040020967502817 0.2158422178373218 
0.04955443731376133 -0.01679785513819138 0.05394306682520941 -0.04283074920195185 
-0.06948395134639161 -0.03483341015188236 0.01860710414432743 0.021549741996546 
-0.05045901138339649 0.2553176370383106 -0.3130414891949393 -0.07024867989738641 
0.01861583560600826 -0.006396167386127745 -0.01788301887282449 -0.003527421572882625 
0.01861939571857504 -0.006892861589923119 -0.01723536195103112 -0.003363954636060099 
0.006722362718093487 -0.00212177574946168 -0.01525070895996175 -0.009112779646209357 
0.213975697732508 0.05264958352936 -0.1729138620382669 -0.03646263093088207 
0.1587897949775039 -0.03766844337079733 -0.07504571303975721 0.03677982603232861 
0.03694403856319409 -0.03198562497805784 0.04872817941832625 0.03330860557245137 
0.1137341860015905 0.06114784542943261 0.2392532736636607 -0.165584223318871 
0.1400762538965806 -0.02987407033837617 -0.1311152709518076 0.02378805465833952 
-0.06369940281626661 0.04534260840367223 0.2087356342525085 -0.0945238945686092 
-0.08008928240444556 0.1668390991843604 0.03948353479516203 0.006687222994308109 
0.1114281497728819 -0.1167197433358882 0.06148101388670234 -0.01804826462031996 
-0.01042097604394361 -0.1110747377473905 0.467501490738251 -0.02370542451809526 
-0.1145060513036403 -0.0819233940701254 -0.1822112089847725 0.1133296704132101 
-0.3368809434857685 -0.02601719714313244 0.09549462679108169 0.1490765469015507 
-0.004007432401328923 -0.2507844547250374 0.1986358645474732 0.07897216594401307 
0.03023539194019065 -0.01423345946533013 0.03077201290726118 -0.004163383649719337 
-0.1431972279630896 0.1620804809766737 -0.402795201461019 0.09496857052440918 
0.2613946482871613 -0.1294791873147222 0.4402016972124903 -0.1959563436877754 
-0.1435709952629667 0.06060660098621624 -0.3309230787057538 0.08643097358617863 
-0.1993206343448128 -0.04485344787461112 0.2770615956753643 0.1450111056634348 
0.128394574672211 -0.003966560330511326 -0.1247775196979368 -0.05012579884411947 
0.02097622429843948 0.006412236534822729 -0.08532331820716973 0.002613889874083699 
0.09331643311032425 0.1059649576435789 0.1108890323080833 -0.1879990091596494 
-0.09752152365235371 -0.004914544813279185 0.1381653007934321 -0.05404209837542015 
0.2072177167331567 -0.06686252142876138 -0.1308454146731886 0.1260018622524897 
-0.1540402108023014 -0.07619988624586881 -0.3824548175857255 0.2065679493386421 
-0.07507885988338081 -0.02943300906089811 -0.01845836068332113 0.05199550175617395 
-0.2693947561295551 -0.06657801313676125 -0.4149573159679401 0.2024327816148656 
-0.02347559578645692 -0.001208284878778129 0.165363584494112 -0.03346864302940911 
-0.1033235705525249 -0.02197351075738332 -0.00288721816183014 0.0380101092507841 
-0.1047849302585077 0.0107592605734099 0.1178572411173136 0.1260311229953826 
0.02713399142636615 0.01270938478472375 -0.08202574389848308 -0.001332148533781883 
0.02724607848990159 0.01267918052934472 -0.0821706211185593 -0.001598558018937916 
0.01915536583135817 0.01993775413473571 -0.1222340568421307 -0.001067646448500769 
0.1292628097615337 0.152889664482499 0.1258141498420702 -0.1463737379715288 
0.0001285160530914002 0.01881321861167184 -0.05897407764859069 0.02749032143881801 
-0.1143686095871853 0.03731043659483479 -0.1482057772985028 0.03538507482867284 
-0.1200286061612235 0.1426752636311109 -0.0660016805196373 -0.07834003482539809 
0.1308644633003802 -0.006009321006602056 -0.3955516997167917 0.03035009575558028 
-0.2390770751297489 0.1216658766833733 0.1238548539324323 -0.05715479528336954 
0.2168045657678262 -0.2356340547773821 0.04006029952091544 0.05859948691074965 
-0.2367821955047494 -0.04449371814237872 -0.01726965456432136 0.1095704123478994 
0.0249752684564245 -0.08550692411387327 -0.1123442817080123 0.1839807274074431 
-0.1575401519582573 -0.1541884933738558 0.05558383072448098 0.2288555743187122 
-0.4732285812084879 0.04705846433735821 -0.1501879816974203 0.2184650017762533 
0.1082448510366261 -0.1496093745483458 -0.06047653545450705 0.07165025072847563 
0.09149163048862927 -0.0128727809415465 -0.02030019527857109 -0.006586290561038957 
-0.04039239792645741 -0.07070735924531575 0.1972200011228349 0.06018470912939113 
0.06615559096400236 0.07740329570118769 0.00159530090626716 -0.1348979456231616 
-0.04801432143359696 -0.02330452777474234 -0.03651678183481374 0.04772879412445201 
-0.1218189706481855 0.02571524271379389 -0.1681856822338519 0.09126110105297791 
0.1188214782250828 -0.1924376547058242 0.05893222850192749 0.1529033145232769 
0.02452072317964887 -0.005365558746262501 -0.01866660526461572 -0.005657646502783147 
-0.04978453804384582 -0.01038083555203763 0.07067846873149605 -0.01269413300132168 
-0.1554537226159385 -0.03975883335282277 0.1875103420776313 -0.01316240886217839 
0.08695478223991818 -0.05033396235895301 -0.2821356614418872 0.1550167472816161 
-0.1790669278129637 -0.08074177939556355 -0.006217402047897892 0.153214820003737 
-0.1167896555864312 -0.03494377494571637 0.1850456323064444 0.02761517075670598 
-0.2793208863691617 -0.09127654346424131 0.09967468778696646 0.1506234607747353 
-0.08047711017536144 -0.008360542723543642 0.2936350122848722 -0.04466643864521723 
-0.1391898373202766 -0.03284319096870439 0.2363652519119847 0.01299664838342327 
0.08552792093035515 0.3013310152217972 -0.4149786781804231 -0.1449782810153994 
0.02412144685109532 0.00327772355746555 -0.02838520027734698 -0.009708535668635269 
0.02378913152374638 0.002570676076803339 -0.02736505471025606 -0.009327467599098443 
-0.001019425810781717 0.01172022887784971 -0.05473422301852281 -0.01063432802342165 
0.2558736591823524 0.06203135580971696 -0.1317409131195758 -0.07466131656519255 
0.05096121616275357 -0.03716432402329647 0.1120100968615034 0.02047822713303862 
0.1464105323090392 -0.03168516757022999 0.07835383060846594 -0.01850716400519274 
0.2971893326386847 -0.004280063577356607 0.08522080568883726 -0.06372011614050263 
-0.04128919257761386 0.01180925983401977 -0.1535239720919466 0.0227156853718639 
0.1835666550153592 0.0137527500880296 0.2004915176205226 -0.09086342825868673 
-0.1069913066125169 -0.1952301047999306 -0.05059125661473259 0.2121769566862703 
0.1577932369948102 0.1202392562307899 0.1709892234689689 -0.3026209034810581 
0.1485223379191382 -0.06979647286972628 -0.03469931567539755 0.02548846549132352 
-0.127171767343283 -0.07215913381889703 0.1682747362159823 0.05992645018581778 
-0.1194300767578981 -0.01821382165757536 0.09957958003938731 -0.05473094667570103 
-0.06490161410617382 -0.06980072620461682 0.3239129554696292 -0.1008096149806166 
0.09775577204377717 -0.007893603452183319 -0.03876876657083967 -0.01871510495315149 
0.2996102804458544 0.02117672201283007 -0.2243068486641837 -0.05935601708335241 
-0.2516277333632791 0.03380654070833969 0.2444830166559159 -0.03164400461904304 
-0.01101475920930074 -0.05775938107945953 0.1164767333568369 0.07576179916039728 
0.05291853337714431 0.09028772207271693 -0.2449912961697689 -0.07738375305518577 
-0.03358355583399032 -0.2562689207517906 -0.294852945981174 0.3442443995723499 
0.01922970687952937 0.01027526779413247 -0.05453835356254887 -0.02981182029184945 
0.14439642650322 0.02574275141803404 -0.002414405514957522 -0.1217939257367878 
0.2842338643283716 0.05561660934814643 -0.09995330573765546 -0.03041510585095814 
-0.1398937780923172 0.003372524444711859 0.02006502648397713 0.1292075654243847 
-0.2580087885639474 -0.07255007835639499 0.0469007939664603 0.148963641021705 
-0.1401573677493153 -0.027798546296104 0.00124362123832159 0.03069408821991177 
-0.3020835020594246 -0.1020278776661082 0.05679997922827883 0.1544610210210215 
-0.08124626606645534 -0.006534457992125924 -0.01916021137906818 -0.0232853720240151 
-0.1392203634015315 -0.03065583660167739 -0.0007799686596358102 0.02043825550169083 
0.7835735498266587 0.05617470327221784 -0.1671352446889611 -0.1844627694656156 
0.009956592625763677 0.02060026747865727 -0.05389260523981711 -0.03548583949646426 
0.00731380812375283 0.02042476939539457 -0.05334028565101998 -0.03483832168839353 
-0.03026684384119825 0.02006924611632064 -0.008180283218755698 -0.03160152285188883 
0.05228057581210765 0.1454375826259433 -0.07710064322198572 -0.1253952474730377 
0.0243930111469348 0.03520809385101856 0.02591810733791125 -0.02487794854171281 
0.2097546844709201 0.01241929653414614 -0.3978221188021648 0.006151813783612342 
0.2613055883370497 0.1196795469274616 -0.1315300621089693 -0.1068981582653736 
-0.06846197803517166 0.03768479031662095 -0.3149538241891772 0.03642076932796356 
0.2510655156746722 0.09128084381782987 -0.330668818506433 -0.07720692491601171 
0.1594219840417634 0.04281385913960355 -0.3057030582116604 0.2008605850462551 
0.04270218279163183 0.01828114239997061 0.07797310654697595 -0.2157345673843534 
-0.263043787829809 -0.1682216976688102 0.4475592058244441 -0.05683703888618118 
-0.006582405115661161 0.1131350267445676 0.3166232121433088 -0.2958900115626109 
0.2608990778260453 -0.1043350556135961 0.2695944670710055 -0.153354642856719 
0.09542061421178584 -0.09039486682411699 -0.05628540251025886 0.01142417247501045 
0.07821051081550802 -0.007317517883371109 -0.01171011916392104 -0.01973634394066797 
0.4218856244560529 0.04951539657765043 -0.299856820702088 -0.04900198129377183 
-0.2585947163252697 0.06355739976578634 0.3938681089115293 -0.1046625722894135 
-0.1414420978097664 -0.0905294661763483 -0.05739207447153926 0.1374708870234357 
0.111678284975334 0.05583665881185289 -0.2032110239989786 -0.00120241952944415 
0.10267320713673 -0.1687016416864681 -0.1114572590362026 0.07881801160952688 
0.04522423044748916 0.04056687492922086 -0.1196554336877661 -0.04122709242665604 
-0.2247412715412556 0.01121388743021819 0.04197996115646318 0.006792793699271871 
-0.01018381919791713 -0.03780053841164713 0.04824712388536009 0.02018407693942087 
-0.4564126802669052 -0.0422339651951906 -0.2873576180978625 0.261468325403563 
-0.1149452307750632 -0.0832672992646761 -0.01523644555830525 0.1369905301253656 
0.05836221908426657 -0.01000497039481031 -0.2008639804495632 0.01102271811492586 
0.05954160845602764 -0.08692533841879027 0.1105781378648336 0.05638318436626284 
0.0852135184004289 0.007203890902364037 -0.2067645150595444 -0.01746225578793706 
0.0919651785218516 -0.00699015089877956 -0.1821956188818644 -0.007834017110987494 
-0.1343379153188916 -0.4104559217418892 0.1300438660762399 0.3751395617672254 
0.04628089203930546 0.04885259280705498 -0.07512876648192554 -0.05335946636173359 
0.04653749333776324 0.05023695770494746 -0.07546511293916748 -0.05455704125529256 
0.01493379486613726 0.04842117922553206 -0.02062430210096552 -0.04879690596313655 
-0.2931473010053177 0.1064870525716903 0.08722830829449818 -0.03868657424326152 
-0.4225422199122678 0.03708728686094175 -0.2512006444588278 0.1517248144184054 
0.1917471093559305 -0.04794905738559378 -0.2234834751059949 0.04397368890996557 
0.1737170502418515 0.07275058945180056 -0.04469193791156059 -0.0480496504584022 
0.1012824349022131 -0.04824397557788447 0.07546750162083703 0.02054882916156232 
0.1196807097045182 0.08074797873433406 -0.2649037923859707 -0.05092192020283365 
-0.3373497043117266 -0.009217125037855064 0.2585833208593942 0.03665017992441378 
0.04647895563457128 -0.1710112910941596 -0.06829374667418935 0.2892568970709793 
-0.04926671073948895 -0.02996362743251943 -0.1296020294555061 0.109239214786252 
0.2175856345956781 -0.06255185586630586 0.04612082308939797 -0.001893154750607758 
0.6089755863982325 -0.1823541092970268 0.4180828706001147 -0.3436677876974188 
-0.01081701135691709 0.006278800862553912 0.3056310712046044 -0.1784352713536978 
0.07521939637991854 -0.005891836373833932 -0.03829474588169748 -0.01883487568403476 
-0.08446809811986243 -0.09642865077539207 0.1756217584765707 0.04685731019896345 
-0.0142087293812866 0.2448491138572375 0.1554636044034232 -0.2007258364692831 
-0.06110739926189081 -0.1968276505230656 -0.03842152193145051 0.1413913397508033 
0.02907610804487592 0.01269240914565496 -0.3274504784157842 0.111656325084197 
0.3448149212900386 -0.05467166730353008 -0.1865298045807745 -0.0450443551569893 
0.005162947966959703 0.003212948438886006 -0.05148099864639434 0.01186815152200854 
-0.02983081372930506 -0.1234682059118438 0.1598284762568186 -0.04436442008817869 
-0.112512213769218 0.0140256843739002 -0.02618927413218243 0.07370706193157488 
-0.06383159500737079 -0.02986966325983226 0.193215624048091 0.01118970517819734 
-0.006354761705124974 -0.05573759882290334 -0.00889538640021185 0.07526562458871666 
0.03970447701175035 -0.008078063739692741 -0.1653957496787156 0.03333663075925342 
0.0150001362842297 -0.05445953803732854 -0.08003974306087114 0.08426612939985526 
0.05290620925801775 0.005922003374969564 -0.2106078285394788 0.02097256068733058 
0.04533273041858561 -0.006142429404134408 -0.1845205357366772 0.03361886379504864 
-0.3734679248680914 -0.01220767052911106 0.659356232886086 -0.2497295121174836 
-0.003876335427645297 0.01704865017531317 -0.00924825034176702 -0.0003800585846284005 
-0.00238693726618428 0.01708749717327574 -0.01213996753946838 0.0007388342381849023 
-0.008382299709304902 0.02056630367413688 0.01030011095901302 0.003269365359924078 
-0.3702122273343852 -0.005794821059943818 0.5380483870054054 0.0133328086134842 
-0.4378643816315594 -0.04490172457667147 0.4220347089498469 0.05465345751672149 
-0.03128821411518522 -0.07775407515085 0.1708281666208055 0.00445531198498647 
-0.03780436433525446 -0.02863226038083909 0.2339791902023271 -0.05106426782679881 
0.08161161177090648 -0.04123062218769815 0.09408716229903465 -0.007313399103202776 
-0.1257289336507614 -0.01127370839165019 0.3737656440182124 -0.06602112370975025 
0.1176159595416023 0.06109259432504201 0.09153144028018945 -0.2426779198144614 
-0.6513484031943125 0.2659844455878163 0.01625992015277549 0.008403333535572833 
-0.4323689098152834 0.07944067656990547 0.1330821712324986 -0.004180829846017077 
0.06246853178294574 -0.1124651404464354 0.3102919343367607 0.01688745711294504 
0.3369123102615824 -0.000168323413724077 0.0156383444821635 -0.2254783993898426 
-0.06129379769618665 -0.1348829747428493 0.1550972910192865 0.1902634927034841 
0.03640457678412721 -0.006663763656560218 -0.005983537321978482 -0.01230973378650891 
0.02046386330042193 0.1294587729401119 0.8226601113120672 -0.4799972756627107 
-0.1399970284037099 -0.09156486235152939 -0.2990657749644329 0.3625747626364539 
0.03901462521174447 0.0454216848730067 0.009173640934190593 -0.1552417034631305 
0.1176907315799531 -0.03229820853556261 -0.3631569190408674 0.1170301589974235 
0.00383582971396438 -0.08002257393431524 -0.09522012972890116 0.1263920829018893 
-0.1288857750501068 -0.01517650195306823 -0.1094228333678556 0.1599754262119957 
0.2776840975140029 0.01628103408882643 -0.07244491512290292 0.01155547427332152 
-0.2498486664386635 0.1126590089974649 0.008917673292615003 -0.005843858332915779 
0.0907789495003722 -0.0007032919894090017 -0.1648131474383992 0.005980145134330522 
-0.04445261333407837 0.03563813821357766 0.3134050321221753 -0.09641296200226575 
-0.3474166252782265 0.1380059511335578 0.3799211043199243 -0.1007729501532292 
-0.2017829919889307 0.07310827354889408 0.8380576712109626 -0.2027980476907306 
-0.3783530876046968 0.1355608183027212 0.1967607748029651 -0.04130494424814852 
-0.3867162196192143 0.1388329658229024 0.4503027175934721 -0.1036626440854249 
-0.03852893907503979 0.006542493369182586 -0.05326103509037351 0.03732890527436881 
-0.147001880983264 0.04093948268441955 0.4435601951660973 -0.004045010652592008 
-0.1411585786436579 0.03994727176134215 0.4516377552223523 -0.009706329839391747 
-0.03338808462455013 0.05992597636163556 0.2000521381353273 -0.04508801430711239 
0.1862747538343602 0.1440143018649867 -0.1070573729573226 -0.1762410248984057 
0.3242162485979505 0.01351109774904192 -0.1351275196624229 -0.1259492480850052 
0.09876073168049428 0.001164994126169926 0.009144116716669561 -0.0372795573367169 
0.1423000905552345 0.0859561802463986 -0.07349431213537731 -0.0823925808985487 
-0.01276599686455883 -0.0147485367645502 0.182033321876673 -0.01210275361978694 
0.08258409875329278 0.07227071372177921 0.2073950253355004 -0.1033292122053608 
0.01961998578438565 -0.1104938192697866 0.1328035190747841 0.03807662858100459 
0.05744187541226208 0.08296875371996523 0.265529409449819 -0.3242484813837687 
0.01507674699086862 0.1284405184793205 -0.2108902627086927 -0.09654130347075834 
-0.06417418383146603 0.1208792760056724 0.1463241448502132 -0.1420304884267307 
-0.3285199704831746 -0.0332841535732037 0.2219527460585065 0.2053606081021669 
0.2130375381787151 -0.04950407976994309 -0.4604503007923034 0.2568015549609157 
-0.01023087634702544 0.0714811108066246 -0.3196759688843392 -0.01966670145677015 
-0.1395811509789614 0.1014728024324382 -0.2187935820553484 -0.0467199325567622 
0.2166700315739727 -0.19193129230839 0.1377949210269505 0.1307593292540363 
-0.1626825858405741 0.1295031506809458 -0.008677232945568936 -0.1599999065506335 
-0.09073128597027261 0.02491516452547192 -0.2528307975790879 0.116569627412556 
0.2890830270126248 -0.05582431478039446 0.1113796073402522 -0.03738643579006182 
-0.0324214293459362 0.1264013679984745 -0.3328468998529183 -0.3431765773165061 
-0.1519527656168704 -0.09977814710830052 -0.01773204123946998 0.1394878403931405 
-0.007593097390556226 -0.07914178527589349 0.1091840412056025 -0.05846934733094181 
-0.03308636892283079 0.02028327504110617 0.3057276011227855 -0.05933016546703188 
0.05134773086064519 0.004225438819368764 0.09021195693540845 -0.08979719974461332 
0.2508316918315621 0.002937458840754386 -0.01394761975472479 -0.2160139397739915 
0.06189007338531651 0.00103408716359357 0.04453930873569012 -0.08755784468674557 
0.3571598022299617 0.0002871228513775015 -0.1198973132816407 -0.2585923325467542 
0.2690969930640993 0.0008401467566321275 -0.04894117679816648 -0.2219242022401022 
-0.03170475512933942 -0.003280220140617005 0.074933279887995 0.01491493298193602 
-0.1011705464864443 0.1373020743863484 -0.2967379789020297 -0.3554058686544575 
-0.09864413624335511 0.1375638953427058 -0.3027107580824486 -0.3565955889945643 
0.03102181033396512 0.06798960948422808 -0.166688546935011 -0.3112978551196266 
-0.2491900954542474 -0.07781557916553647 -0.1605862076637017 0.1995272004903683 
-0.2776570495162744 -0.2203016915427817 0.1273430940246071 0.3108432143903009 
-0.001246469018786469 -0.05122589699595063 0.09584225463633454 0.04504945084968636 
0.03499782834872936 -0.004780307634442349 -0.2767539863464716 0.0999088106777786 
0.06410226127864047 0.001630185251739384 0.1147763862553874 -0.04360807690366277 
-0.004232671179736032 -0.0432725888365079 -0.2083540701302346 0.1390804707796031 
0.1028201236554667 -0.1240349569413132 0.04542997146546305 0.221379450490073 
0.4114454145035601 0.004958583910610053 -0.1556352698188789 -0.09118914791965353 
-0.08800233860773628 0.01327986436663064 0.2051647947864065 -0.08237428577638889 
-0.1380062309059283 0.1154046877250435 -0.4062077139063789 -0.05823438554394623 
-0.4093495735507888 -0.3553149548029214 -0.14108496890133 0.5210975780898528 
-0.1065573925220331 0.01203707621699674 -0.1627210466410397 0.02826312689334086 
-0.07061183527113098 0.02448425824937307 -0.07560563023965507 -0.003663940695747367 
-0.4961400547014767 -0.1289375215310974 0.3859921088697964 0.110859934241048 
-0.004870912159955626 0.02506715178630877 -0.1995662468165358 -0.02953907439169141 
0.2486841601930909 0.141482827152764 -0.4475978948432193 -0.0545912548335411 
-0.04707138823731322 -0.06622764149470378 0.4312089724542894 0.003287380280031254 
-0.2716960663515963 -0.2090932788179738 0.541953016159463 0.08205821053866058 
-0.1074071950046183 0.2365896757300575 -0.4032060587193195 -0.03714759724820813 
-0.02378495502623743 0.07273185885847062 -0.1219777993789565 0.04638800584772435 
-0.07678761369868201 0.05140238792768058 0.1530571864528464 -0.2204670577653268 
-0.1059915515303848 0.04221462394566823 -0.5124473454451137 0.05059429540471875 
-0.1122689101629883 0.0298318644517244 -0.2384170313409486 0.04368104282398718 
0.03740888138414938 -0.06080380373676241 -0.08343251279249116 -0.01196865239719252 
-0.0166972845695182 -0.01013443180035543 0.2625453935425325 -0.003205621077433798 
0.1617372673574113 -0.1009290625237325 0.1578939724795326 -0.05998130378422294 
0.1430386375153034 -0.108201132265552 0.3965964285723033 -0.06170697696681977 
-0.4215692924226467 0.08679642542469769 0.9457219445230256 -0.1440129062182499 
-0.2176066941803326 0.03821037609586823 0.297990544719863 0.0233917603738151 
0.08535637276054285 -0.0241529566900702 -0.3814568119260701 0.1267328275229623 
0.09150049166369958 -0.04157353093684891 0.4907787598732323 -0.07559160969666141 
0.1029445760360348 -0.09164354017071569 0.0874325813210914 -0.008452153034500805 
0.2034401027206953 -0.02866734942379884 0.3842901881313435 -0.1045806659576573 
-0.08601050860547843 0.007153346399036956 0.00960073541785357 -0.01245625013978061 
-0.05491738386761654 0.1582669269661388 0.05137518325225036 -0.2010014836754046 
-0.07704568192185965 0.03789498924255588 0.1057448650852935 -0.03662154283623239 
-0.03927792660224957 0.05293739186109391 0.2163827183032451 -0.1350348311518942 
0.08885268674424521 -0.2117700653722761 -0.3303116955532226 0.4481638718549588 
0.07265939988081979 0.000553195654125616 0.3264648824287043 -0.1526465803534433 
-0.1319366229986875 -0.03695578700349651 -0.3294489870103545 0.2301971696376043 
-0.3488737078843586 0.1524007460304538 -0.1345607952086616 0.02475364186480376 
-0.143887538311209 0.04266205090108349 -0.2524578453982772 0.1302459521613649 
0.5959294602748753 -0.09533731024391894 -0.2003056244191704 0.1057236463674194 
-0.1192826217210745 -0.08410455196200653 0.3223870482738156 0.1123298165104019 
-0.1699736163609392 -0.03429665170178018 -0.3348256106833397 0.2341169661079438 
-0.02908428915627723 0.02645598879952635 0.01319986365521806 -0.007109152396889722 
-0.001535637958910962 -0.03361394228605964 0.3479282403387191 -0.1464442981076932 
0.04079785546418952 -0.05417574206672961 0.07914154777979795 0.05804234827092233 
0.1708340906710104 0.1487671399384723 -0.1543619191735985 -0.08982788742329252 
-0.3062814138099942 0.1757662981785418 -0.6828642459317331 0.1243980362104591 
-0.0786483528166851 -0.1461351825399904 0.07330606714059298 0.0979803704177067 
0.009096251601587719 -0.05362913886971555 -0.0250538871724287 0.01438063804724614 
0.1067618377948871 0.0387543577129024 0.0743053075383837 -0.03654994599132715 
0.3597786596072485 0.003354618166941815 -0.1808236539196067 -0.005814280396243854 
0.2443767897969067 -0.0544099588582258 -0.1202018271957421 0.02727011944670859 
0.2978325943498742 -0.03821835148243153 -0.2886217437456473 0.03299642074199698 
-0.1083327900662426 -0.0685477068901264 0.05757066037505829 0.03894488969791142 
0.1712572205590274 -0.1007576762635647 -0.2112637902978184 0.06765407175207319 
-0.2358812129694159 0.09443506013212086 0.2299898689983409 -0.05650438691074843 
-0.2235269652307572 -0.008930540214940172 -0.06650841343547693 0.178105742200223 
-0.05227769398946582 -0.07700700074744006 -0.2322166713772117 0.2179913891001498 
-0.1726549954584508 -0.02518849950957483 -0.03322266812101313 0.03868628053720453 
0.1751439535720913 -0.1472521494351631 0.06216177186427434 0.06095861821422158 
-0.04835053899042003 -0.09297892833623975 0.3454971598866904 0.07962345688819156 
-0.007387847649540095 -0.05552968314006547 0.2293968915200759 0.03247783234462097 
-0.01072966295135827 -0.01214041669534529 -0.1078400214334943 0.01015072106490422 
-0.01373609892234019 0.08658388437409727 0.1451386190567348 -0.1017965112645708 
0.08065760352378892 -0.1172440448768259 -0.1121239726469137 0.0899404344803334 
0.132115649552176 -0.146337078432631 0.1304986743256699 0.06884588832953449 
-0.2462009216847104 0.001307973051535879 0.2201534723161138 -0.03293407307972156 
0.1402208082999111 0.04079686468458815 -0.4428718655400104 0.01631968575169994 
-0.3295617371406249 -0.03735159372481119 0.3997276985986986 0.05961842523806893 
-0.06163002349636812 -0.02348039824675216 0.3747699352266273 0.001140925675326766 
0.05697835708932061 -0.1767262291234345 -0.2727701726155525 0.1982962433913991 
-0.1145472192998982 -0.07515977294105228 -0.0249055982672891 0.1476677437569406 
0.127847974112774 0.07148378301726746 -0.4829586932427666 0.1159423832113521 
-0.172649347232507 0.04944104976439985 0.05484696635875169 -0.1339665936605915 
0.1243358151235095 -0.1242363691371401 0.3449849381883916 0.00695327698677936 
-0.1973199731765729 -0.006569765235613107 -0.002922017450512474 0.1419556760633955 
0.08011726584044536 0.05113170316338419 0.05990984867485319 -0.0411402460156441 
0.3139614518334156 0.05882780262247553 -0.211578028336025 -0.1139486415948765 
-0.05659930340074823 0.0716656466479572 -0.04638165252274828 0.01655178979154483 
0.1416799810619913 0.02779321553961868 -0.05088872314644716 -0.02510147434350605 
0.01501426325558368 0.0176041825259138 0.1181139631006427 0.02108343153516022 
0.2197495350571258 -0.05271406785275185 -0.01118062355237937 0.04336721147224938 
0.166375382294326 0.02733544163282755 -0.1492007648472018 0.04057509214338301 
0.2425373008293857 -0.08242629630495271 -0.1482601711633826 0.0271463130696593 
-0.04834611560551528 0.09416823560171984 -0.1703487462965442 -3.580864995596971e-05 
0.1779092111163583 0.01326299409740394 -0.2983378996677042 0.02501070889580661 
-0.120631933109222 0.03840175546171556 -0.02375381345992673 0.05744913854108399 
0.1535260647674689 -0.03460686277489625 -0.2035783924670957 0.1093801449934538 
0.2440463290818328 -0.06438232874374848 -0.1734497541891609 0.05599744493180238 
-0.06244078768269393 0.0597988781982107 -0.4287986450133838 -0.01068599623178593 
0.1538736152389639 0.06040187250443353 -0.6215512241435039 -0.006756993281974743 
-0.1373705687150669 0.0751976307566088 -0.3179312098285163 -0.05508710519872696 
0.05984000610664728 -0.1847138835305425 0.6107524824003783 0.01933912029085629 
-0.1230408652588138 0.009263911954478125 0.2982086548063921 -0.1264118173935847 
0.08060468377568474 0.03550051252448643 -0.06983244803277595 -0.04038964260513313 
-0.07962079253620204 -0.06761524313548942 0.2501358399928337 -0.03547745509541567 
0.1048230611978131 -0.1820490638094029 -0.04776198372214649 0.07835018360471308 
-0.1663074508437219 -0.1785566880359205 0.3562405051319578 -0.1222961278010857 
0.2134738700718961 0.1093469289175053 -0.7330573471422956 0.07926951910176866 
-0.4425620121356757 0.01415816494820291 0.513692611054934 0.04873801203003991 
0.1209873655027404 0.1956455018686802 -0.264304416894423 -0.05787176200130005 
0.1625728306343036 -0.05544399057955068 -0.04088488920094314 0.001185530814234931 
-0.1844362382981865 -0.09190479587134658 -0.1268378841655804 0.2023117426202207 
-0.09202948309741188 0.04002342811322442 -0.1873307734089434 -0.009481670954140348 
-0.09233975747703504 -0.02088656750341947 0.08271264152137173 0.0608994660233466 
0.04156100632712815 0.01278682985620716 0.1260419453253397 -0.01790296142199867 
0.1021262293118564 -0.06066840381548762 0.167556360715593 -0.07084058061949436 
-0.02922108964018813 0.04138235869924209 -0.2597456268564996 0.103336968833911 
0.0456250599848057 -0.04274821312666779 0.6753590063437471 -0.2319629915641309 
0.05055778453234124 -0.04002248569893165 0.01865636931756576 -0.05952319319267182 
0.02210491346759478 0.03544643144021536 0.001986091693162918 -0.06609171800632391 
