solver_type L2R_LR
nr_class 4
label 0 1 2 3
nr_feature 430
bias 0.1
w
1.71698136936509 1.12258519551006 -2.360714746625656 0.2281031983210692 
-2.133728273019735 1.121934929624434 1.643334061612521 0.3210317800962562 
2.046565854092095 -0.6444035905300293 -1.32014624395974 0.08571309738037737 
0.06637417498846725 -0.4942711703218637 0.4306239093545546 0.5995327564699009 
0.01512455806616895 -0.3556584755549488 0.3089478720818258 -0.9368573826115247 
-0.1681035252545948 0.423290551540151 -0.5453441110555687 0.6092093355625766 
0.7865964568195596 1.610539959589897 -1.17205054651871 -0.5811486994460453 
-0.17541207431783 -0.2051460551020158 0.3561094393549272 0.5663770353146598 
-0.7701563849737441 0.1605575774632248 0.4260637753505857 -0.1150812951164907 
0.09947058659551129 0.7840915857666577 1.497520098290891 -1.88881682632815 
0.4693115074144982 -1.666661907240092 -1.046526207816659 1.231193602005954 
-0.1333358477444704 0.7653676664831059 0.7081373737762271 -1.10614184893818 
1.320549681096482 1.985946795964951 -1.759965538703138 -1.135190983609985 
-1.046119951954944 -0.9700353048225399 1.147385373350203 0.5787049071136454 
0.8081688893321419 0.2705266305490216 -0.8894189722103342 -0.6274570952150036 
0.4455938562949985 -1.975997513360853 1.534308407155216 -0.07522013347532772 
-0.5519525764304526 1.441388869741578 -0.580807232182406 -0.1039194532253115 
0.5866930055185617 -0.9263488422010734 0.258727702577212 -0.04380456806876151 
-1.091077798752882 -0.0555999008652453 0.5399877877888395 0.3773490407830273 
0.6168496491853257 0.712214907364386 -0.6270387419867005 -0.1479267342806201 
-0.4865871178023182 -0.4435062965505684 0.6051719123263134 0.1735112896464529 
-0.09113533156613374 -1.375384677881997 0.4867082175930232 0.1149813965217915 
0.03961313548069127 0.2694018946206533 -0.1390221167966885 0.02415236221150935 
0.290937238645726 -0.5115018693958869 -0.1139643305068272 -0.146234540824881 
-0.9698463876040724 0.1345370480914023 -0.1836829983059323 1.03588276486038 
0.7627826614975224 0.4511502545049987 -0.5128485607823583 0.1045262551595134 
-0.7551981128873759 0.4797154773324056 0.4764490898680146 -0.06101127808435437 
-0.5122533157234611 -0.1798589512043455 0.1154293223055747 -0.6612962849665238 
0.5966621323650156 -0.8559284013728443 0.1665135478277111 0.08058313098230925 
-0.367758911200392 0.7431905742117506 -0.09560943460880353 -0.02534111463742175 
0.2187954303332111 -1.217046858908953 -0.1107536509933946 0.446148874831349 
0.1315071425397266 0.2545698296991614 -0.6964816553204324 -0.2833004662358528 
-0.3238756287657012 -0.05950425866662867 0.5661526121070086 0.2400237348379437 
1.248322769434177 0.01148324910731691 -0.6936918477876165 -0.03473267629747247 
-1.075987768263025 -0.2055569884802281 0.8397673965686707 -0.1392148549983372 
0.7670501223303074 0.1844748733024731 -0.5322080620418991 0.08104450755323594 
-0.1089639192141132 0.9918751400213053 -0.2586039679718944 0.04942995976756935 
0.1110334534411978 -0.3851608165009436 -0.04820456756526838 0.05006153600083599 
-0.1841582146122109 0.1632430406115015 0.03755697087048673 0.04411212628519914 
0.9472600653409241 0.7750334645146879 -1.763776394507121 0.09544984066764192 
-1.341741436958274 1.307612127602439 0.9805034201370493 0.6243580678228505 
0.9624642649700368 -0.3235966150924066 -0.8117017492747411 -0.07267546381893013 
0.003824720147177052 -0.4589000378924624 0.6383479445802378 0.1291220213671524 
-0.1308595335585225 -0.01425702634085187 0.1531917298349196 -0.1076027142073872 
0.02563072821916065 -0.01701193798337374 -0.2540582588707421 -0.06827000419177334 
0.6724995637493747 1.521072075863829 -1.119268719868596 -0.3111402242172339 
-0.2171858176660587 -0.1372422250722977 0.2657905062008218 0.3349002072015395 
-0.2865555983745464 0.3487283424034066 0.3218144831542872 -0.07280614084128631 
0.262616138596884 0.2404790512015847 1.031130785589652 -1.154363993782028 
0.184317317592873 -0.8009910394120151 -0.2588784847406662 0.1222050546038371 
0.2253491838515364 -0.2724293563040565 0.006828799506208988 -0.357762747863461 
1.045457709534881 1.210344347241681 -1.226790725610573 -0.8362232608068489 
-0.3055177850665211 -0.2232584065903785 0.2979982478006925 0.1306638013670428 
0.4179509164712107 -0.5450820008162993 -0.2567725937834404 -0.4379179252170259 
0.359508203908427 -1.240200733908305 1.301817715799372 -0.4738462250232561 
-0.3654771235396216 0.3533350531937071 -0.002990785752174478 0.0708310246258009 
0.2376517748281683 -0.2438389271705447 0.04345290341193277 -0.1574326685715255 
-0.3458015417303502 0.1575742904093893 0.1371841215357851 0.04034394746715185 
-0.2056276296401266 0.6582240229612908 -0.0694771803578273 0.2398123851733784 
0.1940167795900718 -0.1363057552479018 -0.06563308665222528 -0.1563002056568249 
-0.3051013465174072 -0.8483815647577696 0.6282160393776446 0.08483897034104301 
0.309642872505298 -0.4305844428840797 -0.3251989548227225 -0.03878733762811682 
0.2276397861098848 -0.2547625829382065 0.09044968359455738 -0.05293990515239258 
-0.5951231233706211 0.1201331971110783 -0.5234956678320745 0.9395306912789149 
-0.1228006736693545 0.549459000279355 -0.01846872037824675 0.2447252891991425 
-0.2763797760082954 0.6562782602434792 0.1296492648991279 0.2423023298110944 
-0.5686443473912464 -0.5401631334010364 0.5766329141936899 -0.439630116482859 
0.4500267461727594 -0.7801322289757595 -0.2335767326049973 -0.3098351945356186 
-0.4157378248016219 0.9141528512679804 0.2240552629554188 0.2638309315209608 
0.1025924887955401 -0.3473212863216489 -0.3980097217103853 0.6430725695658073 
0.6860300759393905 -0.8737347840469497 -0.6473499360168407 -0.458766520392567 
-0.6292436122229741 0.7656284277543628 0.4422202034515715 0.2916189691691381 
0.8806667643480512 -0.366576697042845 -0.2902226791390673 -0.1831418084862922 
-0.1947737462756485 -0.1269595039118104 0.1807155118289765 0.02811749175643368 
-0.05816249881242228 -0.005503733174721637 0.03883826653418776 0.1294694367444071 
-0.0259566705127753 0.711431363712218 -0.3462146549878304 0.1801148768359764 
-0.03132457822830801 -0.08198239259366635 -0.02086230200755331 0.03297819993016589 
-0.08304860052982029 0.01104168632530282 0.02409370710120433 -0.095868765139886 
0.7545111757890673 0.562864167152111 -1.581953906268232 0.07579975632304062 
-1.122224313326105 1.513897962801666 0.7748894382986532 0.7148614607124881 
0.4660947969090081 -0.1422034131328374 -0.5312451876502072 -0.09435296704273811 
-0.07786901702329521 -0.2977370981885901 0.7920413046059341 -0.01917021780243526 
-0.2766310326216515 0.03623519310589848 0.176956313122759 0.06120043011830317 
0.1023230082711295 0.03409756796758552 -0.1479280609279567 -0.1436564266658366 
0.8041072515020294 1.266150997202713 -1.261701523634994 -0.0884009810266351 
-0.2855242490359267 0.2557599758576356 0.2399828805845951 0.2691434018513818 
-0.04269633739210575 0.06246544543034805 0.2520213920116696 -0.08758845817596955 
0.1074492435410483 0.192330992936988 1.080843928898865 -1.011910656813235 
0.1796817515048448 -0.7034483535135152 -0.1552054974259494 -0.1176145981606791 
0.4951930617850634 -0.5687472965588221 -0.2935318847986802 -0.2521646640211046 
1.098003651739899 1.116202527298982 -1.186626766382409 -0.8374367052477738 
-0.0624848145747212 -0.2093864191264101 0.2016709893350088 -0.06867446841181571 
0.5494252415349339 -0.9041273162558592 -0.190836198529435 -0.4308900345908541 
0.2338044749602933 -1.107425172033014 1.355829588146334 -0.5752800788778759 
-0.2353171189195893 0.2313146898478715 0.08462213709294322 0.0697358365021475 
0.0210062836260595 -0.2054480361913824 0.05206490480110324 -0.150691809218665 
-0.165839108159869 0.1997683274979368 0.01788192585828469 0.01375752359654927 
-0.2828364358041879 0.7246144670696079 0.02056066580794398 0.2516566497759853 
0.1904188572463655 0.01350576539153765 -0.2180362208159069 -0.1588527255832072 
-0.1968927012412517 -0.8538038129386691 0.529563230984461 0.04366311922119962 
0.2442115680622399 -0.5190867761207566 -0.2493016220842752 -0.04565388693516789 
0.1852301452690212 -0.1512077987566757 -0.02999027214920904 0.0317894088046217 
-0.4040017887353632 0.09206298544207192 -0.5781482041920866 0.7916237289376491 
-0.2976871877969297 0.4689523522057049 0.1568686731298249 0.2594936974818108 
-0.3180551526664091 0.9619133685265958 0.1830743769218202 0.2150213528160926 
-0.5563551392931882 -0.4993436924044247 0.6659322539957061 -0.3864487109393879 
0.539510121946374 -0.9383162321994449 -0.3842623649627055 -0.3130286371659975 
-0.5335941584734513 1.162393959952068 0.3394651662823267 0.261706726051634 
-0.04859171373404582 -0.1640349355530122 -0.3449922572235113 0.6135911867387884 
0.714552495840457 -1.257683217967294 -0.6288609565755778 -0.558071532809999 
-0.624245495104243 0.9581927274148621 0.4380006730617839 0.3248211958978851 
0.6794376300884611 -0.3492858281011885 -0.156137199256779 -0.2146592378641724 
0.02842421991142068 -0.1772191221498441 0.01365299994406663 0.04442487816598498 
-0.2372568451916638 -0.07987577609984248 0.1111020088328598 0.2507988017553326 
-0.01393705779077276 0.6310045119123203 -0.3630234870181177 0.2423688639715351 
-0.01382709959168404 0.008136862045524967 -0.1168759973017901 0.01161626484372328 
-0.1036345802396515 -0.119237956623316 0.07255830221083664 -0.06493397775855296 
0.8112484882266158 0.3105237606667158 -1.57457654149915 0.1279842023380907 
-1.153550642231388 1.558562003429753 0.8137770799579093 0.6999374907577949 
0.3196323073836706 -0.02433757921969154 -0.3970564236980184 -0.1545638468200595 
0.01432769798835004 -0.3212081077555637 0.7815587610299053 -0.05477066068338304 
-0.3746031782993541 0.05273395389090849 0.2193865544963204 0.1492582009388103 
0.08290467351946954 0.007851505554013243 -0.0449951025608499 -0.08735860667421841 
0.838927001913419 1.404987467052601 -1.354630173847801 -0.01923383674302543 
-0.2676363526760545 0.179239187199203 0.2288542616586689 0.2406180926044391 
0.05227299387561226 0.1103127460057939 0.08627777560963412 0.02837593594792289 
0.08929604350138767 0.3437682553182178 1.056409248566951 -1.002755516307095 
0.2722257567785774 -0.6740005794824279 -0.1926894271133796 -0.2211206689646391 
0.4306991495095369 -0.5009076115007239 -0.2938073060214141 -0.3362293910882558 
1.003617760198782 1.115125236674659 -1.211610017810364 -0.8085587300981136 
0.02094003752317822 -0.3566661709756751 0.1730484116483838 -0.05886427457791291 
0.6948907312489082 -0.9949657587973189 -0.2971912281606488 -0.4981787685463871 
0.2861430218352131 -1.098251431859835 1.416997827965021 -0.7690679445863737 
-0.109921392147765 0.3443985780940587 0.08234619123422873 -0.03261860534221141 
0.1250013469881487 -0.268400076538009 -0.00572116076956438 -0.1668016187247197 
-0.1526563112896457 -6.312288537806132e-05 0.06732400417023941 0.01377280534555209 
-0.2808750560454708 0.6585642442033219 0.08401139821921713 0.2703414539382308 
0.1703256230591075 -0.206303429334549 -0.1728236482258868 -0.06885675546202796 
-0.2287051605579119 -0.7058751461184645 0.5380765307391546 0.04568478812535409 
0.2149802024579806 -0.4049436799571656 -0.2530197904455118 -0.07453976774103951 
0.07289617662724732 0.1724795871275898 -0.1422049438676649 -0.001311227802681689 
-0.3517768195162595 -0.01410751350948375 -0.6783536745270424 0.8317874933143808 
-0.3536321082988718 0.5573630191820789 0.3063142181989731 0.1986061422584771 
-0.3790144369473218 0.9159748542695951 0.2491754405826952 0.2149438346236958 
-0.581453443947311 -0.6070640751544704 0.7755102148538386 -0.379442921640359 
0.5553292737792331 -0.7583481797179643 -0.4049484760999055 -0.457188132717912 
-0.4913659441399311 1.102281157993777 0.3636803662447767 0.2222467000620195 
-0.0964872243743409 -0.2921600161311999 -0.3027157789796426 0.7088342738207398 
0.8749875704032464 -1.520459568648723 -0.7263494436376241 -0.4474040220535315 
-0.6625652693854862 0.9495176707076926 0.490430027006427 0.3997022125157486 
0.7005026514506084 -0.2518679997025777 -0.1443627763274018 -0.1830362854732604 
0.007009262669684102 -0.1069780662585033 -0.02656896076960715 -0.01713848487010307 
-0.2726746131907514 -0.03692466292769475 0.1485422187267942 0.2552797393928549 
-0.0945507358582925 0.3876497116290121 -0.3271211447386119 0.3651277297339542 
0.06681908417401911 -0.1138949752374063 -0.147573566930204 -0.05186732100394696 
-0.1765554224982867 -0.1183251216799146 0.04728810915051947 0.06867894958536341 
0.8876167798199533 0.1755066027132202 -1.59783900473865 0.1674122781070727 
-1.110704591582238 1.510698103958599 0.8202748381235413 0.6957381495723332 
0.2909516782069466 -0.02408835740314035 -0.2564673283019209 -0.2401623096425337 
-0.09355025163151906 -0.2770847840887277 0.9562427301825722 -0.07723855147876241 
-0.2602199638863504 0.1893516168106708 0.1699213136828388 0.1189754009744677 
0.001127336497782549 -0.04180856068781225 0.01873579210948428 -0.07602047305285536 
0.9975258454380618 1.369129647641363 -1.453488918674627 -0.0582675111665207 
-0.2664362059967513 0.3660951645155869 0.2083640520253532 0.1665372023473164 
-0.03082745183998998 0.2614140780737935 0.05259293883537462 0.05269376970818932 
0.1202643129067488 0.4393451245350727 1.083146803411024 -0.9523733519584272 
0.3173307049203 -0.537185172412511 -0.2620098518686884 -0.2257784478962584 
0.5296128965884793 -0.6926804499563596 -0.322982617341473 -0.3374965617571923 
1.003066884172843 1.023399618427423 -1.134906911222752 -0.8600777287885738 
0.01367841689713912 -0.1635958327224794 0.06685201275512008 -0.09145054376734785 
0.5988984012449685 -1.039088278148478 -0.3371813969623098 -0.4102776148885211 
0.2119025519879257 -1.004822310326368 1.457764356870145 -0.8201494619592775 
-0.02977222111039225 0.1192596263719401 0.07242457313790712 -0.02238673089770657 
0.3055307772625332 -0.132104885617477 -0.1544544793085323 -0.1932999201704489 
-0.1433244147477665 0.0362215750490259 -0.008399342204114341 0.0824071923130337 
-0.2177673288236401 0.4950162716819652 0.1592881598717455 0.2095678469128756 
0.1695255893381704 -0.292721582680841 -0.09510357781080719 -0.08764204185243504 
-0.1858592860330958 -0.8383218504172543 0.5600273522603149 0.03065326452168532 
0.1874816473413632 -0.3728715407756357 -0.2328108303627518 -0.1285405225833824 
0.0007518806199487797 0.1210353248608273 -0.1111348182652477 -0.01517336906850476 
-0.3176417539821024 -0.07577879205173685 -0.7685490934172022 0.8565059497468693 
-0.4795368922433703 0.6589091576591146 0.339303439300067 0.2165833971123835 
-0.4662852198462151 0.9128614075045002 0.3292049776672143 0.207504141862769 
-0.6291895795141398 -0.827711551198857 0.8582777163530172 -0.3726056137089147 
0.5253104938176213 -0.9180903464483818 -0.3656725239165372 -0.4146219052576969 
-0.5065051844942817 1.272285136736162 0.274668796462362 0.3435430766135353 
-0.05912608846840976 -0.1740059679299933 -0.3218783220120062 0.6456995650745327 
0.9081904468257573 -1.555488747179517 -0.6541586235495462 -0.5665764613367855 
-0.6153445282744417 0.6943585463500684 0.5094189848096603 0.4906410486720474 
0.6815417673456444 -0.1585995192764887 -0.1284273916404928 -0.1796035123734734 
0.1307218196458147 -0.195640449452497 -0.04746536562431918 -0.08855146776127096 
-0.199078013817663 0.2255020535590614 0.0862934272262024 0.2335168866543326 
-0.1393242309523012 0.4034035129064032 -0.3895801274061244 0.4566811039713904 
0.05051180689061553 -0.3229765518163131 -0.008459260304469403 -0.0865303232616724 
-0.2238993817260845 -0.1299006758188271 -0.0228298780001345 0.1682171952623647 
0.84345091974806 -0.2780005813880504 -1.524683219560295 0.2502221605418378 
-1.029696720995595 1.819444026415337 0.7978207299828063 0.6193711412574481 
0.1731309593450086 -0.1843435681640589 -0.1629033952241417 -0.08409856686595901 
-0.1149284729797665 -0.4771435389535837 0.9363587338622098 0.1001991729524187 
-0.1578593875499541 0.05165645721944281 0.1962937992284788 0.01297258084912909 
-0.09071827434115204 -0.0231012046271319 -0.02387500903723975 -0.05785284531242292 
0.990750954318996 1.343223577923522 -1.490668329223416 -0.01320356020064968 
-0.3002675657550323 0.6372110962012649 0.2237495015606299 0.09589306323239202 
0.01621272630682892 0.2689924925915967 0.02741932080510179 -0.03454607505253272 
0.08977432715759068 0.4890827010974103 1.101892393699235 -0.9505540708149387 
0.3202404321616041 -0.299264249490732 -0.2883627655166068 -0.2553011991338672 
0.513292059168322 -0.6510273327155265 -0.3061470078954541 -0.304998614324314 
1.057678738708526 1.044705361320539 -1.154957234644912 -0.9342796073965005 
0.1445465998389921 -0.2089625724232874 0.01912675367999168 -0.1202623608442993 
0.6385227232119032 -1.054064274458851 -0.3858560142785705 -0.4276262251494911 
0.208806987407543 -1.279545633632817 1.529751142574051 -0.780713162816671 
-0.03629281700882631 0.09866672699421539 0.0378970845875718 0.01056640926745167 
0.3007502960102836 -0.2303409541342991 -0.1348477750821696 -0.2393144899082105 
-0.06760399537322795 0.20336382558345 -0.03419362362252855 0.01992251562784111 
-0.2462853280465328 0.3261794880794363 0.1897330514540054 0.2242670246994093 
0.2832656149113709 -0.2244763780607624 -0.1937903049091221 -0.07615867778367315 
-0.1508692091179915 -0.8286095323991347 0.5466474327239776 0.09501676667045013 
0.1734844865653425 -0.4516129572180763 -0.1665941109069218 -0.1464787989077709 
-0.04802669910558763 0.238417511790191 -0.01103626699328702 -0.08435937106699437 
-0.4183552634727579 0.04651441995096758 -0.7991168911350119 0.8703134671165288 
-0.4350997599419978 0.646861132708531 0.3181828131005624 0.2095204020899266 
-0.5484415322531863 0.9037671646237858 0.3526305993142931 0.2865299802565296 
-0.6169538295653191 -0.9213628039826565 0.969457501431974 -0.4367093483712464 
0.5504642853211732 -0.9701668639810306 -0.4601002098003108 -0.3623309828426283 
-0.5619380270976371 1.092490874681435 0.3733772581369607 0.4875202863932859 
0.01251818250185789 -0.1370860198417843 -0.3214307649694791 0.6438091678350375 
0.9353715772886249 -1.595947634442787 -0.6700202767650429 -0.6107440494372041 
-0.6492585994594392 0.8285372514011199 0.4731216283239938 0.4171149853803456 
0.6695972955773729 -0.1205959187908865 -0.08677856283709746 -0.2506738293707099 
0.1516468138954435 -0.2056760429516997 -0.06589967744609132 -0.09304735854043035 
-0.2034509222388675 0.3246296025889469 0.07790762998857872 0.2237308364500371 
-0.2026117106054215 0.6954500779091289 -0.4338567341830141 0.410402547611024 
0.07005321780182713 -0.5037138247986802 0.03871420600183094 -0.0695647873033953 
-0.2125238636297624 -0.1061960419687474 -0.0311713452213038 0.1838425566314126 
0.9222323873159612 -0.1547532600149605 -1.522304370425528 0.1625521927694453 
-1.042961933190647 1.91142144763507 0.8156214729198604 0.5839072052644275 
0.01439590926801189 -0.09160269567290305 -0.1183754376171555 -0.0486586034638716 
-0.152459949637948 -0.5656725965612948 0.9654452512239703 0.139683867948217 
-0.08781457177957641 0.08515494872300897 0.1255551268193964 -0.009942638774605239 
0.04314739082289705 -0.02254563640137654 -0.08685414163668506 -0.118765370491602 
1.14900752792305 1.15982124336068 -1.435464094168567 -0.1132301118180302 
-0.2752140658575046 0.5977897641779915 0.2168667870134572 0.09129252515659038 
-0.06580487555255186 0.3087614374927489 0.04752970480363157 0.02862132598635766 
0.01603140474398221 0.3422479180140012 1.16356986237392 -0.9041747409709161 
0.414509696370617 -0.2599418446859989 -0.3001651692527292 -0.2757551668355224 
0.5526869001620078 -0.5652596612205965 -0.2657727635726938 -0.32215113365988 
1.146062283757653 0.8744652014595606 -1.184350936237957 -0.9593060479817715 
0.2083086140086 -0.2237631216683727 -0.01547146766673604 -0.1145510857161907 
0.6304249529856613 -0.9829899169916922 -0.4261163463942325 -0.4284975810066082 
0.1817951791476225 -1.080556166192779 1.554685411256517 -0.8750859639659192 
-0.1116436674185897 0.1739642204329174 0.08628134385765157 -0.02321227840386329 
0.1555169046826166 -0.4234136718791049 -0.1123868362096123 -0.1237399086257685 
-0.1569072872081922 0.2167729529736429 0.01876317326705763 0.0205243946478761 
-0.1829782483866282 0.2729993429875666 0.1633028109141008 0.2135437621716493 
0.1989406703903785 -0.1006125046315549 -0.1725770370283536 -0.1631570056865823 
-0.165798360775871 -0.6809917315121509 0.4651346409537026 0.1464787535087129 
0.2009633259422177 -0.5037622788391287 -0.1091803333916449 -0.1914840904154242 
0.013752959764932 0.08311977342846011 -0.03255250215003407 -0.02832016367329328 
-0.4503201679045856 0.06794600918798804 -0.7966391107027286 0.8999634961082081 
-0.3964886222687422 0.5760004641918057 0.3676940864152755 0.1997806527681674 
-0.6312859418703014 0.9119057298500696 0.3579639051660027 0.3361117417347024 
-0.7040878455055819 -0.7675699246871642 0.8589325370209073 -0.3808614223050914 
0.5441178391896756 -0.9602758245441579 -0.42050696357099 -0.3507136357745589 
-0.5869971876641987 0.7538796645743298 0.4604425975660889 0.4612008953062384 
-0.1098147765336225 -0.0384442420081145 -0.2503407389678627 0.6907084859542102 
0.9249921877845908 -1.42596891095885 -0.7779694379266479 -0.5756365476346932 
-0.5888601102244551 0.8625944164440686 0.4061217658553759 0.4212444911392714 
0.6399066671044564 -0.1457560937629915 -0.1070914900051424 -0.121002108353749 
0.2476762983707507 -0.4344172136010978 -0.06987025041148219 -0.03706036251635809 
-0.2169720582785934 0.5002787584934799 0.03409943628328131 0.2211869864607217 
-0.1295564995702351 0.6646275596989166 -0.4730463516180644 0.4041811804759417 
0.01487430168742428 -0.3677103727051659 0.06792833954316067 -0.1505163731803721 
-0.1237597497361355 -0.09658739559411206 -0.07445163786944974 0.1995849742463166 
1.01163755717263 -0.03061323830885221 -1.642563410958155 0.1707486247528862 
-0.9132123896864147 1.849823407765452 0.7606647225083001 0.594950710921983 
0.04755948959698657 -0.0183128667745962 -0.2004069346292511 -0.06428976193907746 
-0.3186831546955149 -0.5284076953056407 1.07519577419639 0.1995160481017397 
-0.005759600727466618 -0.004438114501832423 0.02674642000651773 0.0350159289699259 
-0.007295435531618086 0.007174696133899705 -0.1101044345405044 0.00714653454202892 
1.061957897226482 1.085278572720158 -1.348153944695514 -0.1864057916701043 
-0.276262503371581 0.7143649056918847 0.2151748619681214 0.05234730848335858 
-0.0753467377135294 0.2817490311644787 0.04228531506144165 0.06542150004387548 
-0.02475545547411556 0.1853265140297691 1.221138978166092 -0.8784746169369558 
0.421092019125726 -0.3703907145905383 -0.2300870818551735 -0.298376521994641 
0.4691422253323976 -0.521880325221047 -0.3006030652881421 -0.3193253352206942 
1.10333649136703 0.8999825632279198 -1.149083118477191 -0.9444068311580505 
0.2598012819434681 -0.0001288855192924099 -0.05971181466512226 -0.1861793853296481 
0.6205761624050993 -0.9647002110932745 -0.3318437922981555 -0.5006327207914416 
0.1833700419738431 -1.072345260535759 1.530501979038755 -0.8728303373373129 
-0.1415658421561266 0.1286763838941942 0.1382175703335572 0.03866728609877913 
0.06541943387750981 -0.3900886812048927 -0.1085121385099962 -0.09562465907304221 
-0.2155152286436058 0.2172735332510384 -0.02191850044812643 0.1213851674319794 
-0.2075081419161864 0.368841717182433 0.2565221338004633 0.1402459279149123 
0.1236363844311698 -0.1907494274594469 -0.1478967383219251 -0.09569429162953233 
-0.1432901196624806 -0.6872070718154113 0.4127410282313505 0.2543723169677457 
0.2649906468392338 -0.5315071586131195 -0.2145441889922946 -0.1775341704212957 
0.006258765355304213 -0.02855771097977181 -0.04090571320571 -0.008678578481456522 
-0.4775304882396927 0.2392214636238055 -0.8214298273106319 0.7830996595606611 
-0.3031469070134136 0.4155464364524475 0.3583413812784585 0.1348918010400946 
-0.5084639631888984 0.9548205923581574 0.4179525727344889 0.1929840034079252 
-0.7048967590412892 -0.7002224100048744 0.7896869043953789 -0.4015030453722666 
0.4997163628262767 -1.016905617570547 -0.3703523875037689 -0.3742139667725136 
-0.73681993950588 0.8114145234900958 0.5619961172784887 0.4301742061122747 
-0.07584987491635749 -0.1796317730666887 -0.2019822765710007 0.5924200665183614 
0.9745199777076179 -1.473889225961637 -0.7822295408728392 -0.6141734226280342 
-0.4344108856985637 0.7891335999702942 0.2893550776496923 0.4689427070011836 
0.7758161964318478 -0.2884390228795132 -0.1392885521589568 -0.05344536860128499 
0.1489164010181328 -0.2500583901877602 -0.1335052274453764 0.0007146762757696528 
-0.202448663388778 0.3772672349787449 0.09444956254138431 0.2737779415852923 
-0.1306260413195031 0.8590672697837128 -0.4362324763819478 0.3244867366109782 
0.02765358156149859 -0.1895155936956367 -0.008068867371282134 -0.08691633954202524 
-0.04634346124214803 -0.1555433458594301 -0.1194766588730526 0.1554082619873829 
1.172516218020439 0.1082918449909268 -1.611306398581954 0.127823892442665 
-0.6726869027025356 1.674167096804189 0.558642331037898 0.6297955194795641 
0.1279171280159417 -0.225947851741044 -0.223500245883388 0.03221763893112008 
-0.2331455712118591 -0.5909205807693261 1.035116325030966 0.2672132917312241 
-0.1371218768490771 0.1135586193487298 0.02382801637472175 0.05032706450237669 
0.07108991665182449 0.01682578668859029 -0.1679699407435252 0.01881653360649735 
1.302719384166131 1.166990113559129 -1.431350093067067 -0.3604411269005287 
-0.2627463584344685 0.5219100181120986 0.2667851321938928 0.02912168750004743 
-0.1162175399890825 0.3746770316199298 -0.02171030723379207 0.0381682617647011 
0.0519992231555497 0.1972856640593315 1.228020654623619 -0.9273584371153548 
0.4853634185257377 -0.3774009808621704 -0.1860437909073228 -0.386478129856907 
0.4911944350273398 -0.4889367308641263 -0.2185742823855955 -0.3655572368949891 
1.136381676402394 0.9188891740519637 -1.148303967150392 -0.9931388229828628 
0.1154606310366387 0.1562812181713781 0.004977650025679238 -0.1673881836987831 
0.4624168215116746 -0.7152916557279223 -0.3218399567040183 -0.4477316143594373 
0.0800759653472943 -1.135435144797661 1.584995454836182 -0.8071379042108637 
-0.04497135045609432 -0.1682498324177264 0.1432333265165303 0.07088857732387061 
-0.07989154635934134 -0.1972389751840016 -0.06638073042307288 -0.06008276311769824 
-0.4777702143746474 0.38009000787336 -0.02723404998958955 0.2301830533521927 
-0.3317109003302112 0.5222828150054537 0.2592628372231354 0.2117426575459215 
0.1089538914895706 -0.2632006969308597 -0.06327955901585991 -0.1091267940944199 
-0.2979230588255861 -0.751796747651272 0.5523011066536996 0.2579799008382404 
0.3242499228760727 -0.5572043402904933 -0.2954420798109942 -0.1292350963027835 
0.08282053085262886 -0.3077967140545624 -0.05627928919798027 0.05142243820794727 
-0.4735688381227833 0.1042307452715836 -0.8800589532882401 0.8751133717045345 
-0.3994425525151747 0.6502060936441113 0.3314509796152885 0.1187363885179158 
-0.4136745266630504 0.6714519992573289 0.385554868695248 0.1853725027498823 
-0.7193976138038685 -0.610615732556732 0.7667130675468175 -0.3940175673757714 
0.5197736074441903 -0.9429525884780017 -0.3825801541387935 -0.423057451941547 
-0.7003330603236435 0.7068077049773088 0.6045977229901967 0.3619277559088195 
-0.06638458612406888 -0.1289344186179641 -0.2578620566578986 0.5544789734715965 
0.9241358864775375 -1.567552769463528 -0.7269514677980159 -0.5522724192622075 
-0.4877884815290511 0.9312509155602036 0.2863185291073219 0.467035034232104 
0.9129474251592746 -0.2747701547964195 -0.1958919937611248 -0.08335159582406006 
0.255286520529199 -0.2057985068572901 -0.1379937502328503 -0.03959132338996901 
-0.06617511766951331 0.09437770031428089 0.03116990266604343 0.3048372133907662 
-0.2514426367404288 0.7206492636155756 -0.3473144289318317 0.3473476175289652 
0.08162119998792888 0.07258662490597187 -0.03270476330362657 -0.1686126690698033 
-0.113692640002311 -0.01464026756764586 -0.1335200551414487 0.1427985886475976 
1.526609326260231 -0.3043609590141202 -1.747002410801402 0.07297426397428361 
-0.3736311913625542 1.27317446295045 0.3730106569905101 0.8162826462769308 
0.5453433216299102 -0.5040191280387589 -0.4130360251577956 0.05960496176558307 
-0.3581758217971094 -0.7777532209234559 1.148887193164775 0.4690627993356968 
-0.185165533806972 -0.05908149409058219 0.01786032826292165 0.06764219685189116 
-0.13495141231531 0.1013471886783279 -0.04392025852564878 -0.00884790612519909 
1.226426595084918 1.345793643212712 -1.476704239989879 -0.5168624097509944 
-0.177546927153203 0.7243514054474627 0.148374569983748 -0.1275039703701836 
-0.2537918105195081 0.2925160804815197 0.1216886962353924 -0.03743343134881556 
0.1509703012091906 0.2379923587493388 1.289557607375464 -1.143127323512083 
0.4387505770885034 -0.1670771979141676 -0.06685559181242821 -0.5334858148746802 
0.3701000062822822 -0.3366447031739008 -0.1918391442622309 -0.3395068410673235 
1.27077349345982 1.058113999713073 -1.270104494609273 -1.177578263992582 
0.130347947059173 0.2034918706038229 -0.00723137276516797 -0.1618786759881195 
0.4257987515521517 -0.7985598980872157 -0.3034526581061704 -0.2833138812674015 
0.02757200609422938 -1.386459515689666 1.669538054765181 -0.8098288277653245 
-0.1103495582064357 -0.2001986584402786 0.1414403481890605 0.05264329271871478 
0.0717286420990175 -0.2486085498880329 -0.04737456390920294 -0.02821877451270058 
-0.5038898196357611 0.3482361901684867 0.05242361460070644 0.4223492791157574 
-0.5843788521918311 0.4303626041284107 0.3183639812575015 0.3809403026644993 
-0.07923570909091052 0.0163226001053394 -0.04257170956999452 -0.05356693444438956 
-0.249370471954144 -0.7683041208009199 0.5537520053386278 0.2042117430302321 
0.3676881436342967 -0.539215156123704 -0.3329330048977206 -0.03876957314703911 
0.2528728176167911 -0.3218147697952617 -0.1480832508791995 0.0304219976737378 
-0.6445605889691131 0.2187488062682625 -0.9090044349282946 0.9642040252213264 
-0.4963160389776038 0.5091446635420173 0.306736690121225 0.2137737370457297 
-0.3273026117118361 0.4698785978844737 0.3963413820429259 0.09778319125406273 
-0.8230854102276219 -0.5583113247198055 0.8399709857630686 -0.2913219461513219 
0.590100910734623 -0.8316601007817492 -0.3876204954532175 -0.4524589862522106 
-0.5619428031104656 0.8894524666061189 0.4011182167294912 0.3001131142114847 
-0.2218203006011846 0.01035988638847679 -0.4211173523790618 0.9164366437117578 
0.7138567136899547 -1.404819016123018 -0.6151795871676274 -0.3993886642147511 
-0.5111573744338865 0.6018564303127629 0.3477753859912676 0.5258931166233622 
1.169137866662557 -0.3032718821200079 -0.2151337093851374 -0.2826853748885598 
0.4428075866371478 -0.2135014686709172 -0.1936022058082795 -0.1683391342893915 
0.02653589396609193 0.08005254405699039 0.01623752691035331 0.2696171947320751 
-0.2503883484972376 0.7663775781541372 -0.3484832498816731 0.2828815849721095 
-0.08983866658987938 0.1638821674704026 -0.0002694483832587219 -0.0869642629303225 
-0.1538221694651164 0.05474961157147057 -0.06899799783516772 0.007683667525359317 
2.661116571974647 -2.032721519791834 -2.496520526620399 0.1390314918011169 
0.4006635169303379 0.5495000366263115 -0.2767365283362418 0.7216704471550579 
0.8455022493739857 -0.3390833087764938 -0.5408280580433699 -0.03619758640713651 
-0.3795858236224602 -0.9232100845812801 1.11187385399904 0.9323072670421289 
-0.5825856201094983 0.03489602553685502 0.2435846934105201 0.3676516065899189 
-0.2973031157706986 -0.0354949009830073 0.0980608145119588 -0.002438543069707651 
1.237474122886695 2.275625198007218 -1.600656485123393 -0.9675929388512248 
-0.07775405991634123 0.2726049244727672 0.07004757262587234 -0.4089501587480756 
-0.2677728996823508 0.347232670557962 0.102933357352815 -0.0002158445094002578 
-0.08221818198160391 1.29805864535542 1.735230921026188 -2.050741744158447 
0.2377881214316474 0.2026951407835135 0.2449212093047457 -0.7529748661838476 
0.2790140681340094 -0.2433194956031474 -0.08777544497162623 -0.1731974546256459 
2.090367600896212 1.380068441811354 -1.905442085094752 -1.260172152132676 
0.4487283559945384 0.472654614647846 -0.5278306081096511 0.04762244475507602 
0.2356641196771063 -0.4141201468146382 -0.2557466954971048 -0.2152676175049588 
-0.03172970452742555 -2.91534645237754 2.074246955079282 -0.6001171962597565 
-0.2099371526401768 -0.7580955114136014 0.3632478254867019 0.2039407525625622 
0.0400317408151467 -0.1893740079173428 0.05660167848190807 -0.08418118388091889 
-0.8353607484703685 0.3204439327180615 0.0450809207344588 0.6847887903479956 
-0.8429749703786253 0.5789834335150993 0.363568807079778 0.3904607021157851 
-0.1862607575674316 -0.05363254117912995 -0.05575219851196368 0.04863394603333564 
-0.230644660576474 -1.005199635608747 0.5653489271035246 0.5217964712016036 
0.6919348215971126 -0.4495681122093461 -0.3700496806655065 -0.1388993495122244 
0.255645613246915 -0.1688705592780758 -0.08581022690954308 -0.05865017885694372 
-0.9201059483617972 -0.2933226295238521 -0.7925681516137952 1.024278368462956 
-0.5863750960925789 0.3509927095437192 0.3261617036765309 0.184948955764082 
-0.1961545435307847 0.3237832979339796 0.2280026076367529 0.07989012995543589 
-1.035844634507636 0.2151369470685878 0.892251832470349 -0.3269071789395832 
0.3659199438296329 -0.4567018293508199 -0.4067359065443032 -0.3599169580440783 
-0.2834276435106394 0.456833069093786 0.2029197163802569 0.2723830380160049 
-1.089935041105806 0.3816329107963304 0.1059707612808741 1.278050586334448 
0.1137031780952945 -1.217573449150464 -0.1151888074579704 -0.201758551093139 
-0.416201235250963 0.3646051570496914 0.3349172873810551 0.4178330100729903 
2.099982561394479 -0.4898183827429445 -0.7226890824446413 -0.668139359134546 
0.7557451436296202 0.01737377590469266 -0.3919987211687931 -0.2498415064569877 
0.1765716392542507 0.07654709714534808 -0.02445974033990282 0.05186952914912164 
-0.4250116619719538 1.23063351812034 -0.2908935634917325 0.2392996357756086 
-0.2555979039488036 0.0904917066721739 0.1386160947791716 -6.077785214685105e-05 
-0.1626963816517305 0.01343440311079653 -0.06807260645555625 0.0482908255460119 
0.8238265154188347 -1.375913943946796 -0.6565042951833944 -0.5149878557244874 
0 0 0 0 
